tree
version=v2
num_class=1
num_tree_per_iteration=1
label_index=0
max_feature_idx=64
objective=binary sigmoid:1
feature_names=Speed__count_above_mean Speed__longest_strike_above_mean Speed__maximum Speed__mean Speed__mean_abs_change Speed__mean_change Speed__median Speed__minimum Speed__number_cwt_peaks__n_1 Speed__number_cwt_peaks__n_5 Speed__number_peaks__n_1 Speed__number_peaks__n_10 Speed__number_peaks__n_3 Speed__number_peaks__n_5 Speed__number_peaks__n_50 Speed__ratio_beyond_r_sigma__r_0.5 Speed__ratio_beyond_r_sigma__r_1 Speed__ratio_beyond_r_sigma__r_1.5 Speed__ratio_beyond_r_sigma__r_2 Speed__standard_deviation Speed__sum_values acceleration_abs__count_above_mean acceleration_abs__longest_strike_above_mean acceleration_abs__maximum acceleration_abs__mean acceleration_abs__mean_abs_change acceleration_abs__mean_change acceleration_abs__median acceleration_abs__minimum acceleration_abs__number_cwt_peaks__n_1 acceleration_abs__number_cwt_peaks__n_5 acceleration_abs__number_peaks__n_1 acceleration_abs__number_peaks__n_10 acceleration_abs__number_peaks__n_3 acceleration_abs__number_peaks__n_5 acceleration_abs__number_peaks__n_50 acceleration_abs__ratio_beyond_r_sigma__r_0.5 acceleration_abs__ratio_beyond_r_sigma__r_1 acceleration_abs__ratio_beyond_r_sigma__r_1.5 acceleration_abs__ratio_beyond_r_sigma__r_2 acceleration_abs__standard_deviation acceleration_abs__sum_values gyro_abs__count_above_mean gyro_abs__longest_strike_above_mean gyro_abs__maximum gyro_abs__mean gyro_abs__mean_abs_change gyro_abs__mean_change gyro_abs__median gyro_abs__minimum gyro_abs__number_cwt_peaks__n_1 gyro_abs__number_cwt_peaks__n_5 gyro_abs__number_peaks__n_1 gyro_abs__number_peaks__n_10 gyro_abs__number_peaks__n_3 gyro_abs__number_peaks__n_5 gyro_abs__number_peaks__n_50 gyro_abs__ratio_beyond_r_sigma__r_0.5 gyro_abs__ratio_beyond_r_sigma__r_1 gyro_abs__ratio_beyond_r_sigma__r_1.5 gyro_abs__ratio_beyond_r_sigma__r_2 gyro_abs__standard_deviation gyro_abs__sum_values seconds_copy__maximum bookingID
feature_infos=[0:2435] [1:1905] [-1:148.01863] [-1:29.557195254734587] [0:16.375196992485638] [-0.15112781954887214:0.12428571428571419] [-1:30.468206500000001] [-1.7197758999999999:25.29604339599609] [0:403] [0:399] [0:1499] [0:228] [0:641] [0:402] [0:38] [0:1] [0:0.7615062761506276] [0:0.27450980392156865] [0:0.16488222698072805] [0:14.583800841220288] [-1905:55761.699446499348] [33:2057] [2:22] [1.1241349675337533:115.1522441163311] [0.97305005418626656:40.030455066270427] [0.019981368536505045:7.2370399988135494] [-0.044664870102932984:0.028014010424860063] [0.9713561718230882:39.686073698742312] [0.00507422807335266:34.317898948354994] [9:352] [7:329] [34:1509] [3:211] [11:650] [8:403] [0:43] [0.017937219730941704:0.94223363286264439] [0.0033039647577092512:0.4414715719063545] [0.0033039647577092512:0.27503736920777277] [0:0.10476190476190476] [0.028239571218351286:8.3268054726583962] [116.76600650235198:66158.582663347683] [8:1778] [1:507] [0.0098216320195586709:80.777981006019587] [0.003342424708019231:6.041510298096088] [0:5.0653985653084384] [-0.019272988438847425:0.054141011885884174] [0.000101442229680526:9.4963207480495022] [0:1.3917239855200134] [1:385] [2:395] [0:1509] [0:209] [0:635] [0:388] [0:46] [0.0019243104554201411:1] [0:0.54110612855007478] [0:0.17254901960784313] [0:0.16078431372549021] [3.4694469519536134e-18:4.778109002729499] [0.95259104178548082:4706.3365222168522] [119:619315993] [1:1709396983975]
tree_sizes=1014 1023 1028 1030 1031 1038 1039 1042 1037 1038 1039 1034 1043 1017 1042 1045 1016 1018 1000 1012 1040 1050 1033 1047 1044 1047 1017 1044 1042 1050 1048 1045 1040 1016 1041 1044 1042 1059 1050 1043 1051 1038 1056 1043 1040 1031 1035 1026 1041 1014 1001 1050 1037 980 1024 1034 879 1007 1026 1049 1014 1029 1055 1057 1003 1030 1026 1044 1054 1030 1043 969 1050 1025 1059 1005 1030 1060 1056 1011

Tree=0
num_leaves=12
num_cat=0
split_feature=63 63 40 20 63 20 63 3 6 23 36
split_gain=755.018 292.25 172.957 147.822 115.023 62.6582 48.2392 42.2272 36.717 33.1011 30.3731
threshold=1184.5000000000002 1738.5000000000002 1.5755079728409251 4433.7062720003469 539.50000000000011 3686.5303665883771 2175.5000000000005 6.5551228470489651 6.3485759541046152 14.875166439089519 0.42964012170811045
decision_type=2 2 2 2 2 2 2 2 2 2 2
left_child=2 3 4 9 8 -6 -3 -4 -1 -2 -5
right_child=1 6 7 10 5 -7 -8 -9 -10 -11 -12
leaf_value=-1.1244720358095464 -1.0236469801769115 -1.0033395810560766 -0.94707039687655314 -1.058760210523263 -1.0898688791851747 -1.1149388446688511 -0.92790949829904168 -1.0982338425403246 -1.1504127419713366 -0.91167540950520309 -1.0845078935682373
leaf_count=1953 79 508 100 967 1848 4628 165 28 1236 87 1801
internal_value=0 0.903087 -0.33266 0.585609 -0.368506 -0.190585 2.27768 2.32279 -0.72805 2.70523 0.456071
internal_count=13400 3607 9793 2934 9665 6476 673 128 3189 166 2768
shrinkage=1


Tree=1
num_leaves=12
num_cat=0
split_feature=63 63 25 40 63 20 3 63 6 3 3
split_gain=675.195 252.923 143.628 129.05 98.3281 65.9637 51.192 35.5996 33.8805 33.7475 19.4216
threshold=1153.5000000000002 1738.5000000000002 1.5133914815264402 1.5755079728409251 539.50000000000011 3686.5303665883771 6.8366880081031178 2175.5000000000005 6.3485759541046152 6.0883802274189973 4.7353678661131609
decision_type=2 2 2 2 2 2 2 2 2 2 2
left_child=2 3 4 9 8 -6 -4 10 -1 -2 -3
right_child=1 7 6 -5 5 -7 -8 -9 -10 -11 -12
leaf_value=-0.025481063425420176 0.049944765123751657 0.15872866343959319 0.14788651840883499 0.15379344290046124 0.0081119154628512685 -0.017872110073519819 -0.019915823041147196 0.14915421480166569 -0.050704769481868965 0.0166538623995439 0.077521329670423647
leaf_count=1955 483 49 88 96 1842 4344 29 165 1233 2657 459
internal_value=0 0.796107 -0.337711 0.522883 -0.371081 -0.20044 2.12936 2.04724 -0.704966 0.438296 1.72013
internal_count=13400 3909 9491 3236 9374 6186 117 673 3188 3140 508
shrinkage=0.05


Tree=2
num_leaves=12
num_cat=0
split_feature=63 63 25 40 63 20 3 6 34 6 20
split_gain=603.322 212.026 125.456 106.706 91.8788 60.1713 42.1881 32.5028 30.7443 29.7673 15.6639
threshold=1153.5000000000002 1738.5000000000002 1.5133914815264402 1.5755079728409251 539.50000000000011 3686.5303665883771 6.8366880081031178 6.3485759541046152 163.50000000000003 1.7099487590789797 13256.246790845447
decision_type=2 2 2 2 2 2 2 2 2 2 2
left_child=2 3 4 9 7 -6 -4 -1 10 -2 -3
right_child=1 8 6 -5 5 -7 -8 -9 -10 -11 -12
leaf_value=-0.02453491254152208 0.07492675060282547 0.10083900222912943 0.13202245849094774 0.13694503762701102 0.0076747495606866237 -0.017137955725715259 -0.019131912188446534 -0.049512268317279354 0.12950926753004904 0.018173747543765426 0.055901523751113597
leaf_count=1955 125 197 88 96 1842 4344 29 1233 208 3015 268
internal_value=0 0.742576 -0.323908 0.490569 -0.356113 -0.191419 1.92947 -0.682569 1.86052 0.411943 1.51374
internal_count=13400 3909 9491 3236 9374 6186 117 3188 673 3140 465
shrinkage=0.05


Tree=3
num_leaves=12
num_cat=0
split_feature=63 63 25 63 20 3 44 6 63 54 20
split_gain=541.944 158.029 130.799 100.226 89.3251 54.0134 38.4089 31.2025 25.7918 21.8816 15.6412
threshold=1229.5000000000002 1779.5000000000002 1.5133914815264402 539.50000000000011 4433.7062720003469 4.842856233589127 1.7971645774583898 6.3485759541046152 1468.5000000000002 262.50000000000006 12630.981249395501
decision_type=2 2 2 2 2 2 2 2 2 2 2
left_child=2 4 3 7 -2 -5 -4 -1 -6 10 -3
right_child=1 9 6 5 8 -7 -8 -9 -10 -11 -12
leaf_value=-0.023617543416980899 0.11178364821201446 0.1018371825130356 -0.020453541547477888 0.013364189349897641 0.0111690700103195 -0.012741501374429073 0.12081300230368873 -0.048360349593292683 0.034433494912265154 0.12174666304182624 0.054359078312783894
leaf_count=1955 137 157 28 1292 1422 5490 104 1233 1145 182 255
internal_value=0 0.780828 -0.277264 -0.310851 0.536332 -0.152537 1.84922 -0.660815 0.433633 1.78215 1.46871
internal_count=13400 3298 10102 9970 2704 6782 132 3188 2567 594 412
shrinkage=0.05


Tree=4
num_leaves=12
num_cat=0
split_feature=63 63 25 40 63 20 3 6 17 63 60
split_gain=488.806 154.718 97.545 81.5953 79.6091 52.0419 31.7474 29.9674 26.2263 22.1126 12.4863
threshold=1153.5000000000002 1738.5000000000002 1.5133914815264402 1.5755079728409251 539.50000000000011 3686.5303665883771 6.8366880081031178 6.3485759541046152 0.1325097859793605 2175.5000000000005 0.034522483826492742
decision_type=2 2 2 2 2 2 2 2 2 2 2
left_child=2 3 4 8 7 -6 -4 -1 -2 10 -3
right_child=1 9 6 -5 5 -7 -8 -9 -10 -11 -12
leaf_value=-0.022728069110498232 0.023769290659733471 0.024224545563021064 0.11001784461924063 0.11663094679049042 0.007138861675736608 -0.015945570135509152 -0.019171077128398124 -0.047244466215084213 -0.001027154439118874 0.11356285232981851 0.074038062764771914
leaf_count=1955 2460 85 88 96 1842 4344 29 1233 680 165 423
internal_value=0 0.654244 -0.29892 0.436889 -0.328777 -0.176106 1.62428 -0.639664 0.366733 1.57576 1.32392
internal_count=13400 3909 9491 3236 9374 6186 117 3188 3140 673 508
shrinkage=0.05


Tree=5
num_leaves=12
num_cat=0
split_feature=63 63 63 3 40 48 6 61 58 34 63
split_gain=438.804 134.271 88.7994 92.7059 70.7324 57.9994 38.5826 32.3581 25.5476 19.3 17.5853
threshold=1153.5000000000002 1738.5000000000002 597.50000000000011 3.9460676321083628 1.5755079728409251 0.13860148769372196 9.5289067500000026 0.12878665679437559 0.20033021538863602 163.50000000000003 359.50000000000006
decision_type=2 2 2 2 2 2 2 2 2 2 2
left_child=2 4 6 5 8 -4 10 -5 -2 -3 -1
right_child=1 9 3 7 -6 -7 -8 -9 -10 -11 -12
leaf_value=-0.034869996751824006 0.021250666807022336 0.059515620433710927 0.022763123408452629 -0.015604771260506124 0.10751350202300275 0.12716865031996891 -0.052531597559142267 0.0053450859537058065 -0.0083986097603542288 0.10065963665596477 -0.015107090177502034
leaf_count=1067 2722 465 442 3890 96 72 834 1337 418 208 1849
internal_value=0 0.613972 -0.28661 -0.106085 0.411076 0.802705 -0.577234 -0.203442 0.345258 1.46118 -0.447108
internal_count=13400 3909 9491 5741 3236 514 3750 5227 3140 673 2916
shrinkage=0.05


Tree=6
num_leaves=12
num_cat=0
split_feature=63 63 40 6 63 4 37 63 64 63 52
split_gain=395.732 160.282 104.912 69.0708 47.1618 53.0036 36.9306 27.9115 12.8268 10.3484 11.4574
threshold=929.50000000000011 1634.5000000000002 1.5755079728409251 13.356710500000002 359.50000000000006 3.0330984366337574 0.23501845681022893 1884.5000000000002 1494648619097.5002 793.50000000000011 254.50000000000003
decision_type=2 2 2 2 2 2 2 2 2 2 2
left_child=3 2 6 4 -1 -6 -2 8 -3 -5 -11
right_child=1 7 -4 9 5 -7 -8 -9 -10 10 -12
leaf_value=-0.035844139872351223 0.016200287671307916 0.036383532876502978 0.10128179029410907 -0.053997277288994498 0.062141576900362219 -0.011157415066247057 -0.0052239277027700416 0.080470533067488137 0.088792037186334716 0.01330700012176653 -0.040199033743370791
leaf_count=1203 3129 521 134 836 131 5140 1571 414 70 71 180
internal_value=0 0.428967 0.245247 -0.370271 -0.278205 -0.183407 0.180499 1.19359 0.862919 -0.939794 -0.478723
internal_count=13400 5839 4834 7561 6474 5271 4700 1005 591 1087 251
shrinkage=0.05


Tree=7
num_leaves=12
num_cat=0
split_feature=63 63 63 40 20 0 3 63 46 63 6
split_gain=359.64 91.0588 91.0339 83.4661 63.3447 39.8549 36.759 25.115 22.4004 17.6278 10.4406
threshold=1229.5000000000002 1868.5000000000002 597.50000000000011 1.4075746885688645 4433.7062720003469 261.50000000000006 6.5219228605966046 1468.5000000000002 0.22094859940418263 284.50000000000006 12.477848120819095
decision_type=2 2 2 2 2 2 2 2 2 2 2
left_child=2 4 6 5 -2 -4 9 -6 -5 -1 -8
right_child=1 -3 3 8 7 -7 10 -9 -10 -11 -12
leaf_value=-0.037434347157388907 0.089611013240050205 0.073883480340932714 0.012987671259277456 -0.019315771675635213 0.0080301446630015212 -0.010391894164704469 -0.033442414157403996 0.02975457031277029 0.09597524484948608 -0.010606541369181814 -0.055999977952491203
leaf_count=482 146 440 1203 22 1422 5016 1046 1290 111 1636 586
internal_value=0 0.614421 -0.236068 -0.0695565 0.457493 -0.11397 -0.541873 0.373136 1.56771 -0.333528 -0.829906
internal_count=13400 3298 10102 6352 2858 6219 3750 2712 133 2118 1632
shrinkage=0.05


Tree=8
num_leaves=12
num_cat=0
split_feature=63 63 20 6 63 4 58 63 19 45 63
split_gain=331.362 124.338 90.0483 63.4281 41.8737 45.5494 28.4403 24.8973 20.1056 17.9791 9.41741
threshold=929.50000000000011 1634.5000000000002 3484.2550000000006 13.593273556610109 359.50000000000006 3.0330984366337574 0.1458722673673343 2175.5000000000005 5.7479205269742168 0.17685973206111985 793.50000000000011
decision_type=2 2 2 2 2 2 2 2 2 2 2
left_child=3 2 9 4 -1 -6 -4 8 -3 -2 -5
right_child=1 7 6 10 5 -7 -8 -9 -10 -11 -12
leaf_value=-0.034014660526247478 0.044625824332641541 0.082628575603785698 0.012691964233949077 -0.052779797103636096 0.056588604211947814 -0.010395841914423351 -0.007401846639664332 0.089141457761326398 0.03638418847065971 0.10490441582090909 -0.022899473672603237
leaf_count=1209 171 132 3297 814 131 5168 1263 165 708 103 239
internal_value=0 0.387468 0.224511 -0.344934 -0.258846 -0.17031 0.142635 1.04982 0.884375 1.42084 -0.915238
internal_count=13400 5839 4834 7561 6508 5299 4560 1005 840 274 1053
shrinkage=0.05


Tree=9
num_leaves=12
num_cat=0
split_feature=63 63 20 6 63 20 37 34 45 48 63
split_gain=299.897 110.328 79.8856 60.0652 39.1076 41.6834 27.1494 22.9165 16.367 15.8927 9.19512
threshold=929.50000000000011 1634.5000000000002 3484.2550000000006 13.593273556610109 359.50000000000006 1781.9050000000004 0.23501845681022893 163.50000000000003 0.17685973206111985 0.114180953320247 793.50000000000011
decision_type=2 2 2 2 2 2 2 2 2 2 2
left_child=3 2 8 4 -1 -6 -4 9 -2 -3 -5
right_child=1 7 6 10 5 -7 -8 -9 -10 -11 -12
leaf_value=-0.032990991457918659 0.041572092479789755 0.032321359200378784 0.013034442049343531 -0.05182275127203452 0.015700514402887149 -0.012765435587540137 -0.005460053795258637 0.079660952999032239 0.098810636611770225 0.072005282766024123 -0.022039495696591485
leaf_count=1209 171 645 3002 814 836 4463 1558 210 103 150 239
internal_value=0 0.36616 0.212433 -0.331215 -0.24782 -0.162551 0.134965 0.986117 1.33067 0.804882 -0.894569
internal_count=13400 5839 4834 7561 6508 5299 4560 1005 274 795 1053
shrinkage=0.05


Tree=10
num_leaves=12
num_cat=0
split_feature=63 63 61 6 63 25 20 17 20 3 49
split_gain=274.545 73.3469 69.2516 52.4817 52.4542 44.0715 35.9641 26.0189 18.3453 15.7941 8.59754
threshold=1153.5000000000002 1868.5000000000002 0.25120148491631161 1.7099487590789797 494.50000000000006 1.3897690417604773 3686.5303665883771 0.12884329496073801 2370.5348407450006 3.5372476846427556 0.007758200823949033
decision_type=2 2 2 2 2 2 2 2 2 2 2
left_child=2 3 4 -2 8 9 -6 -5 -1 -4 -7
right_child=1 -3 5 7 6 10 -8 -9 -10 -11 -12
leaf_value=-0.022167346337122477 0.069426672557922883 0.062189543816847749 0.056425067960144563 0.01950546250374318 0.0032537939598736884 0.10276315346768963 -0.01569120803650775 -0.0034181681243746435 -0.045239221538136094 0.00067927758227067096 0.019533666022689872
leaf_count=1611 201 440 80 2480 2014 73 4196 788 945 547 25
internal_value=0 0.470871 -0.236983 0.352768 -0.298569 0.447732 -0.184817 0.279479 -0.608415 0.17337 1.69353
internal_count=13400 3909 9491 3469 8766 725 6210 3268 2556 627 98
shrinkage=0.05


Tree=11
num_leaves=12
num_cat=0
split_feature=63 63 40 6 63 20 6 63 19 63 52
split_gain=251.132 89.4575 67.4972 55.84 35.31 38.1804 30.0148 20.507 16.6396 8.97351 10.0119
threshold=929.50000000000011 1634.5000000000002 1.8989557386327196 13.593273556610109 359.50000000000006 1063.6528113374002 1.5667352500000002 2175.5000000000005 5.7479205269742168 793.50000000000011 254.50000000000003
decision_type=2 2 2 2 2 2 2 2 2 2 2
left_child=3 2 6 4 -1 -6 -2 8 -3 -5 -11
right_child=1 7 -4 9 5 -7 -8 -9 -10 10 -12
leaf_value=-0.031337140624251907 0.047024260859657857 0.071260105906593846 0.085146842280257373 -0.050439650063056556 0.036418126060071845 -0.0097213611844419612 0.0050883739804084196 0.077439518767352403 0.029866652656114448 0.014750475346210108 -0.037213782321097358
leaf_count=1209 213 132 117 814 249 5050 4504 165 708 69 170
internal_value=0 0.331774 0.193039 -0.307843 -0.22784 -0.147136 0.144388 0.885373 0.7383 -0.863744 -0.412629
internal_count=13400 5839 4834 7561 6508 5299 4717 1005 840 1053 239
shrinkage=0.05


Tree=12
num_leaves=12
num_cat=0
split_feature=63 63 20 6 61 63 34 3 1 20 45
split_gain=227.54 80.5351 61.8766 52.8504 34.0207 28.9646 23.6276 22.057 22.0286 21.4223 12.4161
threshold=929.50000000000011 1558.5000000000002 3484.2550000000006 13.356710500000002 0.1962148180868368 388.50000000000006 163.50000000000003 4.0323700392485202 10.500000000000002 12916.131220982725 0.17685973206111985
decision_type=2 2 2 2 2 2 2 2 2 2 2
left_child=3 2 10 4 5 -1 9 -6 -4 -3 -2
right_child=1 6 8 -5 7 -7 -8 -9 -10 -11 -12
leaf_value=-0.031711409351119636 0.036226322246962851 0.048495676943620288 0.0092119968186306512 -0.041678654215118613 0.049854953474903853 -0.0096677598678937028 0.069222116909393755 0.00068203979865800503 -0.0093475940995182607 0.018308812223681779 0.087352241485258747
leaf_count=1232 171 467 3099 1087 161 4574 210 507 1123 673 96
internal_value=0 0.314246 0.157975 -0.295369 -0.216409 -0.278054 0.754777 0.281525 0.0849766 0.622214 1.14585
internal_count=13400 5839 4489 7561 6474 5806 1350 668 4222 1140 267
shrinkage=0.05


Tree=13
num_leaves=12
num_cat=0
split_feature=63 61 63 63 24 25 0 2 20 6 23
split_gain=207.671 57.2959 54.8075 41.4176 41.3854 38.2774 32.3385 21.7854 17.3012 14.2947 8.5727
threshold=1153.5000000000002 0.19121751781981247 1868.5000000000002 494.50000000000006 10.210854846892854 1.2239850700582648 209.50000000000003 31.321880493164066 2370.5348407450006 10.127114250000002 14.505638293432414
decision_type=2 2 2 2 2 2 2 2 2 2 2
left_child=1 3 4 8 7 9 -5 -2 -1 -3 -6
right_child=2 5 -4 6 10 -7 -8 -9 -10 -11 -12
leaf_value=-0.020079794552713779 0.011214827810950272 0.012681186446305549 0.053515644729196302 0.012396987359230447 0 0.069934933968526458 -0.012406582912687727 0.071965632614167954 -0.043410876198777211 -0.027319521349979805 0.086109510024570665
leaf_count=1580 3270 729 440 827 21 121 5156 75 918 160 103
internal_value=0 -0.210572 0.404494 -0.278727 0.303064 0.311096 -0.175586 0.252761 -0.565107 0.112881 1.48862
internal_count=13400 9491 3909 8481 3469 1010 5983 3345 2498 889 124
shrinkage=0.05


Tree=14
num_leaves=12
num_cat=0
split_feature=63 3 63 6 63 20 50 2 63 52 3
split_gain=190.524 69.3502 64.1508 49.0178 30.1551 33.4723 23.1973 23.1748 9.17078 9.52183 7.44036
threshold=929.50000000000011 2.8516361406923338 1468.5000000000002 13.593273556610109 359.50000000000006 1781.9050000000004 158.50000000000003 28.806023500000006 793.50000000000011 254.50000000000003 3.5969791166330443
decision_type=2 2 2 2 2 2 2 2 2 2 2
left_child=3 -2 7 4 10 -6 -4 -3 -5 -10 -1
right_child=1 2 6 8 5 -7 -8 -9 9 -11 -12
leaf_value=-0.007823759541181214 0.080471795419519557 0.0010462076434456296 0.024618604015146279 -0.048402747765544062 0.01498825451687528 -0.010565057719026959 0.069247888745075342 0.034989479547147713 0.017137954442700991 -0.034567898145561625 -0.034475731227839944
leaf_count=253 161 3672 1587 814 836 4463 136 283 69 170 956
internal_value=0 0.285365 0.240116 -0.274006 -0.199851 -0.125762 0.572406 0.0706351 -0.814813 -0.353272 -0.578854
internal_count=13400 5839 5678 7561 6508 5299 1723 3955 1053 239 1209
shrinkage=0.05


Tree=15
num_leaves=12
num_cat=0
split_feature=63 25 63 6 18 0 50 46 3 45 4
split_gain=172.677 65.0208 56.2176 46.2838 28.6842 24.8146 20.0026 17.9432 17.5015 17.2456 9.05923
threshold=929.50000000000011 1.3897690417604773 1511.5000000000002 13.593273556610109 0.02612578400931256 265.50000000000006 158.50000000000003 0.117492162357088 5.8649672810214755 0.29588345283043443 10.350227190937025
decision_type=2 2 2 2 2 2 2 2 2 2 2
left_child=3 2 5 4 9 -2 -4 -6 -3 -1 -5
right_child=1 8 6 10 7 -7 -8 -9 -10 -11 -12
leaf_value=-0.019058994859905254 0.048234655910028297 0.084713030936755945 0.023794087398213547 -0.044200242015057636 -0.0075902058870363906 0.0018824112215417186 0.065735625971392375 0.012065233997075285 0.010951515139138508 0.027076758815009806 -0.00065824673993078464
leaf_count=3363 144 164 1352 944 2047 3987 136 986 56 112 109
internal_value=0 0.270478 0.219579 -0.262773 -0.191133 0.073794 0.561508 -0.0202941 1.36843 -0.346766 -0.796197
internal_count=13400 5839 5619 7561 6508 4131 1488 3033 220 3475 1053
shrinkage=0.05


Tree=16
num_leaves=12
num_cat=0
split_feature=63 3 63 6 2 63 8 50 48 0 4
split_gain=158.073 76.5029 67.4107 43.762 30.1076 22.6018 34.5012 22.4606 21.9763 8.83493 4.80938
threshold=787.00000000000011 3.7077136410504479 1468.5000000000002 13.356710500000002 28.806023500000006 284.50000000000006 28.500000000000004 158.50000000000003 0.09611394325693158 258.50000000000006 11.074218676737109
decision_type=2 2 2 2 2 2 2 2 2 2 2
left_child=3 8 4 5 -3 -1 -7 -4 9 -2 -5
right_child=1 2 7 10 -6 6 -8 -9 -10 -11 -12
leaf_value=-0.033733008057442601 0.058304608008740315 -0.0017736574257306683 0.021287276038113964 -0.048603345899876055 0.033793560926693965 0.034389626259485107 -0.011545423643257674 0.065766988411840796 0.082690015078337495 0.010461057307380124 0
leaf_count=745 84 5004 1554 797 333 247 4158 133 176 134 35
internal_value=0 0.205289 0.146792 -0.317338 0.00885278 -0.240076 -0.176553 0.504021 1.11218 0.600484 -0.925817
internal_count=13400 7418 7024 5982 5337 5150 4405 1687 394 218 832
shrinkage=0.05


Tree=17
num_leaves=12
num_cat=0
split_feature=63 6 63 6 2 44 63 20 63 63 4
split_gain=143.82 68.8306 58.3873 39.5793 22.7866 22.2599 20.4751 32.1866 16.7127 8.71388 5.28872
threshold=778.50000000000011 1.7099487590789797 1558.5000000000002 13.356710500000002 28.806023500000006 2.6370639264839637 284.50000000000006 1063.6528113374002 2175.5000000000005 1184.5000000000002 11.074218676737109
decision_type=2 2 2 2 2 2 2 2 2 2 2
left_child=3 5 4 6 -3 9 -1 -8 -4 -2 -5
right_child=1 2 8 10 -6 -7 7 -9 -10 -11 -12
leaf_value=-0.032783841633370274 0.011463727587686785 -0.00092762126517155247 0.021670201798384629 -0.047991723089980384 0.027555756917776033 0.072414992357779623 0.027508277684599347 -0.011885409358416232 0.060446515906657144 0.051247490791823336 0
leaf_count=745 219 5384 1110 777 386 215 309 3983 138 102 32
internal_value=0 0.191106 0.127584 -0.31106 0.0200821 0.929054 -0.237392 -0.175544 0.526489 0.528574 -0.909981
internal_count=13400 7554 7018 5846 5770 536 5037 4292 1248 321 809
shrinkage=0.05


Tree=18
num_leaves=12
num_cat=0
split_feature=63 61 6 6 63 25 11 4 17 16 28
split_gain=131.647 50.4851 40.1655 37.8773 33.4907 29.3037 27.4224 25.3989 21.5115 10.4331 10.356
threshold=1229.5000000000002 0.1962148180868368 1.7099487590789797 14.505732500000002 494.50000000000006 1.2239850700582648 81.500000000000014 10.976464033777805 0.11835932059261216 0.21062576328532259 4.560844088909036
decision_type=2 2 2 2 2 2 2 2 2 2 2
left_child=1 3 -2 4 -1 9 8 -5 -4 -3 -7
right_child=2 5 6 7 -6 10 -8 -9 -10 -11 -12
leaf_value=-0.022101512277349654 0.061301715982813233 0.029212728210058006 0.017452249345265566 -0.038328923254108055 -0.0033408605390387552 0.077109259383296339 0.046108857207812617 0.032454200306257432 -0.0026985708148122853 0 0
leaf_count=2161 212 221 1940 1139 5675 103 262 79 884 692 32
internal_value=0 -0.153732 0.356938 -0.21611 -0.15723 0.327085 0.290309 -0.655779 0.222813 0.150376 1.23259
internal_count=13400 10102 3298 9054 7836 1048 3086 1218 2824 913 135
shrinkage=0.05


Tree=19
num_leaves=12
num_cat=0
split_feature=63 3 63 6 2 48 63 63 8 0 2
split_gain=122.11 60.4273 51.5153 36.7547 25.1528 21.0596 19.474 18.6352 30.6903 8.82119 3.79126
threshold=778.50000000000011 3.7077136410504479 1468.5000000000002 13.593273556610109 28.806023500000006 0.09611394325693158 2175.5000000000005 284.50000000000006 28.500000000000004 258.50000000000006 30.566008500000006
decision_type=2 2 2 2 2 2 2 2 2 2 2
left_child=3 5 4 7 -3 9 -4 -1 -9 -2 -5
right_child=1 2 6 10 -6 -7 -8 8 -10 -11 -12
leaf_value=-0.031370112664881489 0.051784803876635171 -0.0017988390082855469 0.01806006953200642 -0.04696047819558391 0.030063038398567089 0.075611629584138501 0.058839482898666397 0.03228600490720742 -0.010811983751713083 0.0055886247480679023 0
leaf_count=747 87 5123 1546 754 339 180 141 246 4066 138 33
internal_value=0 0.1751 0.123492 -0.290056 0.00452044 0.974296 0.434802 -0.221057 -0.162469 0.492674 -0.895051
internal_count=13400 7554 7149 5846 5462 405 1687 5059 4312 225 787
shrinkage=0.05


Tree=20
num_leaves=12
num_cat=0
split_feature=63 3 6 63 3 23 63 17 48 27 4
split_gain=111.283 44.7596 38.9888 33.3699 29.1861 29.0629 27.4773 21.193 20.5739 9.71375 9.68518
threshold=1003.5000000000001 4.8157530466045335 14.505732500000002 1896.5000000000002 3.5969791166330443 14.963089935359982 539.50000000000011 0.12884329496073801 0.10254948160398637 9.9535488556109559 10.350227190937025
decision_type=2 2 2 2 2 2 2 2 2 2 2
left_child=2 8 4 7 5 -1 -6 -3 9 -2 -4
right_child=1 3 10 -5 6 -7 -8 -9 -10 -11 -12
leaf_value=0.0038956266992152162 0.018783047209469703 0.0097815634891448497 -0.04147334180779122 0.039106125111029642 -0.021854122772292418 0.066475245160844007 -0.0043145909512561096 -0.008279988338410791 0.073066128220739587 0.081075989143754093 0.00070672692287870702
leaf_count=753 315 3294 894 334 2313 106 4053 1049 165 35 89
internal_value=0 0.236969 -0.196455 0.166014 -0.139858 0.265998 -0.200472 0.108486 0.834364 0.515346 -0.733339
internal_count=13400 5192 8208 4677 7225 859 6366 4343 515 350 983
shrinkage=0.05


Tree=21
num_leaves=12
num_cat=0
split_feature=63 3 63 6 45 2 18 50 64 45 39
split_gain=102.539 52.6334 44.3329 36.1856 31.068 25.3059 19.1733 18.7592 13.1561 11.1133 8.83765
threshold=787.00000000000011 4.8157530466045335 1468.5000000000002 15.582107333984377 0.2082054452489506 28.806023500000006 0.02612578400931256 158.50000000000003 1408749273149.5002 0.20271222787331822 0.064709889405353438
decision_type=2 2 2 2 2 2 2 2 2 2 2
left_child=3 4 5 6 10 -3 9 -4 -8 -1 -2
right_child=1 2 7 -5 -6 -7 8 -9 -10 -11 -12
leaf_value=-0.02005569092933954 0.02618440524499592 -0.0038705118917321648 0.015392020181271424 -0.048925725335646618 0.069181121370915685 0.028257200657135374 0.0013354266961736311 0.056906486869182898 -0.021995460654512494 0.0099825434180484309 -0.0063228877386237578
leaf_count=2647 600 4542 1494 610 206 332 2098 132 436 191 112
internal_value=0 0.162906 0.0887741 -0.263519 0.652879 -0.0295587 -0.206364 0.379513 -0.0514872 -0.355345 0.417389
internal_count=13400 7418 6500 5982 918 4874 5372 1626 2534 2838 712
shrinkage=0.05


Tree=22
num_leaves=12
num_cat=0
split_feature=63 46 57 63 6 37 63 8 4 50 44
split_gain=93.3183 49.0419 38.6187 37.5612 32.3499 24.6624 17.7855 28.9082 9.53846 9.07762 6.80984
threshold=778.50000000000011 0.31221190647100455 0.28455830195885851 1738.5000000000002 15.582107333984377 0.21111593783183705 284.50000000000006 28.500000000000004 8.4468300375501553 161.50000000000003 7.6366017094690362
decision_type=2 2 2 2 2 2 2 2 2 2 2
left_child=4 3 10 5 6 -2 -1 -8 -4 -5 -3
right_child=1 2 8 9 -6 -7 7 -9 -10 -11 -12
leaf_value=-0.030113731924861938 0.011161516465993088 0.047944347269487007 0.073868970510923893 0.022437941974782914 -0.047931541939788901 -0.0031937503356515282 0.031550077763876382 -0.0099756919862704577 0.0024147086732357933 0.056271418776196624 -0.011268313324902836
leaf_count=780 2496 29 245 487 595 4011 249 4222 34 120 132
internal_value=0 0.151817 0.85677 0.104293 -0.258088 0.0472655 -0.203968 -0.14736 1.33396 0.582688 -0
internal_count=13400 7554 440 7114 5846 6507 5251 4471 279 607 161
shrinkage=0.05


Tree=23
num_leaves=12
num_cat=0
split_feature=63 61 25 6 63 53 21 3 63 58 50
split_gain=86.3415 40.4622 30.6316 29.5113 22.3522 19.5541 19.7339 16.6956 11.6373 9.35728 9.17437
threshold=1229.5000000000002 0.073504980411000218 1.5133914815264402 1.7099487590789797 597.50000000000011 83.500000000000014 473.50000000000006 4.4768530043284231 701.00000000000011 0.12041009298009071 138.50000000000003
decision_type=2 2 2 2 2 2 2 2 2 2 2
left_child=1 7 4 -2 -3 6 -5 -1 -9 -4 -7
right_child=3 2 9 5 -6 10 -8 8 -10 -11 -12
leaf_value=0.0044983332175494361 0.05239740541705365 -0.013342350068364464 0.075971521979993573 0.027820436768768133 0.00021770517389558942 -0.00075197429260674979 0.0046529783914379961 -0.046238027233045535 -0.020538629940738174 0.010438812534691738 0.05059852069290019
leaf_count=212 212 3094 69 534 5283 35 2329 653 732 59 188
internal_value=0 -0.127125 -0.0613285 0.287399 -0.0826226 0.231368 0.180034 -0.50581 -0.618131 0.992338 0.825266
internal_count=13400 10102 8505 3298 8377 3086 2863 1597 1385 128 223
shrinkage=0.05


Tree=24
num_leaves=12
num_cat=0
split_feature=63 4 6 63 58 2 61 44 16 4 60
split_gain=78.5917 37.9566 33.328 27.5807 22.651 20.1363 20.5102 14.0516 10.2779 10.2271 8.66035
threshold=929.50000000000011 3.6773831140230899 9.2704744434356705 1738.5000000000002 0.1458722673673343 26.789781753112795 0.1962148180868368 0.54796042823485391 0.34289851110861053 10.064533755810279 0.035339459102231713
decision_type=2 2 2 2 2 2 2 2 2 2 2
left_child=2 -2 5 4 -3 6 -1 -4 -7 -9 -5
right_child=1 3 7 10 -6 8 -8 9 -10 -11 -12
leaf_value=-0.0086377190705873262 0.063009332194404521 0.0089112709524352806 -0.045041390982160652 0.0017413424222621635 -0.0079331494159268264 0.0038551787262432178 0.014597751522130312 -0.022996036892522161 0.095557075281420323 0.008985411285173708 0.033230153277621015
leaf_count=4993 154 3673 610 128 1375 44 588 1093 45 188 509
internal_value=0 0.179015 -0.185752 0.148654 0.087705 -0.0971964 -0.117027 -0.515231 1.05809 -0.352254 0.545031
internal_count=13400 5839 7561 5685 5048 5670 5581 1891 89 1281 637
shrinkage=0.05


Tree=25
num_leaves=12
num_cat=0
split_feature=63 3 61 24 33 64 61 20 38 64 25
split_gain=72.3265 32.7494 32.2698 30.1476 22.3475 21.627 20.6373 19.5579 13.1489 10.3296 9.74619
threshold=1153.5000000000002 4.842856233589127 0.067221981592173977 10.210854846892854 235.50000000000003 1606317768872.0002 0.1962148180868368 12488.510098445002 0.095165872434017598 1030792151070.5001 0.94007241994726798
decision_type=2 2 2 2 2 2 2 2 2 2 2
left_child=1 6 -3 4 7 -4 8 -2 -1 -6 -8
right_child=3 2 5 -5 9 -7 10 -9 -10 -11 -12
leaf_value=0.013892124697815131 0.014168578309020212 -0.035185243122900507 -0.0096604510054197883 0.058161599339113627 0.017624284370793161 0.025392234945456463 0.017723602546197082 -0.0022888384403998829 -0.0064718956744478978 0.053111399555013705 0.064170480501319224
leaf_count=708 1801 927 5913 160 246 279 235 1537 1345 165 84
internal_value=0 -0.131695 -0.222116 0.23339 0.193361 -0.159468 0.107316 0.130875 0.00935459 0.648639 0.635307
internal_count=13400 9491 7119 3909 3749 6192 2372 3338 2053 411 319
shrinkage=0.05


Tree=26
num_leaves=12
num_cat=0
split_feature=63 45 6 57 51 64 63 52 63 4 2
split_gain=68.6971 38.7526 29.364 28.5256 27.1426 19.5695 16.4404 26.2739 9.007 8.85485 4.24078
threshold=778.50000000000011 0.27690701099594178 15.582107333984377 0.28455830195885851 141.50000000000003 1606317768872.0002 284.50000000000006 93.500000000000014 2281.5000000000005 8.4468300375501553 30.856717305175785
decision_type=2 2 2 2 2 2 2 2 2 2 2
left_child=2 4 6 -3 5 -2 -1 -8 -6 -5 -4
right_child=1 3 10 9 8 -7 7 -9 -10 -11 -12
leaf_value=-0.028323237905157058 0.00091456419729549752 -0.0015876415394925529 -0.049480929987221547 0.065949792290339024 0.021809460361739655 0.028633248898643517 0.026654132209818316 -0.0088930042421855732 0.065257453426834894 0.0024595504521611796 0
leaf_count=780 6328 135 570 251 383 342 323 4148 75 40 25
internal_value=0 0.129549 -0.225269 0.777857 0.0885204 0.0479183 -0.174764 -0.1204 0.576126 1.16578 -0.926198
internal_count=13400 7554 5846 426 7128 6670 5251 4471 458 291 595
shrinkage=0.05


Tree=27
num_leaves=12
num_cat=0
split_feature=63 6 63 31 3 23 39 63 8 20 0
split_gain=62.6841 42.5944 34.9738 23.2886 21.6568 21.0038 12.899 8.23491 21.6525 7.15853 6.99997
threshold=597.50000000000011 1.6500674009323122 1468.5000000000002 200.50000000000003 6.5219228605966046 13.884849989742888 0.04720654881599088 284.50000000000006 27.500000000000004 4912.1336187618535 222.50000000000003
decision_type=2 2 2 2 2 2 2 2 2 2 2
left_child=4 5 3 -3 7 9 -4 -1 -9 -2 -7
right_child=1 2 6 -5 -6 10 -8 8 -10 -11 -12
leaf_value=-0.023980565106255802 0.0041274682490529272 0.014556511090563443 -0.0069954695613282216 -0.0046266346676163998 -0.028972740107895485 0.078209273695723447 0.01904062288080216 0.038963471316568792 -0.0083216261571435364 0.056656223536859618 0.038033343120343011
leaf_count=482 334 1056 230 6197 1632 90 1432 146 1490 33 278
internal_value=0 0.0861078 0.0397978 -0.0375981 -0.309626 0.595589 0.30645 -0.147586 -0.0655434 0.202619 0.969974
internal_count=13400 9650 8915 7253 3750 735 1662 2118 1636 367 368
shrinkage=0.05


Tree=28
num_leaves=12
num_cat=0
split_feature=63 3 6 63 2 48 18 50 64 2 64
split_gain=58.6015 35.9494 29.715 26.4511 23.1003 22.3283 15.6988 13.6661 12.4513 9.56088 7.90943
threshold=787.00000000000011 4.8157530466045335 15.582107333984377 1468.5000000000002 28.806023500000006 0.13398565019238304 0.02612578400931256 163.50000000000003 1408749273149.5002 26.400566500000004 919123001385.50012
decision_type=2 2 2 2 2 2 2 2 2 2 2
left_child=2 5 6 4 -3 10 9 -5 -8 -1 -2
right_child=1 3 -4 7 -6 -7 8 -9 -10 -11 -12
leaf_value=-0.016499696180663652 0.0070868380900071908 -0.0038436126734024733 -0.045867133898014931 0.011608645708051859 0.026709706394738266 0.062186272305877532 0.0030900948480621308 0.052349235879095735 -0.020032969004205689 0.018853354621704239 0.031176188090811543
leaf_count=2708 423 4542 610 1519 332 187 2098 107 436 130 308
internal_value=0 0.121737 -0.2056 0.0607249 -0.030778 0.5301 -0.155975 0.284684 -0.0149496 -0.294975 0.351935
internal_count=13400 7418 5982 6500 4874 918 5372 1626 2534 2838 731
shrinkage=0.05


Tree=29
num_leaves=12
num_cat=0
split_feature=63 25 63 0 3 46 5 2 2 26 60
split_gain=53.4888 37.8992 26.4184 25.4594 19.5545 15.5679 12.6253 7.92962 7.68744 13.5831 10.8542
threshold=597.50000000000011 1.3897690417604773 1511.5000000000002 261.50000000000006 6.5219228605966046 0.22094859940418263 -0.00012718571090800017 25.15974792370606 12.142896000000002 -0.0038266348920941028 0.059263250319284817
decision_type=2 2 2 2 2 2 2 2 2 2 2
left_child=4 2 3 -2 8 7 -4 -3 9 -1 -10
right_child=1 5 6 -5 -6 -7 -8 -9 10 -11 -12
leaf_value=0.1121750090480847 0.014995036132143464 -0.056733382160126578 0.025303155636124942 -0.0032444134891149549 -0.02756750181550632 0.057960385231897942 0.0056862372924680916 0.027116757765869276 -0.0039926355246659787 0.0028306617581624872 -0.02732937477932227
leaf_count=20 1228 26 699 6651 1632 225 789 32 1302 325 471
internal_value=0 0.0791308 0.053095 -0.00616407 -0.289154 0.894726 0.301541 -0.0942408 -0.135533 0.205873 -0.205963
internal_count=13400 9650 9367 7879 3750 283 1488 58 2118 345 1773
shrinkage=0.05


Tree=30
num_leaves=12
num_cat=0
split_feature=63 3 6 64 64 15 61 38 19 2 28
split_gain=50.1226 31.5984 25.8976 21.3405 22.2501 20.9775 14.8982 16.9847 9.30939 4.25491 3.08553
threshold=778.50000000000011 2.6516224283687944 15.582107333984377 1606317768872.0002 1649267441704.5002 0.69243623814269384 0.084917691993474265 0.094603927131551455 3.4688150011460981 30.856717305175785 7.7276236464003611
decision_type=2 2 2 2 2 2 2 2 2 2 2
left_child=2 10 6 5 -5 -3 7 -1 -8 -4 -2
right_child=1 3 9 4 -6 -7 8 -9 -10 -11 -12
leaf_value=0.0065452612635773502 0.060697587943626008 -0.010910585306816156 -0.048028488738191433 0.073853026731000124 0.012136620212996815 0.0056567714771465043 0.014317526934584294 -0.030061578305416194 -0.0059325764519977753 0.0023667526695231264 0.0091101904761176408
leaf_count=260 151 1185 570 104 273 5815 382 898 3711 25 26
internal_value=0 0.110038 -0.195599 0.0869547 0.603685 0.0576523 -0.149408 -0.418567 -0.0768644 -0.890722 1.0642
internal_count=13400 7554 5846 7377 377 7000 5251 1158 4093 595 177
shrinkage=0.05


Tree=31
num_leaves=12
num_cat=0
split_feature=63 6 61 63 21 63 4 15 2 49 63
split_gain=46.6121 32.0346 26.7951 22.3841 21.0803 25.7397 18.4059 15.38 13.8675 13.3738 12.7931
threshold=1229.5000000000002 14.505732500000002 0.27616314167908862 388.50000000000006 460.50000000000006 2233.5000000000005 10.976464033777805 0.78083185875897188 31.321880493164066 0.0013221273920391177 824.50000000000011
decision_type=2 2 2 2 2 2 2 2 2 2 2
left_child=1 2 3 -1 9 8 -3 -8 -6 -2 -4
right_child=4 6 10 -5 5 -7 7 -9 -10 -11 -12
leaf_value=-0.022088090320244145 0.046438959552894732 -0.031462441174483373 0.0053673336880583422 -0.0019746574242753678 0.0029160376840306553 0.055883647840052592 0.082106224552239565 -0.01589403686406329 0.051316054530526956 0.011898851293461504 0.039879502014820795
leaf_count=1291 284 1217 378 6866 2536 125 40 52 67 286 258
internal_value=0 -0.0954954 -0.0472825 -0.0885103 0.210356 0.131313 -0.518482 0.501874 0.0859125 0.591527 0.410256
internal_count=13400 10102 8793 8157 3298 2728 1309 92 2603 570 636
shrinkage=0.05


Tree=32
num_leaves=12
num_cat=0
split_feature=63 6 25 17 3 28 2 18 2 63 3
split_gain=42.8156 24.7395 22.6102 17.1867 16.9909 18.1714 16.7006 12.9822 12.938 12.5131 9.80267
threshold=1003.5000000000001 10.469274500000003 1.3897690417604773 0.1325097859793605 3.5969791166330443 5.6175031067582566 27.538383636535649 0.0014104400413782131 28.979603500000007 1868.5000000000002 5.8649672810214755
decision_type=2 2 2 2 2 2 2 2 2 2 2
left_child=1 4 3 8 5 -1 -6 -3 -2 -5 -4
right_child=2 7 10 9 6 -7 -8 -9 -10 -11 -12
leaf_value=0.06384555761340896 0.0072385974804083097 -0.012558826703083184 0.061371661437873204 -0.010576160634095354 -0.0067059515917295299 0.0060239300021631172 0.048387759931742297 -0.039591248685879162 0.031434689652947496 0.033692706322123164 0.00094597664960652098
leaf_count=79 3673 1060 156 961 5496 780 80 713 278 73 51
internal_value=0 -0.127097 0.145395 0.11647 -0.0616468 0.247532 -0.115651 -0.438811 0.181731 -0.135665 0.902179
internal_count=13400 8208 5192 4985 6435 859 5576 1773 3951 1034 207
shrinkage=0.05


Tree=33
num_leaves=12
num_cat=0
split_feature=63 2 64 64 61 64 20 63 37 63 24
split_gain=40.9936 31.4376 23.4045 66.7174 17.7538 17.2866 11.4621 10.0303 9.17169 5.79734 4.77927
threshold=597.50000000000011 11.498167500000003 1194000908419.0002 1288490188873.0002 0.074695836920280492 1159641170071.5002 2370.5348407450006 359.50000000000006 0.16471953050361679 494.50000000000006 9.6439395868920865
decision_type=2 2 2 2 2 2 2 2 2 2 2
left_child=4 -2 5 -4 8 -3 7 -6 -1 -8 -10
right_child=1 2 3 -5 6 -7 9 -9 10 -11 -12
leaf_value=0.0078863798748010604 0.051952728826022268 -0 0.059541990229482117 0.004563699850228674 -0.013250811731140833 -0.036718376678718703 -0.029304195558711783 0.0065592520522005345 -0 -0.0090223706796477496 -0.047252081337881079
leaf_count=57 179 6733 332 2229 916 177 707 887 58 568 557
internal_value=0 0.0688834 0.0504941 0.237385 -0.257325 -0.0187861 -0.174928 -0.0396991 -0.721051 -0.385922 -0.855092
internal_count=13400 9650 9471 2561 3750 6910 3078 1803 672 1275 615
shrinkage=0.05


Tree=34
num_leaves=12
num_cat=0
split_feature=63 61 3 2 36 63 25 30 63 19 28
split_gain=38.1657 27.6303 21.9248 25.1459 18.7875 15.7767 14.2928 10.4374 9.4187 9.04685 7.99308
threshold=1406.5000000000002 0.16669022380812495 16.930569388216032 29.500378500000004 0.42964012170811045 2175.5000000000005 1.2239850700582648 80.500000000000014 563.50000000000011 9.090903687218038 5.497536438491017
decision_type=2 2 2 2 2 2 2 2 2 2 2
left_child=1 2 3 -1 -2 7 8 -6 -3 -4 -8
right_child=4 6 9 -5 5 -7 10 -9 -10 -11 -12
leaf_value=-0.0057136664324360332 0.025803580542114308 -0.010922480467180024 -0.046015327440567848 0.039068086782050808 0.036618641745319883 0.051174658838821621 0.049447257101469473 -0.00034228069746478746 0.012233932614664593 0.0031351207390798354 -0.01509868627633896
leaf_count=9045 763 386 438 167 91 86 176 1211 957 58 22
internal_value=0 -0.0663384 -0.118304 -0.0945892 0.249452 0.0991507 0.226207 0.040785 0.130524 -0.736698 0.81128
internal_count=13400 11249 9708 9212 2151 1388 1541 1302 1343 496 198
shrinkage=0.05


Tree=35
num_leaves=12
num_cat=0
split_feature=63 6 63 6 61 23 64 0 63 5 28
split_gain=35.6471 32.199 22.0484 19.7946 17.046 16.7984 12.3091 11.2462 11.7591 7.25677 7.2053
threshold=539.50000000000011 1.6500674009323122 1558.5000000000002 16.239159250000004 0.073912642484520605 13.884849989742888 1194000908288.5002 207.50000000000003 359.50000000000006 1.0000000180025095e-35 7.690336115088841
decision_type=2 2 2 2 2 2 2 2 2 2 2
left_child=4 5 3 -3 -1 9 -4 8 -6 -2 -7
right_child=1 2 6 -5 7 10 -8 -9 -10 -11 -12
leaf_value=-0.039161811620253145 0.023099383847492331 0.0002883234941311197 0.006588574371824283 -0.01896599166840222 -0.015746229434522568 0.045757228126824152 0.029800948703148145 -0.028751941912942797 0.0046047939280572485 -0.0055651795896219502 -0.010504400853686483
leaf_count=574 206 7215 893 926 1134 364 357 509 993 207 22
internal_value=0 0.056836 0.0169377 -0.0327716 -0.272017 0.487105 0.268306 -0.183548 -0.094404 0.164229 0.832856
internal_count=13400 10190 9391 8141 3210 799 1250 2636 2127 413 386
shrinkage=0.05


Tree=36
num_leaves=12
num_cat=0
split_feature=63 3 6 2 63 48 16 63 18 42 47
split_gain=32.8171 25.5222 23.3975 19.9851 17.5707 16.4169 14.6317 14.2423 11.1534 9.3066 6.77112
threshold=787.00000000000011 4.8157530466045335 15.582107333984377 28.806023500000006 2175.5000000000005 0.13398565019238304 0.5072970010179314 284.50000000000006 0.068766534391534406 71.500000000000014 -1.1053118072426569e-05
decision_type=2 2 2 2 2 2 2 2 2 2 2
left_child=2 5 6 4 -3 10 7 -1 -5 -8 -2
right_child=1 3 -4 8 -6 -7 9 -9 -10 -11 -12
leaf_value=-0.023776291853041431 0.027772290183920925 -0.00087688492752842145 -0.042738160662917253 0.026987148486735113 0.041358978731623197 0.055463510728540305 0.025049831614087966 -0.0006603999841725554 -0.031108472675497878 -0.029366866528152881 0.0054134020823328553
leaf_count=678 294 5857 610 478 124 187 63 4011 41 620 437
internal_value=0 0.0903186 -0.157985 0.0392386 0 0.43856 -0.116188 -0.0646166 0.445037 -0.488415 0.294263
internal_count=13400 7418 5982 6500 5981 918 5372 4689 519 683 731
shrinkage=0.05


Tree=37
num_leaves=12
num_cat=0
split_feature=63 61 21 63 64 64 64 58 49 64 61
split_gain=30.7777 26.8546 17.7758 21.3858 15.5711 21.8921 20.8967 14.4974 14.1864 13.8942 10.5076
threshold=1229.5000000000002 0.073504980411000218 489.50000000000006 2233.5000000000005 1606317768872.0002 1417339207681.5002 1649267441704.5002 0.12353206386251525 0.0015195426607705366 1211180777607.5002 0.16177080108673011
decision_type=2 2 2 2 2 2 2 2 2 2 2
left_child=1 7 8 9 5 -3 -6 -1 -2 -4 -10
right_child=2 4 3 -5 6 -7 -8 -9 10 -11 -12
leaf_value=-0.011272942953495476 0.037321130397803069 -6.1755851317085654e-05 -0.0028153324236059197 0.051152203114779894 0.069724858871682019 -0.020042708633125735 0.0045353678639233289 -0.040169436554462069 -0.0013075000255113813 0.015153142607653269 0.044279897905040916
leaf_count=1017 398 7106 1750 123 98 1006 295 580 289 659 79
internal_value=0 -0.0786795 0.170667 0.0835539 -0.0255772 -0.0506683 0.44411 -0.405726 0.461724 0.0408004 0.138358
internal_count=13400 10102 3298 2532 8505 8112 393 1597 766 2409 368
shrinkage=0.05


Tree=38
num_leaves=12
num_cat=0
split_feature=63 2 64 64 64 61 20 63 23 61 46
split_gain=29.272 29.21 21.1974 63.8149 15.7096 15.3217 10.7506 7.9605 7.72591 7.71077 6.44115
threshold=539.50000000000011 12.358218328338625 1194000908419.0002 1305670058087.0002 1159641170071.5002 0.073912642484520605 2370.5348407450006 389.50000000000006 16.174222645814663 0.077550160845698116 0.078091925314958191
decision_type=2 2 2 2 2 2 2 2 2 2 2
left_child=5 8 4 -4 -3 -1 7 -7 9 -2 -8
right_child=1 2 3 -5 -6 6 10 -9 -10 -11 -12
leaf_value=-0.037539517198271283 0.076739746157637609 -0.00074541844184498668 0.050482225272673521 0.0023822736516952519 -0.035403036008693663 -0.01002014930864209 0.010897901939289894 0.0087640604964114646 0.067816601589242437 0.00093311226038135606 -0.025852935204360397
leaf_count=574 22 7069 428 2275 187 1077 98 602 129 80 859
internal_value=0 0.051107 0.0320482 0.206076 -0.0329527 -0.249549 -0.166493 -0.0394192 0.883202 0.396101 -0.428729
internal_count=13400 10190 9959 2703 7256 3210 2636 1679 231 102 957
shrinkage=0.05


Tree=39
num_leaves=12
num_cat=0
split_feature=63 61 3 2 20 50 5 25 48 19 15
split_gain=27.6606 22.4418 18.598 21.2676 15.7027 17.6928 11.4523 11.3269 10.4027 8.48879 8.17829
threshold=1406.5000000000002 0.16669022380812495 16.930569388216032 29.500378500000004 11430.553439250003 163.50000000000003 -0.0086389988213589255 1.2239850700582648 0.11709764795537429 9.090903687218038 0.68889782065023242
decision_type=2 2 2 2 2 2 2 2 2 2 2
left_child=1 2 3 -1 8 6 -6 -3 10 -4 -2
right_child=4 7 9 -5 5 -7 -8 -9 -10 -11 -12
leaf_value=-0.0050686005656405513 -0.013546522540904497 0.006156639534400112 -0.04426463529714654 0.035718038376408412 0.022542837276972455 0.049696618381051196 -0.0033916456147144898 0.037154275668174717 0.0524434444667412 0.0038722875322314992 0.021950356565480666
leaf_count=9045 75 1343 438 167 224 103 1097 198 144 58 508
internal_value=0 -0.0570062 -0.104271 -0.0828578 0.212506 0.080629 0.016826 0.207327 0.46787 -0.694322 0.342012
internal_count=13400 11249 9708 9212 2151 1424 1321 1541 727 496 583
shrinkage=0.05


Tree=40
num_leaves=12
num_cat=0
split_feature=63 61 20 63 20 63 8 2 39 6 48
split_gain=25.928 23.2418 23.0564 18.3158 15.2941 12.356 19.3697 11.8372 8.71536 7.84958 8.25748
threshold=597.50000000000011 0.12878665679437559 2740.9261488650004 1738.5000000000002 2370.5348407450006 284.50000000000006 27.500000000000004 32.145000534057623 0.052242226083149788 12.477848120819095 0.10254948160398637
decision_type=2 2 2 2 2 2 2 2 2 2 2
left_child=4 3 -3 7 5 -1 -7 -2 -4 10 -6
right_child=1 2 8 -5 9 6 -8 -9 -10 -11 -12
leaf_value=-0.0199061510031514 -0.0029915608917441328 0.040397969806338953 -0.001458699913774283 0.018774975818847715 -0.023088164939693723 0.039923668802722329 -0.0029332492667517446 0.049021925709424825 0.013180271206446848 -0.043229607843201429 0.0028023754599092285
leaf_count=731 6585 348 799 475 837 174 1166 53 1390 551 291
internal_value=0 0.054081 0.241393 -0.0136291 -0.209937 -0.0599686 0.0653937 -0.0496737 0.154065 -0.434998 -0.320605
internal_count=13400 9650 2537 7113 3750 2071 1340 6638 2189 1679 1128
shrinkage=0.05


Tree=41
num_leaves=12
num_cat=0
split_feature=25 63 64 64 64 28 2 61 28 58 47
split_gain=24.3139 21.8911 19.0384 23.5324 23.1693 15.3351 9.20019 9.17626 7.33184 5.84852 4.16192
threshold=1.3897690417604773 388.50000000000006 1606317768872.0002 1417339207681.5002 1649267441704.5002 5.311961866918903 18.287822500000004 0.25120148491631161 7.7416687077546156 0.16549706162382222 -0.0010707258044681304
decision_type=2 2 2 2 2 2 2 2 2 2 2
left_child=1 6 3 -3 -4 7 8 9 -1 -2 -8
right_child=5 2 4 -5 -6 -7 10 -9 -10 -11 -12
leaf_value=-0.021458660514960627 -0.040497859658009221 0.0014993160454794456 0.061580115144908035 -0.015514354593843208 0.006636234106872866 -0.034862943610447499 0.0072545491429134431 0.055783339433746748 0.00279204053219647 0.036935911191785006 -0.040668956901877808
leaf_count=537 22 9640 134 1320 411 35 30 222 462 33 554
internal_value=0 -0.0158864 0.0119783 -0.00954519 0.432199 0.674881 -0.363132 0.885695 -0.199975 0 -0.73329
internal_count=13400 13088 11505 10960 545 312 1583 277 999 55 584
shrinkage=0.05


Tree=42
num_leaves=12
num_cat=0
split_feature=63 4 6 2 15 18 4 44 16 36 16
split_gain=23.2654 18.7727 18.498 15.4892 15.1276 15.9165 13.4361 11.3254 10.7336 8.71793 8.56617
threshold=929.50000000000011 3.6773831140230899 9.2704744434356705 26.789781753112795 0.69243623814269384 0.0032873166634751674 5.6561844736481559 0.55317229899249898 0.40258075258075265 0.52279439606209777 0.34289851110861053
decision_type=2 2 2 2 2 2 2 2 2 2 2
left_child=2 -2 3 6 8 -6 -1 -4 -3 -9 -5
right_child=1 4 7 10 5 -7 -8 9 -10 -11 -12
leaf_value=0.0028531100085281893 0.049636418675364988 -0.01806516563700835 -0.038644785532925996 0.0023741010972674853 0.00064134026314901951 0.013550153454994758 -0.0095952046620065585 -0.0044253761320325524 0.0068173985086902077 -0.033968094597644709 0.085261043356577929
leaf_count=2844 154 610 622 44 2678 2085 2737 927 312 342 45
internal_value=0 0.0963874 -0.106083 -0.0412441 0.0778009 0.127642 -0.0599755 -0.375294 -0.182849 -0.225589 0.956491
internal_count=13400 5839 7561 5670 5685 4763 5581 1891 922 1269 89
shrinkage=0.05


Tree=43
num_leaves=12
num_cat=0
split_feature=63 6 2 61 36 50 2 12 25 4 39
split_gain=22.1313 19.2621 18.7381 19.1799 14.0914 12.5277 11.83 11.096 8.77176 8.25982 7.31103
threshold=1406.5000000000002 17.115098136108397 28.806023500000006 0.27616314167908862 0.42964012170811045 163.50000000000003 30.566008500000006 201.50000000000003 0.788779499646593 11.074218676737109 0.043518956515645267
decision_type=2 2 2 2 2 2 2 2 2 2 2
left_child=1 2 3 -1 10 7 -3 -6 -4 -8 -2
right_child=4 6 8 -5 5 -7 9 -9 -10 -11 -12
leaf_value=-0.003817369548909932 -0.0090085457731360376 -0.029026438128661465 0.045490345613908106 0.015833594560413982 0.011451427935225461 0.049912186545241467 -0.0035222469382471555 -0.0079178465592778715 0.00041258362775098667 0.075741152502573406 0.024526810100742837
leaf_count=9296 78 866 155 747 606 73 57 709 105 23 685
internal_value=0 -0.0512137 -0.0240046 -0.0432369 0.190308 0.0598769 -0.456486 0.0134927 0.572143 0.392531 0.422449
internal_count=13400 11249 10303 10043 2151 1388 946 1315 260 80 763
shrinkage=0.05


Tree=44
num_leaves=12
num_cat=0
split_feature=25 63 64 64 64 28 61 58 28 46 49
split_gain=21.1723 19.2332 17.4142 22.3512 19.4816 14.0658 8.31398 5.35646 4.95247 9.96347 7.33691
threshold=1.3897690417604773 284.50000000000006 1606317768872.0002 1417339207681.5002 1649267441704.5002 5.311961866918903 0.25120148491631161 0.16549706162382222 8.0381122601670363 0.081324282142860763 0.0010659881255835671
decision_type=2 2 2 2 2 2 2 2 2 2 2
left_child=1 8 3 -3 -4 6 7 -2 10 -10 -1
right_child=5 2 4 -5 -6 -7 -8 -9 9 -11 -12
leaf_value=0.0071598371234353093 -0.038961652763527699 0.0010559492661551503 0.055212939391176746 -0.015267308925462231 0.006154412206859282 -0.033922632114993516 0.053844205666820459 0.03533638561984824 -0.042421246200891424 0.016689799444007093 -0.04000683595612356
leaf_count=79 22 10204 144 1404 432 35 222 33 130 163 532
internal_value=0 -0.0145674 0.00366798 -0.0166155 0.397521 0.640997 0.849145 0 -0.47836 -0.0987734 -0.653343
internal_count=13400 13088 12184 11608 576 312 277 55 904 293 611
shrinkage=0.05


Tree=45
num_leaves=12
num_cat=0
split_feature=63 2 64 64 64 61 20 23 28 23 17
split_gain=19.9705 22.821 19.9507 55.2904 14.4666 13.9995 9.86116 8.58199 7.4218 6.81041 7.18258
threshold=539.50000000000011 12.358218328338625 1194000908419.0002 1288490188873.0002 1159641170071.5002 0.065902278067731565 1345.5181227146502 12.108562986664115 8.0381122601670363 16.174222645814663 0.11519530967259393
decision_type=2 2 2 2 2 2 2 2 2 2 2
left_child=5 9 4 -4 -3 -1 8 -8 -7 10 -2
right_child=1 2 3 -5 -6 6 7 -9 -10 -11 -12
leaf_value=-0.041464562334506655 -0 -0.0010236623519619692 0.051244326942789666 0.0030462882261740962 -0.034642331086520116 -0.0044822011008659084 -0.033215588974889347 -0.0081310680914301013 0.02221551620719156 0.065291298815961088 0.057171493584534328
leaf_count=423 66 7069 352 2351 187 518 381 1594 294 129 36
internal_value=0 0.0418924 0.0254813 0.194643 -0.0377213 -0.210474 -0.146053 -0.263729 0.0946537 0.804595 0.362947
internal_count=13400 10190 9959 2703 7256 3210 2787 1975 812 231 102
shrinkage=0.05


Tree=46
num_leaves=12
num_cat=0
split_feature=36 25 2 6 18 47 58 62 19 7 15
split_gain=19.4168 20.7125 19.2964 18.1107 10.9198 9.07341 8.12269 7.65191 6.20877 4.55575 5.12586
threshold=0.54027009543642135 1.7636378675616535 28.806023500000006 13.853169750000001 0.067758454511167923 7.9023211569073474e-06 0.17890834580283363 37.453633572096741 7.7146757994110384 -0.26441621499999995 0.69019953965699266
decision_type=2 2 2 2 2 2 2 2 2 2 2
left_child=1 2 3 -1 -4 6 7 -2 -8 10 -7
right_child=5 -3 4 -5 -6 9 8 -9 -10 -11 -12
leaf_value=0.0012099444459302627 -0.027853563422182367 0.044189657875939974 0.024869181680261317 -0.014176558327941275 -0.039429486740680003 -0.040764279536390488 -0.036035027871798589 0.016980915666606738 0.010198002970356064 -0.041256057870428881 0
leaf_count=10085 100 186 522 1392 40 91 230 248 48 332 126
internal_value=0 0.0256999 0.0137108 -0.00897455 0.415394 -0.333161 -0.10329 0.126066 -0.484815 -0.595032 -0.261804
internal_count=13400 12225 12039 11477 562 1175 626 348 278 549 217
shrinkage=0.05


Tree=47
num_leaves=12
num_cat=0
split_feature=63 6 2 3 16 44 42 2 48 25 37
split_gain=19.1219 18.5454 20.1097 15.5727 15.2562 14.2721 11.5837 11.2058 10.3483 11.5062 13.4416
threshold=1468.5000000000002 7.0718152500000011 29.500378500000004 16.514890043019189 0.5062887112279294 0.81768955797381493 424.50000000000006 23.775247500000003 0.11938130322958103 0.5589418686720069 0.21220294274236487
decision_type=2 2 2 2 2 2 2 2 2 2 2
left_child=1 4 3 -3 5 -1 -4 -6 9 10 -2
right_child=8 2 6 -5 7 -7 -8 -9 -10 -11 -12
leaf_value=-0.0011355707694453289 0.034791670078730297 -0.0084641721636701805 0.034896423784406244 -0.038524419477012947 -0.018658998908979745 0.010948191074015942 -0.016470868878965515 0.033011603739277015 0.028094406102905957 -0.00042585257526158229 0
leaf_count=3396 265 4155 235 509 755 2446 62 57 321 958 241
internal_value=0 -0.0429432 -0.165411 -0.21213 0.0380086 0.0815945 0.41864 -0.28036 0.197262 0.122206 0.375127
internal_count=13400 11615 4961 4664 6654 5842 297 812 1785 1464 506
shrinkage=0.05


Tree=48
num_leaves=12
num_cat=0
split_feature=63 61 24 48 64 64 6 2 64 27 16
split_gain=18.0625 17.3432 14.9177 13.1775 12.7691 15.2461 11.568 11.3436 11.0595 8.40646 7.30076
threshold=1153.5000000000002 0.067221981592173977 10.210854846892854 0.016087738231139619 1606317768872.0002 1417339207681.5002 2.6427426000000005 31.321880493164066 1649267441704.5002 9.7763217899001482 0.19263775971093047
decision_type=2 2 2 2 2 2 2 2 2 2 2
left_child=1 6 3 9 5 -3 10 -5 -6 -2 -1
right_child=2 4 -4 7 8 -7 -8 -9 -10 -11 -12
leaf_value=0.045984758003092908 0.10046788224116238 -0.00076409977842840579 0.043161459374669059 0.0027032419712935546 0.054441526353487639 -0.018114801026591468 -0.028400823228851426 0.040797473661446593 0.0060949436589305232 0.0012495579173071002 -0.01010895398161861
leaf_count=52 25 7038 160 3614 93 990 936 87 286 23 96
internal_value=0 -0.0689787 0.116044 0.0907557 -0.0335211 -0.056982 -0.423106 0.0745766 0.399177 1.18745 0.186796
internal_count=13400 9491 3909 3749 8407 8028 1084 3701 379 48 148
shrinkage=0.05


Tree=49
num_leaves=12
num_cat=0
split_feature=64 64 9 64 36 4 63 38 44 64 63
split_gain=17.3872 66.196 22.294 16.9359 15.3795 17.4701 18.2911 15.3668 13.9694 12.8793 10.1172
threshold=1194000908419.0002 1305670058087.0002 137.50000000000003 1606317768872.0002 0.54027009543642135 3.7295262983633326 1138.5000000000002 0.093764089269612286 0.64486401096216406 1228360646791.5002 463.50000000000006
decision_type=2 2 2 2 2 2 2 2 2 2 2
left_child=4 7 3 -3 5 10 -7 8 -2 -9 -1
right_child=1 2 -4 -5 -6 6 -8 9 -10 -11 -12
leaf_value=0 0.0012112823390818402 -0.0082457350295388285 0.032543394183878804 0.014750861425208248 -0.02004878872976738 -0.007169701290900248 0.0043391754913404759 0.0083755020839764143 0.11232471156938346 0.051375603761974836 0.036540395814213034
leaf_count=252 25 2341 212 567 875 5740 2615 179 72 252 270
internal_value=0 0.142661 0 -0.0648126 -0.0540669 -0.0262121 -0.052049 0.896885 1.74541 0.681392 0.429057
internal_count=13400 3648 3120 2908 9752 8877 8355 528 97 431 522
shrinkage=0.05


Tree=50
num_leaves=12
num_cat=0
split_feature=51 6 25 63 28 63 22 4 22 0 5
split_gain=16.4791 16.5971 17.2883 14.5206 13.7801 7.69056 7.92929 6.34988 6.49683 4.3988 3.74304
threshold=141.50000000000003 18.425000000000004 1.3897690417604773 284.50000000000006 5.3756341308601598 2281.5000000000005 10.500000000000002 5.6780930528845941 8.5000000000000018 686.50000000000011 -0.00049495836340729209
decision_type=2 2 2 2 2 2 2 2 2 2 2
left_child=1 2 3 -1 -4 6 9 -3 -9 -2 -8
right_child=5 7 4 -5 -6 -7 10 8 -10 -11 -12
leaf_value=-0.021609940169112524 0.052039132227770714 -0.050575593283358103 0.042963460531301956 0.00026285534182333455 -0.046614063582421539 0.055683308943534418 0 -0.026594140023802899 -0 0.014003693564052297 -0.04723422323040672
leaf_count=817 47 227 242 10971 22 85 26 362 275 297 29
internal_value=0 -0.0188665 0.0011583 -0.0115349 0.645588 0.386961 0.267622 -0.395791 -0.283325 0.392658 -0.42732
internal_count=13400 12916 12052 11788 264 484 399 864 637 344 55
shrinkage=0.05


Tree=51
num_leaves=12
num_cat=0
split_feature=2 63 31 63 62 61 28 62 26 64 63
split_gain=15.8918 20.4626 15.5887 17.5342 15.3921 10.9988 10.9893 8.85519 11.2482 7.35984 5.0095
threshold=12.142896000000002 597.50000000000011 202.50000000000003 787.00000000000011 42.419650531445832 0.073912642484520605 5.6175031067582566 32.020835937815399 -0.0029491088834886219 446676598877.00006 478.50000000000006
decision_type=2 2 2 2 2 2 2 2 2 2 2
left_child=6 5 4 -4 -3 -2 -1 8 -8 -7 -9
right_child=1 2 3 -5 -6 9 7 10 -10 -11 -12
leaf_value=0.058166472241661916 -0.033753208807222733 -0.0024809729833427355 -0.013829983871258143 0.001805204349860718 0.024586822355519348 -0.019374797111647826 0.10920153171708501 -0.038217093508829514 0.015743973368165961 -0.0029803617186116953 0.0052108489643308683
leaf_count=143 595 462 1370 6843 773 795 25 68 242 2012 72
internal_value=0 -0.0162035 0.0294336 -0.00484876 0.28196 -0.221145 0.434899 0.224717 0.525857 -0.155725 -0.217734
internal_count=13400 12850 9448 8213 1235 3402 550 407 267 2807 140
shrinkage=0.05


Tree=52
num_leaves=12
num_cat=0
split_feature=64 64 9 64 64 3 44 38 44 64 39
split_gain=15.5379 58.7979 19.555 15.2383 13.9697 13.9599 17.3615 13.3965 11.7694 11.0778 10.8253
threshold=1194000908419.0002 1305670058087.0002 137.50000000000003 1606317768872.0002 1159641170071.5002 3.5969791166330443 0.41419890062276954 0.093764089269612286 0.64486401096216406 1228360646791.5002 0.064374543497482034
decision_type=2 2 2 2 2 2 2 2 2 2 2
left_child=4 7 3 -3 5 10 -7 8 -2 -9 -1
right_child=1 2 -4 -5 -6 6 -8 9 -10 -11 -12
leaf_value=0.021453948095395817 0.0011758897607561138 -0.0078625477845819577 0.030479512173729198 0.013923164642632657 -0.031216595845303726 -0.036439590050695268 -0.0022537714945949894 0.0079063356991357046 0.10397041194835531 0.04780522309682881 -0.014462411217671809
leaf_count=607 25 2341 212 567 265 397 8334 179 72 252 149
internal_value=0 0.134947 0 -0.0615072 -0.0512567 -0.0355669 -0.0637675 0.840829 1.62816 0.63874 0.281429
internal_count=13400 3648 3120 2908 9752 9487 8731 528 97 431 756
shrinkage=0.05


Tree=53
num_leaves=12
num_cat=0
split_feature=2 3 25 64 28 63 18 26 50 36 25
split_gain=15.0946 17.1628 15.0065 14.7343 14.0497 10.5312 7.34799 4.71889 4.635 2.84883 2.11304
threshold=32.145000534057623 16.514890043019189 1.3897690417604773 25769803858.500004 5.3756341308601598 1511.5000000000002 0.02519608445454732 -7.7417172443130082e-05 85.500000000000014 0.4795741425474947 0.51783923416894717
decision_type=2 2 2 2 2 2 2 2 2 2 2
left_child=1 2 3 -1 -4 10 8 -7 -2 -10 -3
right_child=6 5 4 -5 -6 7 -8 -9 9 -11 -12
leaf_value=0.033228743824105893 0.10932348126241649 0 0.040111576484446229 -0.00071116927427540295 -0.048411703794817483 -0.014237117994444663 -0 0.03534228255498411 0.057395655379173197 0 -0.036508807745625996
leaf_count=190 27 35 268 12139 24 38 31 39 24 20 565
internal_value=0 -0.00780851 0.00821604 -0.00327893 0.592203 -0.476411 0.857924 0.157556 1.22733 0.688038 -0.684978
internal_count=13400 13298 12621 12329 292 677 102 77 71 44 600
shrinkage=0.05


Tree=54
num_leaves=12
num_cat=0
split_feature=63 6 2 18 61 2 60 0 19 21 2
split_gain=14.5147 15.9283 15.404 18.7178 13.3128 12.4831 8.99335 5.74103 6.40311 9.21136 5.09073
threshold=1796.0000000000002 16.562846620422366 25.940000267028807 0.0092006930941893866 0.079935297915850134 27.640318694824224 0.053936646318259167 1142.5000000000002 7.4601331382576852 727.50000000000011 26.528077000000003
decision_type=2 2 2 2 2 2 2 2 2 2 2
left_child=1 2 3 -1 -4 -3 -7 8 9 -2 -10
right_child=7 5 4 -5 -6 6 -8 -9 10 -11 -12
leaf_value=-0.0077395076012244535 0.041846299320088466 -0.027422405346387752 -0.0083440769643319812 0.0029530196464224237 0.017436079393662707 -0.0044558139020602029 0.068860928560272247 0.054989993288913845 -0.014236201045433312 -0 0.015191157595601268
leaf_count=4380 159 836 334 5745 1079 429 29 58 116 102 133
internal_value=0 -0.0193355 0.0056662 -0.0296542 0.226435 -0.314191 0 0.334093 0.258378 0.504471 0.0100366
internal_count=13400 12832 11538 10125 1413 1294 458 568 510 261 249
shrinkage=0.05


Tree=55
num_leaves=12
num_cat=0
split_feature=64 64 9 27 3 64 2 4 5 58 23
split_gain=14.0966 52.275 17.307 15.1877 12.9788 12.9098 14.4685 11.7762 10.8452 9.91574 9.3803
threshold=1194000908419.0002 1305670058087.0002 137.50000000000003 9.915701122110514 19.477537417969742 34359738389.500008 30.856717305175785 6.8871550104561186 -0.005599662464444881 0.13433499760981571 13.345949132411837
decision_type=2 2 2 2 2 2 2 2 2 2 2
left_child=4 7 3 -3 5 10 -7 8 -2 -9 -1
right_child=1 2 -4 -5 -6 6 -8 9 -10 -11 -12
leaf_value=0.050613455179543049 0.0069881219160608582 -0.0071578597855094742 0.028726725793426923 0.016227957052145046 -0.048412054716412606 -0.0034118436764737012 0.034480602347780907 0.038103053040627721 0.071331496316775586 -0.0047963962549674799 0.0021691308169180272
leaf_count=114 63 2380 212 528 185 9190 119 169 195 101 144
internal_value=0 0.128634 0 -0.0576029 -0.0489012 -0.0395183 -0.0552713 0.790094 1.16921 0.436167 0.487524
internal_count=13400 3648 3120 2908 9752 9567 9309 528 258 270 258
shrinkage=0.05


Tree=56
num_leaves=10
num_cat=0
split_feature=64 36 25 2 24 47 58 7 45
split_gain=13.8324 14.052 14.3569 14.2418 13.7413 7.80687 8.13199 4.45789 4.19668
threshold=1700807049333.0002 0.54027009543642135 1.7636378675616535 28.148787500000001 9.8932001220495227 7.9023211569073474e-06 0.17890834580283363 -0.26441621499999995 0.63893881513619066
decision_type=2 2 2 2 2 2 2 2 2
left_child=1 2 3 -1 -2 6 -3 -7 -4
right_child=4 5 8 -5 -6 7 -8 -9 -10
leaf_value=-0.00082781360184558872 0.11020985311972736 0.0075071146591970898 0.051471279766137717 0.014963563717176276 -0.0041679548241927494 -0.010598270392037177 -0.023981077040284723 -0.039065790472451178 0
leaf_count=11216 30 348 139 776 22 216 276 332 45
internal_value=0 -0.00490047 0.0163183 0.00672276 1.23231 -0.296139 -0.0784974 -0.546968 0.777114
internal_count=13400 13348 12176 11992 52 1172 624 548 184
shrinkage=0.05


Tree=57
num_leaves=12
num_cat=0
split_feature=63 2 64 64 64 2 43 28 4 16 47
split_gain=13.6305 18.3901 14.4087 16.7638 16.1893 4.69091 6.70267 4.71517 4.61902 3.59571 3.22252
threshold=284.50000000000006 11.498167500000003 1606317768872.0002 1417339207681.5002 1649267441704.5002 18.287822500000004 6.5000000000000009 5.6420647183153845 3.0330984366337574 0.10943816375471054 -0.0010707258044681304
decision_type=2 2 2 2 2 2 2 2 2 2 2
left_child=5 8 3 -3 -4 6 7 -1 9 -2 -7
right_child=1 2 4 -5 -6 10 -8 -9 -10 -11 -12
leaf_value=0.032052036881666843 0 0.00072662637567864332 0.049698048904583209 -0.013611075577633714 0.0053123262733506017 0 0.055379543181752117 -0.020834098316098004 0.0023467673638130756 0.047887003303166017 -0.048621747148873039
leaf_count=34 26 10200 143 1399 433 22 31 529 80 205 298
internal_value=0 0.0152622 0.000846169 -0.0179511 0.356127 -0.401752 -0.238686 -0.329307 0.62754 0.824828 -0.838109
internal_count=13400 12486 12175 11599 576 914 594 563 311 231 320
shrinkage=0.05


Tree=58
num_leaves=12
num_cat=0
split_feature=63 58 46 63 9 47 60 0 36 50 44
split_gain=13.2249 13.4774 16.045 12.1611 10.0966 9.91999 8.67225 7.85915 5.24013 1.66874 0.509103
threshold=2175.5000000000005 0.20033021538863602 0.12181169001756337 388.50000000000006 106.50000000000001 -0.0012883399321364699 0.039095392899763097 554.50000000000011 0.40155383673504591 133.50000000000003 0.64486401096216406
decision_type=2 2 2 2 2 2 2 2 2 2 2
left_child=1 2 3 -1 7 -4 -6 -3 9 -2 -10
right_child=8 4 5 -5 6 -7 -8 -9 10 -11 -12
leaf_value=-0.019295738440515953 -0.023694489239040224 -0.010526872655880627 0.045542284820405718 -0.00044358245822969544 0.063169243395727381 0.0071660346999341193 0 -0.034912568507290839 0.013179321986513687 0.020661576959742207 0.055406747118731885
leaf_count=916 20 1322 110 7534 28 2851 224 250 23 33 89
internal_value=0 -0.00846195 0.0199044 -0.0337734 -0.220584 0.172481 0.151533 -0.321421 0.684734 0 0.969238
internal_count=13400 13235 11411 8450 1824 2961 252 1572 165 53 112
shrinkage=0.05


Tree=59
num_leaves=12
num_cat=0
split_feature=6 44 23 2 64 4 5 60 61 35 20
split_gain=13.1571 15.351 13.8798 13.2753 11.8259 10.3831 9.41742 14.1258 6.25476 5.81483 4.73231
threshold=1.7099487590789797 0.36981085254714718 13.645885112666734 28.148787500000001 1700807049333.0002 9.0874927637521381 1.3076776783806389e-17 0.055921195063866648 0.082685888488657058 1.5000000000000002 1308.6104540580513
decision_type=2 2 2 2 2 2 2 2 2 2 2
left_child=2 -2 6 4 -3 -5 7 -1 -8 -4 -11
right_child=1 3 9 5 -6 -7 8 -9 -10 10 -12
leaf_value=0.029129665058637164 -0.03526437136671555 -0.0022742470601915081 -0.021196215206192064 -0.013483817853663586 0.058880944957691521 0.018438659706400972 0.0073109343311052498 -0.017443012244933883 -0.023647067710251962 0.057046843189202591 0.023043516472279372
leaf_count=281 384 10772 30 185 44 692 132 133 256 110 381
internal_value=0 -0.0257253 0.227575 -0.0139225 -0.0395783 0.252795 0.0213789 0.276876 -0.243389 0.534053 0.599224
internal_count=13400 12077 1323 11693 10816 877 802 414 388 521 491
shrinkage=0.05


Tree=60
num_leaves=12
num_cat=0
split_feature=64 64 9 27 64 3 4 38 44 64 37
split_gain=12.7964 46.1569 15.1438 13.6706 12.7803 11.6526 12.1373 10.9163 10.0026 9.50051 7.00194
threshold=1194000908419.0002 1305670058087.0002 137.50000000000003 9.915701122110514 1159641170071.5002 18.982158796042643 3.7295262983633326 0.093764089269612286 0.64486401096216406 1228360646791.5002 0.21111593783183705
decision_type=2 2 2 2 2 2 2 2 2 2 2
left_child=4 7 3 -3 5 6 -1 8 -2 -9 -4
right_child=1 2 10 -5 -6 -7 -8 9 -10 -11 -12
leaf_value=0.017454282290065751 0 -0.006753814256616599 0.049416356398782425 0.015428011177968055 -0.030063656344464049 -0.040728250927966128 -0.0021534132768859155 0.0056652969815745588 0.092655581917487601 0.042348349477804303 0.0078367329677244586
leaf_count=563 25 2380 92 528 265 221 8703 179 72 252 120
internal_value=0 0.122857 0 -0.0531841 -0.0465944 -0.0316173 -0.0214834 0.740882 1.44518 0.55815 0.539354
internal_count=13400 3648 3120 2908 9752 9487 9266 528 97 431 212
shrinkage=0.05


Tree=61
num_leaves=12
num_cat=0
split_feature=34 36 25 2 47 58 45 37 36 59 28
split_gain=12.2332 12.3763 11.563 11.1467 7.73255 6.03754 4.43683 3.87923 5.671 4.87053 3.71546
threshold=163.50000000000003 0.54027009543642135 1.7636378675616535 32.145000534057623 6.987506067337926e-06 0.17890834580283363 0.63893881513619066 0.22393263661036178 0.44005480464356056 0.074794495867396352 6.5992593423348067
decision_type=2 2 2 2 2 2 2 2 2 2 2
left_child=1 2 3 -1 5 -3 -4 8 9 -2 -6
right_child=7 4 6 -5 10 -7 -8 -9 -10 -11 -12
leaf_value=-0.00022531525486939547 0.044583119828878304 0.006534614308626327 0.049513214729186038 0.040225739372268247 -0.041222353099333101 -0.0209193158949912 -0 0.04480147082797753 -0.037076303903025451 -0.011799357389470624 -0.014317520345362086
leaf_count=11778 64 338 132 79 216 276 41 104 20 22 330
internal_value=0 -0.00953296 0.0103449 0.00188015 -0.287411 -0.0679715 0.721541 0.562568 0.171247 0.509482 -0.541655
internal_count=13400 13190 12030 11857 1160 614 173 210 106 86 546
shrinkage=0.05


Tree=62
num_leaves=12
num_cat=0
split_feature=63 19 26 24 63 50 36 26 3 2 46
split_gain=12.0191 16.7551 16.4898 15.6758 10.8982 10.9096 10.3115 14.5216 9.45445 11.5849 9.17514
threshold=689.50000000000011 5.5626887742907796 0.00018730158556533243 9.9537378102071852 2233.5000000000005 56.500000000000007 0.52857734643153054 -0.0012912417380811093 6.5551228470489651 30.265918500000005 0.117492162357088
decision_type=2 2 2 2 2 2 2 2 2 2 2
left_child=1 6 -3 4 5 -2 7 -1 -5 -10 -4
right_child=3 2 10 8 -6 -7 -8 -9 9 -11 -12
leaf_value=0.024180845802881771 0.01262359854918331 -0.028407169006267004 -0.012853138004501555 0.023577235330375559 0.040195274271205117 -0.0025391998864226616 -0.024186665498945381 -0.0016344893629097077 0.0026449735203673257 0.04956032802117432 0.018719503069492705
leaf_count=489 736 1122 568 666 99 5699 433 2049 1188 65 286
internal_value=0 -0.116733 -0.33354 0.0463683 -0.00561466 -0.01722 0.00347859 0.0582095 0.23257 0.113341 -0.0140213
internal_count=13400 4947 1976 8453 6534 6435 2971 2538 1919 1253 854
shrinkage=0.05


Tree=63
num_leaves=12
num_cat=0
split_feature=64 64 64 64 64 64 64 52 58 63 9
split_gain=11.8874 27.0999 14.7431 36.0964 19.1472 29.829 18.359 13.6875 11.3944 12.2054 8.84838
threshold=919123001385.50012 893353197697.00012 1417339207681.5002 1477468749880.5002 1194000908419.0002 1073741824017.5001 1288490188873.0002 517.50000000000011 0.19654800029790723 1123.5000000000002 104.50000000000001
decision_type=2 2 2 2 2 2 2 2 2 2 2
left_child=1 8 4 -4 5 -2 -6 -5 9 -1 -10
right_child=2 -3 3 7 6 -7 -8 -9 10 -11 -12
leaf_value=-0.0044605232873328304 0.015054998897573224 -0.054051993287192374 -0.033487161944207471 0.0012859637402159443 0.038967424793976975 -0.014290724872820943 0.0097585805144136967 0.044237871541483807 -0.021749795182034973 0.0064372475407850419 0.0062924636598741509
leaf_count=4461 1113 159 520 1570 424 1007 1040 94 894 1957 161
internal_value=0 -0.063597 0.0839843 -0.0751218 0.179672 0.0232969 0.386635 0.0920717 -0.0416216 -0.00514089 -0.30094
internal_count=13400 7632 5768 2184 3584 2120 1464 1664 7473 6418 1055
shrinkage=0.05


Tree=64
num_leaves=12
num_cat=0
split_feature=46 24 64 64 63 20 64 27 2 48 27
split_gain=11.7306 11.435 14.1209 12.9711 11.4511 10.2062 7.86975 3.1526 2.66676 1.19863 0.323686
threshold=0.030649433660911659 9.9537378102071852 1700807049333.0002 34359738389.500008 520.50000000000011 3911.8450000000003 884763263042.50012 9.6703039478452801 17.771798133850101 0.022203483742477784 10.148542714231493
decision_type=2 2 2 2 2 2 2 2 2 2 2
left_child=7 2 3 -2 6 -6 -3 9 -9 -1 -10
right_child=1 4 -4 -5 5 -7 -8 8 10 -11 -12
leaf_value=-0.022920373437732903 0.028056091129603101 -0.029350024544794004 0.068071354765684502 -0.0024874166106104894 0.024289888451210388 0.0056567402109738967 0.0044849111545671822 0 -0.060099269056953834 0.026845498603195423 -0
leaf_count=26 199 306 37 10049 628 1683 285 20 127 20 20
internal_value=0 0.00726619 -0.0301723 -0.0366099 0.144684 0.207188 -0.240471 -0.746653 -0.957009 -0 -1.12784
internal_count=13400 13187 10285 10248 2902 2311 591 213 167 46 147
shrinkage=0.05


Tree=65
num_leaves=12
num_cat=0
split_feature=2 63 46 64 28 62 38 24 64 63 49
split_gain=11.1539 15.1133 11.4614 10.9242 8.96313 8.38975 8.98333 5.74152 7.24393 4.26609 4.11603
threshold=12.142896000000002 329.50000000000006 0.030649433660911659 1606317768872.0002 5.6175031067582566 32.020835937815399 0.095381014538416561 10.124009871297373 884763263042.50012 478.50000000000006 0.0031395441194985601
decision_type=2 2 2 2 2 2 2 2 2 2 2
left_child=4 7 -3 -4 -1 6 -6 10 -9 -7 -2
right_child=1 2 3 -5 5 9 -8 8 -10 -11 -12
leaf_value=0.054780952919345184 -0.0095029598987816377 -0.041003663385380182 -0.00030428138327094449 0.016090654097058833 0.048409739996721886 -0.037556080386435764 0 -0.023817822405213143 0.097190830445387788 0.0020777761207431736 -0.034468098206183753
leaf_count=143 396 150 11115 562 118 68 149 25 23 72 579
internal_value=0 -0.0133985 0.00338992 0.0106418 0.36977 0.190139 0.481532 -0.422131 0.663607 -0.24389 -0.484585
internal_count=13400 12850 11827 11677 550 407 267 1023 48 140 975
shrinkage=0.05


Tree=66
num_leaves=12
num_cat=0
split_feature=2 3 47 63 63 28 63 18 50 6 26
split_gain=10.7265 12.4426 10.7874 11.5241 9.17963 6.2094 5.86394 5.78055 3.06631 2.51517 2.1988
threshold=32.145000534057623 16.514890043019189 -0.0012883399321364699 388.50000000000006 1511.5000000000002 6.3293518867203096 179.50000000000003 0.037212094139981583 85.500000000000014 15.40054054260254 0.00075708768262145831
decision_type=2 2 2 2 2 2 2 2 2 2 2
left_child=1 2 6 -4 10 -6 -1 8 -2 -10 -3
right_child=7 4 3 -5 5 -7 -8 -9 9 -11 -12
leaf_value=-0.032420103906611986 0.087500527970493083 -0.023512835951652294 -0.013874632897837681 0.00094600619092609622 -0.015450476247509497 0.042463552244152318 0.042909482094094634 -0.0019948865849430289 0.050870277923032885 0 -0.053839209375714542
leaf_count=20 29 436 1394 11072 41 36 135 29 22 22 164
internal_value=0 -0.00658478 0.00666062 -0.000402647 -0.419776 0.169084 0.679352 0.717779 1.02429 0.543531 -0.629206
internal_count=13400 13298 12621 12466 677 77 155 102 73 44 600
shrinkage=0.05


Tree=67
num_leaves=12
num_cat=0
split_feature=6 44 23 2 6 36 5 60 4 35 20
split_gain=10.5307 12.6035 11.3418 11.3111 9.90461 8.90956 8.29516 12.816 5.76852 5.24185 3.97101
threshold=1.7099487590789797 0.36981085254714718 13.645885112666734 28.148787500000001 13.853169750000001 0.56560112878898472 1.3076776783806389e-17 0.055921195063866648 2.9168332556694625 1.5000000000000002 1308.6104540580513
decision_type=2 2 2 2 2 2 2 2 2 2 2
left_child=2 -2 6 4 -3 -5 7 -1 -8 -4 -11
right_child=1 3 9 5 -6 -7 8 -9 -10 10 -12
leaf_value=0.027264760574615795 -0.033065817347145476 -0.00040954384069897528 -0.021846159765464734 0.014077047275826402 -0.011823481968367716 -0.046957818564928956 0.02856070628321964 -0.017125996522441646 -0.017320010689997715 0.052730733758206839 0.020905353013199374
leaf_count=281 384 9263 30 829 1553 48 43 133 345 110 381
internal_value=0 -0.0231451 0.204348 -0.0126926 -0.0365369 0.23351 0.0175455 0.256443 -0.232903 0.484101 0.5467
internal_count=13400 12077 1323 11693 10816 877 802 414 388 521 491
shrinkage=0.05


Tree=68
num_leaves=12
num_cat=0
split_feature=64 64 64 64 64 64 64 52 64 63 25
split_gain=10.3698 25.2502 14.0004 32.2811 17.0974 26.7894 16.1166 12.3475 10.2534 11.4164 9.51869
threshold=919123001385.50012 893353197697.00012 1417339207681.5002 1477468749880.5002 1194000908419.0002 1073741824017.5001 1288490188873.0002 517.50000000000011 34359738531.500008 1135.5000000000002 0.57264065645485795
decision_type=2 2 2 2 2 2 2 2 2 2 2
left_child=1 8 4 -4 5 -2 -6 -5 10 -10 -1
right_child=2 -3 3 7 6 -7 -8 -9 9 -11 -12
leaf_value=0.046120076042920073 0.01424651877705338 -0.052808097610367505 -0.03234283995447821 0.0008218410686764684 0.036629479090905991 -0.01360823608373235 0.0093079951030743176 0.041784469393538935 -0.0068217564089283721 0.0032850398857276644 0.0014262544979202563
leaf_count=113 1113 159 520 1570 424 1007 1040 94 5050 2105 205
internal_value=0 -0.0597868 0.0782715 -0.0772161 0.171415 0.0230224 0.366372 0.0792628 -0.0387237 -0.059172 0.381462
internal_count=13400 7632 5768 2184 3584 2120 1464 1664 7473 7155 318
shrinkage=0.05


Tree=69
num_leaves=12
num_cat=0
split_feature=63 58 46 40 9 47 60 36 36 48 49
split_gain=10.1046 10.2197 12.8577 10.5575 8.04738 7.75991 7.56302 7.54267 5.27537 1.576 0.631344
threshold=2175.5000000000005 0.20033021538863602 0.12181169001756337 1.0121236983422388 106.50000000000001 -0.0012883399321364699 0.039095392899763097 0.38813364055299543 0.40155383673504591 0.060394882290988924 0.0051249022431509314
decision_type=2 2 2 2 2 2 2 2 2 2 2
left_child=1 2 3 -1 7 -4 -6 -3 9 -2 -10
right_child=8 4 5 -5 6 -7 -8 -9 10 -11 -12
leaf_value=-0.0009089652665179096 0.017667243442911418 0.027777338595989139 0.040318682433284722 -0.032399896697486878 0.058342359592052064 0.0063940226866138735 0 -0.016623191880955793 0.051447096887662393 -0.025992077311387307 0.0035851843089552693
leaf_count=8270 24 60 110 180 28 2851 224 1512 92 29 20
internal_value=0 -0.00729469 0.0172222 -0.0309753 -0.194582 0.154172 0.135329 -0.287338 0.618473 -0 0.915725
internal_count=13400 13235 11411 8450 1824 2961 252 1572 165 53 112
shrinkage=0.05


Tree=70
num_leaves=12
num_cat=0
split_feature=2 63 46 64 28 62 26 24 64 43 63
split_gain=9.85088 12.7672 10.043 9.8473 8.13163 7.76183 8.81451 5.21594 6.1881 4.10175 3.91396
threshold=12.142896000000002 329.50000000000006 0.030649433660911659 1700807049333.0002 5.6175031067582566 32.020835937815399 -0.0029491088834886219 10.124009871297373 884763263042.50012 6.5000000000000009 478.50000000000006
decision_type=2 2 2 2 2 2 2 2 2 2 2
left_child=4 7 -3 -4 -1 6 -6 9 -9 -2 -7
right_child=1 2 3 -5 5 10 -8 8 -10 -11 -12
leaf_value=0.053008636838880352 -0.026797992424233575 -0.03933447167960831 0.00020256056424398136 0.052087061712547837 0.094197143637481093 -0.036687690148906153 0.013304322055603453 -0.022277955765251128 0.087926370113216398 0.0063893605192345704 0.0013556246197485603
leaf_count=143 873 150 11629 48 25 68 242 25 23 102 72
internal_value=0 -0.0126242 0.00255027 0.00923943 0.348914 0.179913 0.458315 -0.394892 0.627286 -0.457309 -0.240356
internal_count=13400 12850 11827 11677 550 407 267 1023 48 975 140
shrinkage=0.05


Tree=71
num_leaves=12
num_cat=0
split_feature=3 2 6 22 48 5 40 9 63 48 64
split_gain=9.54049 12.2696 11.3797 13.3082 12.7918 7.17445 7.70892 6.97778 2.64898 0.57498 0.589715
threshold=19.477537417969742 28.806023500000006 10.852086750000002 8.5000000000000018 0.21565359749389534 0.019908861519885735 0.90434962817723508 62.500000000000007 1329.5000000000002 0.02462085407732165 1537598292089.5002
decision_type=2 2 2 2 2 2 2 2 2 2 2
left_child=1 2 4 -4 -1 6 -3 -7 9 -2 -11
right_child=8 5 3 -5 -6 7 -8 -9 -10 10 -12
leaf_value=0.00056935820187901888 -0 0.0050567576654215254 -0.014731189402317975 0.0026427929206593991 0.027262311961189223 -0 0.039157655137138425 0.099880339061530668 -0 -0.052401380722496262 -0
leaf_count=9330 21 429 1852 1069 313 20 105 22 23 194 22
internal_value=0 0.00633652 -0.0111354 -0.152624 0.0272528 0.318816 0.243962 1.30081 -0.705592 -0.924992 -0.983969
internal_count=13400 13140 12564 2921 9643 576 534 42 260 237 216
shrinkage=0.05


Tree=72
num_leaves=12
num_cat=0
split_feature=34 37 46 43 16 64 20 20 37 36 59
split_gain=9.39473 9.53837 10.601 11.5071 11.1006 6.23821 8.42725 5.61228 3.85923 5.09499 3.23233
threshold=163.50000000000003 0.27888106416275432 0.052718413334227152 4.5000000000000009 0.19263775971093047 249108103195.00003 3950.7887632819334 739.98524424663981 0.22393263661036178 0.43685356351692012 0.074794495867396352
decision_type=2 2 2 2 2 2 2 2 2 2 2
left_child=1 2 4 -4 -1 6 -3 -7 9 10 -2
right_child=8 5 3 -5 -6 7 -8 -9 -10 -11 -12
leaf_value=0.021359490112110118 0.040648536376129696 0.09086237716739537 0.0085287974297211227 -0.00076741453697492081 -0.015502414856481683 0.03041411830439357 -0.0089348906038387941 -0.032809142198968487 0.042104714300868325 -0.033531158300874074 -0.0040701796927262125
leaf_count=143 61 23 2692 8738 1106 20 56 412 104 24 21
internal_value=0 -0.00816469 0.00243405 0.0253559 -0.220422 -0.404981 0.243833 -0.559437 0.504675 0.111188 0.479442
internal_count=13400 13190 12679 11430 1249 511 79 432 210 106 82
shrinkage=0.05


Tree=73
num_leaves=12
num_cat=0
split_feature=24 64 64 63 63 25 3 64 24 44 36
split_gain=9.4123 11.0229 10.7879 10.4659 10.0179 9.61626 12.4657 7.0689 8.19377 5.96735 5.59189
threshold=9.9537378102071852 1700807049333.0002 34359738389.500008 520.50000000000011 2233.5000000000005 0.34636492674778974 6.5551228470489651 884763263042.50012 10.113401770775171 0.5387957012812038 0.37933650777039402
decision_type=2 2 2 2 2 2 2 2 2 2 2
left_child=1 2 9 7 -4 -5 -7 10 -9 -1 -2
right_child=3 -3 4 5 -6 6 -8 8 -10 -11 -12
leaf_value=-0.0093157875195109107 0 0.058490902888004064 -0.0030011602440892164 -0.036652444210569977 0.037373304781446411 0.022450844081638673 0.0037857206018802993 -0.0082380661365733989 0.053119382215739468 0.03591089052849078 -0.042391323448615084
leaf_count=46 77 37 10100 55 99 840 1445 239 58 154 250
internal_value=0 -0.0341275 -0.0399651 0.124277 -0.052081 0.183919 0.210542 -0.243953 0.0621257 0.498677 -0.575886
internal_count=13400 10436 10399 2964 10199 2340 2285 624 297 200 327
shrinkage=0.05


Tree=74
num_leaves=12
num_cat=0
split_feature=64 64 23 64 64 15 64 64 64 63 20
split_gain=9.38787 26.6869 10.3636 11.4347 13.0718 9.9155 9.44389 14.2464 11.4985 6.17915 8.656
threshold=652835029109.50012 644245094408.00012 13.345949132411837 798863917153.00012 919123001385.50012 0.69019953965699266 541165879485.00006 575525617673.00012 446676598877.00006 1738.5000000000002 11538.306579933143
decision_type=2 2 2 2 2 2 2 2 2 2 2
left_child=1 6 9 5 -5 -4 8 -8 -1 10 -2
right_child=2 -3 3 4 -6 -7 7 -9 -10 -11 -12
leaf_value=-0.003160929913404581 -0.00063994751323533865 -0.064856546923214395 -0.0098774781066416351 -0.013838689807717824 0.0070610207167942675 0.029260223261325626 -0.043314468560107428 -0.0045551466001486915 0.013653467987340335 0.022189307234598665 -0.018445994091839144
leaf_count=3922 3130 106 118 508 3051 481 212 583 742 108 439
internal_value=0 -0.0774756 0.0550065 0.135276 0.0813103 0.443184 -0.0522529 -0.305773 -0.00919503 -0.0438624 -0.0672544
internal_count=13400 5565 7835 4158 3559 599 5459 795 4664 3677 3569
shrinkage=0.05


Tree=75
num_leaves=12
num_cat=0
split_feature=2 3 18 63 64 63 28 18 50 26 25
split_gain=9.00795 10.0757 9.34264 12.4243 10.0144 7.96168 5.53784 4.97069 3.10252 2.29879 2.26429
threshold=32.145000534057623 16.514890043019189 0.024825248544413633 884.50000000000011 34359738531.500008 1511.5000000000002 6.3293518867203096 0.02519608445454732 85.500000000000014 -0.00055669106289274624 0.79582734825834522
decision_type=2 2 2 2 2 2 2 2 2 2 2
left_child=1 2 3 -1 -4 9 -7 8 -2 -3 -10
right_child=7 5 4 -5 -6 6 -8 -9 10 -11 -12
leaf_value=-0.0089176002590802255 0.0852507483607437 -0.010274674360669062 0.041400000973611212 0.001260269351027452 0.003570651567537401 -0.014709443993284207 0.039964853107464893 -0 0.045558061540038566 -0.037963208090933995 -0
leaf_count=3576 27 231 102 4202 4741 41 36 31 23 369 21
internal_value=0 -0.0060988 0.00558208 -0.0468289 0.0894045 -0.386058 0.156343 0.657075 0.95374 -0.590774 0.485398
internal_count=13400 13298 12621 7778 4843 677 77 102 71 600 44
shrinkage=0.05


Tree=76
num_leaves=12
num_cat=0
split_feature=63 10 63 32 23 22 48 40 61 40 44
split_gain=8.6836 13.4405 12.0888 17.3754 6.91972 6.03658 7.84931 7.12839 4.72082 6.00062 8.50918
threshold=284.50000000000006 91.500000000000014 584.50000000000011 28.500000000000004 12.108562986664115 4.5000000000000009 0.033685808536198958 0.62559520416463454 0.076028092101889377 0.57488840171196454 0.7092441374596935
decision_type=2 2 2 2 2 2 2 2 2 2 2
left_child=8 5 4 -4 -3 7 -7 -2 -1 10 -10
right_child=1 2 3 -5 -6 6 -8 -9 9 -11 -12
leaf_value=-0.04593020453584206 0.077057554595195421 -0.024887297888157276 0.013923366257586695 -0.00052813695195772447 -0.0053741851994460257 0.049230076090445496 0.0024664912225949155 0 0.024537568576329681 -0.025237302675154144 -0.03130178987553222
leaf_count=218 52 499 1424 8138 1984 70 283 36 205 396 95
internal_value=0 0.0118931 -0.00276648 0.0284236 -0.188935 0.428942 0.257042 0.999675 -0.334613 -0.200618 0.0935898
internal_count=13400 12486 12045 9562 2483 441 353 88 914 696 300
shrinkage=0.05


Tree=77
num_leaves=12
num_cat=0
split_feature=64 64 64 64 64 64 64 52 15 15 23
split_gain=8.65269 23.3318 12.8877 29.1528 15.2776 23.8542 14.0991 10.7209 9.14507 12.4576 9.08715
threshold=919123001385.50012 893353197697.00012 1417339207681.5002 1477468749880.5002 1194000908419.0002 1073741824017.5001 1288490188873.0002 517.50000000000011 0.69243623814269384 0.71774066167788764 15.620859954441007
decision_type=2 2 2 2 2 2 2 2 2 2 2
left_child=1 8 4 -4 5 -2 -6 -5 10 -10 -1
right_child=2 -3 3 7 6 -7 -8 -9 9 -11 -12
leaf_value=-0.0063310069211983001 0.013299782886211177 -0.051497471937657628 -0.031329700125709257 0.00054879436827545995 0.034310645045989518 -0.013045852691044421 0.0087682543196031075 0.039064008698479702 0.0142191379245004 -0.0019374540739812351 -0.035269607557706167
leaf_count=1319 1113 159 520 1570 424 1007 1040 94 827 5113 214
internal_value=0 -0.054851 0.0715922 -0.0782233 0.160901 0.0199996 0.344784 0.0693575 -0.0347636 0.00489939 -0.219072
internal_count=13400 7632 5768 2184 3584 2120 1464 1664 7473 5940 1533
shrinkage=0.05


Tree=78
num_leaves=12
num_cat=0
split_feature=24 63 12 17 63 4 6 64 2 24 26
split_gain=8.59042 11.2308 12.0325 11.2237 11.0717 10.0169 12.0529 10.9199 9.26712 8.23841 8.13071
threshold=9.9367189065235433 520.50000000000011 86.500000000000014 0.060428113553113567 701.00000000000011 9.9412404499759202 8.4855820000000026 1374389534867.0002 22.842616081237797 9.847289656655656 0.00048317341980458453
decision_type=2 2 2 2 2 2 2 2 2 2 2
left_child=5 -2 3 -3 -4 6 8 10 -1 -8 -7
right_child=1 2 4 -5 -6 7 9 -9 -10 -11 -12
leaf_value=-0.0024179595518829659 -0.012653580343127642 -0.017117247145938843 -0.030088630759771348 0.031252148494196309 0.0063164799028376838 0.022645215805423446 -0.0042017747229259458 -0.016698515659120037 0.010047168835511436 -0.018678856464999137 -0.0041472222399377302
leaf_count=5253 719 85 150 504 1978 552 1679 158 946 1183 193
internal_value=0 0.107568 0.164053 0.485838 0.0829031 -0.0362531 -0.0633077 0.191574 -0.00467848 -0.205104 0.313347
internal_count=13400 3436 2717 589 2128 9964 9061 903 6199 2862 745
shrinkage=0.05


Tree=79
num_leaves=12
num_cat=0
split_feature=2 46 63 29 15 28 62 26 37 2 15
split_gain=8.47433 10.5903 9.64353 15.4528 9.20969 7.31517 6.73047 7.85612 3.8363 3.10523 2.79812
threshold=12.142896000000002 0.030649433660911659 929.50000000000011 78.500000000000014 0.71774066167788764 5.6175031067582566 32.020835937815399 0.00073536150913887626 0.21459728966792932 26.590930076293947 0.67884372135123539
decision_type=2 2 2 2 2 2 2 2 2 2 2
left_child=5 9 4 -4 -3 10 7 -7 -8 -2 -1
right_child=1 2 3 -5 -6 6 8 -9 -10 -11 -12
leaf_value=0 -0.050610669450636969 0.003182292116051838 0.015889534067827029 0.00018565290590793321 -0.0073144156595737119 0.034708104816413593 -0.023363767247882028 -0.012463815948423117 0.021659842138484348 0 0.06319059039759678
leaf_count=27 165 2362 986 4690 4608 190 105 77 35 39 116
internal_value=0 -0.0119334 -0.00504549 0.0561636 -0.0796895 0.324925 0.167082 0.423615 -0.227823 -0.790713 1.02242
internal_count=13400 12850 12646 5676 6970 550 407 267 140 204 143
shrinkage=0.05


end of trees

feature importances:
seconds_copy__maximum=170
bookingID=98
Speed__maximum=54
Speed__median=52
Speed__mean=40
Speed__sum_values=34
gyro_abs__standard_deviation=29
acceleration_abs__mean_abs_change=27
Speed__mean_abs_change=23
acceleration_abs__minimum=20
acceleration_abs__ratio_beyond_r_sigma__r_0.5=17
gyro_abs__median=16
gyro_abs__maximum=15
acceleration_abs__maximum=14
gyro_abs__mean_abs_change=14
gyro_abs__number_cwt_peaks__n_1=14
gyro_abs__ratio_beyond_r_sigma__r_1=14
acceleration_abs__mean=13
Speed__ratio_beyond_r_sigma__r_2=12
acceleration_abs__standard_deviation=12
Speed__count_above_mean=11
Speed__ratio_beyond_r_sigma__r_0.5=10
acceleration_abs__mean_change=10
acceleration_abs__ratio_beyond_r_sigma__r_1=10
Speed__ratio_beyond_r_sigma__r_1=9
gyro_abs__mean=9
gyro_abs__mean_change=9
Speed__mean_change=8
Speed__number_cwt_peaks__n_5=8
Speed__standard_deviation=8
gyro_abs__ratio_beyond_r_sigma__r_2=8
Speed__ratio_beyond_r_sigma__r_1.5=7
gyro_abs__number_peaks__n_1=7
acceleration_abs__median=6
acceleration_abs__number_peaks__n_5=6
acceleration_abs__ratio_beyond_r_sigma__r_1.5=6
gyro_abs__minimum=6
gyro_abs__sum_values=6
Speed__number_cwt_peaks__n_1=5
acceleration_abs__ratio_beyond_r_sigma__r_2=5
acceleration_abs__count_above_mean=4
acceleration_abs__longest_strike_above_mean=4
gyro_abs__longest_strike_above_mean=3
Speed__minimum=2
Speed__number_peaks__n_3=2
acceleration_abs__number_peaks__n_1=2
acceleration_abs__number_peaks__n_50=2
gyro_abs__count_above_mean=2
gyro_abs__number_cwt_peaks__n_5=2
gyro_abs__ratio_beyond_r_sigma__r_0.5=2
gyro_abs__ratio_beyond_r_sigma__r_1.5=2
Speed__longest_strike_above_mean=1
Speed__number_peaks__n_1=1
Speed__number_peaks__n_10=1
acceleration_abs__number_cwt_peaks__n_1=1
acceleration_abs__number_cwt_peaks__n_5=1
acceleration_abs__number_peaks__n_10=1
acceleration_abs__number_peaks__n_3=1
gyro_abs__number_peaks__n_10=1
gyro_abs__number_peaks__n_3=1

parameters:
[boosting: gbdt]
[objective: binary]
[metric: auc]
[tree_learner: serial]
[device_type: cpu]
[data: ]
[valid: ]
[num_iterations: 100]
[learning_rate: 0.05]
[num_leaves: 12]
[num_threads: 0]
[max_depth: 4]
[min_data_in_leaf: 20]
[min_sum_hessian_in_leaf: 1]
[bagging_fraction: 0.5]
[bagging_freq: 0]
[bagging_seed: 25700]
[feature_fraction: 1]
[feature_fraction_seed: 19527]
[early_stopping_round: 0]
[max_delta_step: 0]
[lambda_l1: 1]
[lambda_l2: 0.1]
[min_gain_to_split: 0]
[drop_rate: 0.1]
[max_drop: 50]
[skip_drop: 0.5]
[xgboost_dart_mode: 0]
[uniform_drop: 0]
[drop_seed: 16023]
[top_rate: 0.2]
[other_rate: 0.1]
[min_data_per_group: 100]
[max_cat_threshold: 32]
[cat_l2: 10]
[cat_smooth: 10]
[max_cat_to_onehot: 4]
[top_k: 20]
[monotone_constraints: ]
[feature_contri: ]
[forcedsplits_filename: ]
[refit_decay_rate: 0.9]
[verbosity: 1]
[max_bin: 255]
[min_data_in_bin: 3]
[bin_construct_sample_cnt: 200000]
[histogram_pool_size: -1]
[data_random_seed: 18964]
[output_model: LightGBM_model.txt]
[snapshot_freq: -1]
[input_model: ]
[output_result: LightGBM_predict_result.txt]
[initscore_filename: ]
[valid_data_initscores: ]
[pre_partition: 0]
[enable_bundle: 1]
[max_conflict_rate: 0]
[is_enable_sparse: 1]
[sparse_threshold: 0.8]
[use_missing: 1]
[zero_as_missing: 0]
[two_round: 0]
[save_binary: 0]
[enable_load_from_binary_file: 1]
[header: 0]
[label_column: ]
[weight_column: ]
[group_column: ]
[ignore_column: ]
[categorical_feature: ]
[predict_raw_score: 0]
[predict_leaf_index: 0]
[predict_contrib: 0]
[num_iteration_predict: -1]
[pred_early_stop: 0]
[pred_early_stop_freq: 10]
[pred_early_stop_margin: 10]
[convert_model_language: ]
[convert_model: gbdt_prediction.cpp]
[num_class: 1]
[is_unbalance: 0]
[scale_pos_weight: 1]
[sigmoid: 1]
[boost_from_average: 1]
[reg_sqrt: 0]
[alpha: 0.9]
[fair_c: 1]
[poisson_max_delta_step: 0.7]
[tweedie_variance_power: 1.5]
[max_position: 20]
[label_gain: ]
[metric_freq: 1]
[is_provide_training_metric: 0]
[eval_at: ]
[num_machines: 1]
[local_listen_port: 12400]
[time_out: 120]
[machine_list_filename: ]
[machines: ]
[gpu_platform_id: -1]
[gpu_device_id: -1]
[gpu_use_dp: 0]

end of parameters

pandas_categorical:[]
