tree
version=v2
num_class=1
num_tree_per_iteration=1
label_index=0
max_feature_idx=64
objective=binary sigmoid:1
feature_names=Speed__count_above_mean Speed__longest_strike_above_mean Speed__maximum Speed__mean Speed__mean_abs_change Speed__mean_change Speed__median Speed__minimum Speed__number_cwt_peaks__n_1 Speed__number_cwt_peaks__n_5 Speed__number_peaks__n_1 Speed__number_peaks__n_10 Speed__number_peaks__n_3 Speed__number_peaks__n_5 Speed__number_peaks__n_50 Speed__ratio_beyond_r_sigma__r_0.5 Speed__ratio_beyond_r_sigma__r_1 Speed__ratio_beyond_r_sigma__r_1.5 Speed__ratio_beyond_r_sigma__r_2 Speed__standard_deviation Speed__sum_values acceleration_abs__count_above_mean acceleration_abs__longest_strike_above_mean acceleration_abs__maximum acceleration_abs__mean acceleration_abs__mean_abs_change acceleration_abs__mean_change acceleration_abs__median acceleration_abs__minimum acceleration_abs__number_cwt_peaks__n_1 acceleration_abs__number_cwt_peaks__n_5 acceleration_abs__number_peaks__n_1 acceleration_abs__number_peaks__n_10 acceleration_abs__number_peaks__n_3 acceleration_abs__number_peaks__n_5 acceleration_abs__number_peaks__n_50 acceleration_abs__ratio_beyond_r_sigma__r_0.5 acceleration_abs__ratio_beyond_r_sigma__r_1 acceleration_abs__ratio_beyond_r_sigma__r_1.5 acceleration_abs__ratio_beyond_r_sigma__r_2 acceleration_abs__standard_deviation acceleration_abs__sum_values gyro_abs__count_above_mean gyro_abs__longest_strike_above_mean gyro_abs__maximum gyro_abs__mean gyro_abs__mean_abs_change gyro_abs__mean_change gyro_abs__median gyro_abs__minimum gyro_abs__number_cwt_peaks__n_1 gyro_abs__number_cwt_peaks__n_5 gyro_abs__number_peaks__n_1 gyro_abs__number_peaks__n_10 gyro_abs__number_peaks__n_3 gyro_abs__number_peaks__n_5 gyro_abs__number_peaks__n_50 gyro_abs__ratio_beyond_r_sigma__r_0.5 gyro_abs__ratio_beyond_r_sigma__r_1 gyro_abs__ratio_beyond_r_sigma__r_1.5 gyro_abs__ratio_beyond_r_sigma__r_2 gyro_abs__standard_deviation gyro_abs__sum_values seconds_copy__maximum bookingID
feature_infos=[0:2435] [1:2040] [-1:148.01863] [-1:29.557195254734584] [0:16.375196992485638] [-0.13955307262569824:0.12428571428571419] [-1:30.468206500000001] [-2:25.29604339599609] [0:693] [0:697] [0:2048] [0:345] [0:1046] [0:673] [0:68] [0:1] [0:0.70303030303030301] [0:0.27692307692307694] [0:0.16500000000000001] [0:14.58380084122029] [-2040:55761.699446499348] [30:2082] [2:26] [1.039078234610775:115.1522441163311] [0.97305005418626656:40.030455066270427] [0.011171105579122894:8.0496673970293138] [-0.028069950670156656:0.031983138156989506] [0.9713561718230882:39.62766751928811] [0.00507422807335266:32.838933117622645] [9:508] [7:430] [35:2494] [3:357] [11:1086] [8:688] [0:74] [0.017937219730941704:0.94223363286264439] [0.0033039647577092512:0.4414715719063545] [0.0033039647577092512:0.27503736920777277] [0:0.10416666666666667] [0.010213807305876663:9.0935597481786132] [116.76600650235198:75458.912799773912] [8:1778] [1:784] [0.0098216320195586692:80.777981006019587] [0.003342424708019231:18.430622835026192] [0:5.1436155721518952] [-0.022779561486307862:0.054141011885884174] [0.00017295956849490407:21.205223889352027] [0:1.3917239855200134] [1:450] [2:483] [0:2539] [0:372] [0:1083] [0:680] [0:76] [0.0010449320794148381:1] [0:0.54110612855007478] [0:0.2011986301369863] [0:0.16078431372549021] [1.7347234759768071e-18:7.1444976070654143] [0.95259104178548082:25839.733214706721] [119:1495796757] [0:1709396983966]
tree_sizes=1019 1009 1015 1010 1009 1021 1034 1042 1037 1042 1039 1043 1041 1040 1046 1023 1027 1033 1029 1045 1044 1041 1041 1041 1030 1054 1040 1023 1024 1049 1050 1043 1014 1050 1050 1055 1006 1051 1046 1033 1042 1037 1025 1045 1048 1027 1020 1056 1056 1029 1054 1056 1021 1062 1045 1059 1044 1050 1055 1046 1031 1009 1029 1056 1030 1050 1035 1024 1038 1031 1055 1064 1049 1019 1008 1059 1037 1022 1057 1059

Tree=0
num_leaves=12
num_cat=0
split_feature=63 63 40 20 63 3 6 63 63 28 23
split_gain=1002.24 288.905 248.348 175.803 134.401 91.6628 41.1116 41.009 39.1646 32.4546 28.5119
threshold=1229.5000000000002 1813.5000000000002 1.8048396984376829 4432.1570486950013 539.50000000000011 4.8427173331719429 6.3247859500000017 2167.5000000000005 1439.5000000000002 4.7961919132666946 14.851452166957783
decision_type=2 2 2 2 2 2 2 2 2 2 2
left_child=2 3 4 10 6 -6 -1 -3 -5 -4 -2
right_child=1 7 9 8 5 -7 -8 -9 -10 -11 -12
leaf_value=-1.1244260086505116 -1.0137506905446962 -0.99851400785877908 -0.92325826769785868 -1.0816818289476242 -1.0828258366106929 -1.1139986810269149 -1.1495100788197343 -0.9320828302241857 -1.0553559714717551 -1.0982789831071536 -0.90934066982926687
leaf_count=2257 72 429 100 1508 1542 6651 1504 208 1603 20 106
internal_value=0 1.01345 -0.329566 0.735211 -0.363203 -0.19639 -0.725094 2.43992 0.605055 2.96378 2.97154
internal_count=16000 3926 12074 3289 11954 8193 3761 637 3111 120 178
shrinkage=1


Tree=1
num_leaves=12
num_cat=0
split_feature=63 63 40 20 63 3 6 63 63 28 23
split_gain=889.194 234.887 212.547 142.911 125.859 89.5203 42.2263 33.679 29.973 24.4718 20.1463
threshold=1229.5000000000002 1813.5000000000002 1.8048396984376829 4432.1570486950013 565.50000000000011 3.5434183552179186 6.6421180000000009 1439.5000000000002 2167.5000000000005 4.7961919132666946 14.851452166957783
decision_type=2 2 2 2 2 2 2 2 2 2 2
left_child=2 3 4 10 6 -6 -1 -5 -3 -4 -2
right_child=1 8 9 7 5 -7 -8 -9 -10 -11 -12
leaf_value=-0.024880386771558117 0.077052291281317076 0.090231224126005372 0.1530058385680326 0.01563476532716334 0.042071074772236317 -0.011947692277461876 -0.050021292674013743 0.03990368117673615 0.14580929336714069 0 0.16415977408533022
leaf_count=2507 72 429 100 1508 427 7518 1502 1603 208 20 106
internal_value=0 0.938831 -0.315904 0.685792 -0.348397 -0.179421 -0.686028 0.566135 2.18481 2.62708 2.63208
internal_count=16000 3926 12074 3289 11954 7945 4009 3111 637 120 178
shrinkage=0.05


Tree=2
num_leaves=12
num_cat=0
split_feature=63 63 40 20 63 20 6 36 63 28 62
split_gain=791.369 194.921 184.613 119.085 117.978 83.2638 75.1633 32.3232 23.5043 19.174 15.5737
threshold=1229.5000000000002 1813.5000000000002 1.8048396984376829 4432.1570486950013 786.50000000000011 2196.9995064460004 9.5074075000000029 0.47620665113871641 2039.5000000000002 4.7961919132666946 235.01043926693762
decision_type=2 2 2 2 2 2 2 2 2 2 2
left_child=2 3 4 -2 6 -6 -1 -5 10 -4 -3
right_child=1 8 9 7 5 -7 -8 -9 -10 -11 -12
leaf_value=-0.019802840641758548 0.11852569917998033 0.063309551904840333 0.13657970556702195 0.035178687891542618 0.073697947534856714 -0.0058616957418651822 -0.048816656244349416 0.010525548518286916 0.12328285010398449 0 0.12633197430077625
leaf_count=5453 178 276 100 2008 179 4707 1615 1103 288 20 73
internal_value=0 0.872924 -0.302778 0.641121 -0.334137 -0.056267 -0.527946 0.530456 1.97949 2.36871 1.54697
internal_count=16000 3926 12074 3289 11954 4886 7068 3111 637 120 349
shrinkage=0.05


Tree=3
num_leaves=12
num_cat=0
split_feature=63 63 25 63 20 3 3 6 32 36 45
split_gain=705.992 164.809 164.739 111.42 101.943 74.8517 41.2342 36.2642 29.7931 29.2663 25.7247
threshold=1229.5000000000002 1737.5000000000002 1.4989626595557106 539.50000000000011 4432.1570486950013 4.8427173331719429 6.6923909864554831 6.3247859500000017 89.500000000000014 0.47620665113871641 0.25133580775627229
decision_type=2 2 2 2 2 2 2 2 2 2 2
left_child=2 4 3 7 -2 -5 -4 -1 10 -6 -3
right_child=1 8 6 5 9 -7 -8 -9 -10 -11 -12
leaf_value=-0.023632918798464315 0.10714285277537561 0.062533534750198447 0.12878916443314847 0.014116469353796422 0.03126230207742927 -0.01408487756988561 0 -0.047918410103202219 0.12158688434620507 0.007204609360464383 0.13975098499209665
leaf_count=2257 175 565 112 1537 1891 6624 45 1499 195 1038 62
internal_value=0 0.813986 -0.290154 -0.32426 0.56649 -0.172399 1.91689 -0.664037 1.67445 0.457773 1.41707
internal_count=16000 3926 12074 11917 3104 8161 157 3756 822 2929 627
shrinkage=0.05


Tree=4
num_leaves=12
num_cat=0
split_feature=63 25 63 63 3 20 6 3 49 63 45
split_gain=631.154 145.772 142.141 103.944 93.3297 69.8285 34.796 34.5633 26.368 18.2089 17.9818
threshold=1229.5000000000002 1.4989626595557106 1813.5000000000002 539.50000000000011 4.4739877659927734 1782.2746367100003 6.3247859500000017 6.6923909864554831 0.0013030378959474553 2198.5000000000005 0.211037249541672
decision_type=2 2 2 2 2 2 2 2 2 2 2
left_child=1 3 4 6 10 -5 -1 -3 -6 -4 -2
right_child=2 7 9 5 8 -7 -8 -9 -10 -11 -12
leaf_value=-0.022742025059663454 0.062325266892157241 0.11745086639629816 0.070445524507946874 0.037871823676539844 0.03580164336607463 -0.01077225837499385 -0.046787510162628006 0 0.014136471691956155 0.11332992731805916 0.1310483832836051
leaf_count=2257 117 112 455 404 1208 7757 1499 45 1867 182 97
internal_value=0 -0.278044 0.76096 -0.310898 0.562177 -0.164542 -0.642749 1.76644 0.455153 1.67234 1.92731
internal_count=16000 12074 3926 11917 3289 8161 3756 157 3075 637 214
shrinkage=0.05


Tree=5
num_leaves=12
num_cat=0
split_feature=63 63 61 40 63 25 3 36 63 6 6
split_gain=569.205 145.435 107.287 99.1904 76.2634 63.7136 59.0688 29.4422 22.71 20.4157 19.3788
threshold=1153.5000000000002 1737.5000000000002 0.24442330426371586 1.5495976006435468 464.50000000000006 1.2237518419337885 6.4491280056738924 0.42877549979600166 2039.5000000000002 11.456550461853029 1.8840460500000005
decision_type=2 2 2 2 2 2 2 2 2 2 2
left_child=2 3 4 7 9 10 -6 -2 -3 -1 -4
right_child=1 8 5 -5 6 -7 -8 -9 -10 -11 -12
leaf_value=-0.030854667747874792 0.031748475711330514 0.057362258447630501 0.048293483374765106 0.11279398571086569 -0.00089835306984326849 0.093412664475101603 -0.021576651199029104 0.01077705750765214 0.096201658308191676 -0.058914394108583394 0
leaf_count=2116 1365 534 138 127 3351 122 4450 2386 288 522 601
internal_value=0 0.637621 -0.299801 0.444397 -0.367535 0.480678 -0.252187 0.371105 1.43969 -0.725658 0.186253
internal_count=16000 4700 11300 3878 10439 861 7801 3751 822 2638 739
shrinkage=0.05


Tree=6
num_leaves=12
num_cat=0
split_feature=63 63 61 40 63 3 25 58 50 3 6
split_gain=511.439 126.829 97.5508 86.4419 71.6492 55.9384 55.6844 26.9416 21.3886 22.3447 19.9702
threshold=1153.5000000000002 1737.5000000000002 0.24442330426371586 1.5495976006435468 464.50000000000006 5.0368941652792376 1.3842183707712195 0.14299805447470817 162.50000000000003 5.1468346135052387 11.456550461853029
decision_type=2 2 2 2 2 2 2 2 2 2 2
left_child=2 3 4 7 10 -6 -4 -2 9 -3 -1
right_child=1 8 6 -5 5 -7 -8 -9 -10 -11 -12
leaf_value=-0.029833657489549817 0.023567603892767647 0.11001509367278953 0.0094216940528138223 0.10439955804035606 0.0055219049263501583 -0.017689349950992531 0.089788590278951849 0.0023303257425768844 0.102884576762242 0.049560502672429001 -0.058019839994095337
leaf_count=2116 2654 83 750 127 1815 5986 111 1097 155 584 522
internal_value=0 0.598989 -0.287454 0.41841 -0.352915 -0.24129 0.453153 0.349613 1.33978 1.1551 -0.704226
internal_count=16000 4700 11300 3878 10439 7801 861 3751 822 667 2638
shrinkage=0.05


Tree=7
num_leaves=12
num_cat=0
split_feature=63 63 3 63 6 3 63 42 63 45 44
split_gain=461.227 113.011 112.807 94.6431 72.3592 69.0812 38.4784 34.6408 26.4947 25.0934 15.7208
threshold=1229.5000000000002 793.50000000000011 3.5434183552179186 1842.5000000000002 13.386223121368408 4.8427173331719429 373.50000000000006 267.50000000000006 1468.5000000000002 0.13134812497708412 1.4058267461040079
decision_type=2 2 2 2 2 2 2 2 2 2 2
left_child=1 4 9 5 6 10 -1 -4 -7 -3 -2
right_child=3 2 7 -5 -6 8 -8 -9 -10 -11 -12
leaf_value=-0.035134000531260104 0.042854057089610029 0.039428412517738584 0.0097871429499310526 0.069803402085433661 -0.053511690022459701 0.0088392907998586286 -0.012206441843434414 -0.011143298257268969 0.029680257472628386 0.11099847008539175 0.099185545965627619
leaf_count=1426 123 170 1703 579 984 1613 4725 2966 1468 100 143
internal_value=0 -0.245747 0.0218657 0.6339 -0.442151 0.480457 -0.347189 -0.0683089 0.380004 1.38843 1.50708
internal_count=16000 12074 4939 3926 7135 3347 6151 4669 3081 270 266
shrinkage=0.05


Tree=8
num_leaves=12
num_cat=0
split_feature=63 63 6 25 20 63 63 63 2 4 45
split_gain=416.96 99.8558 86.4875 83.4872 71.4086 50.0651 46.7319 27.5041 26.8529 23.87 20.6149
threshold=1153.5000000000002 1634.5000000000002 6.1454058750000007 1.31397798767748 4432.1570486950013 667.50000000000011 359.50000000000006 2039.5000000000002 28.581840553283694 11.519984161273726 0.14689683755319463
decision_type=2 2 2 2 2 2 2 2 2 2 2
left_child=2 4 3 6 -2 -4 -1 10 -6 -7 -3
right_child=1 7 5 -5 8 9 -8 -9 -10 -11 -12
leaf_value=-0.031320851677617716 0.07289034451429699 0.033436150775188571 -0.039431333140843933 0.08230893263240753 0.0081370733520639404 -0.016845204533902976 -0.0017071515133787254 0.079897103218182497 0.040487963511435458 0.045421641135531626 0.073349685323754368
leaf_count=934 227 737 2220 117 2878 2866 5076 288 371 87 199
internal_value=0 0.533079 -0.264755 -0.0767819 0.330145 -0.498506 -0.121594 1.04304 0.237689 -0.298247 0.847378
internal_count=16000 4700 11300 6127 3476 5173 6010 1224 3249 2953 936
shrinkage=0.05


Tree=9
num_leaves=12
num_cat=0
split_feature=63 63 61 40 63 3 3 37 6 62 63
split_gain=375.71 88.5489 82.5503 65.9493 60.6376 47.5044 42.0295 25.475 19.2303 17.8691 16.5945
threshold=1153.5000000000002 1737.5000000000002 0.24442330426371586 1.8048396984376829 464.50000000000006 5.0368941652792376 3.5434183552179186 0.20995458209630172 11.456550461853029 235.01043926693762 2198.5000000000005
decision_type=2 2 2 2 2 2 2 2 2 2 2
left_child=2 3 4 7 8 -6 -4 -2 -1 10 -3
right_child=1 9 6 -5 5 -7 -8 -9 -10 -11 -12
leaf_value=-0.027154554471561482 0.027956520521464148 0.036294131652256749 0.069028038630105829 0.096534145101985269 0.0054909466861989093 -0.015955962803127163 0.0072661057633899521 0.0083284395886236602 -0.055941813020978594 0.081981029184708065 0.081603245715750228
leaf_count=2116 1221 498 171 105 1815 5986 690 2552 522 212 112
internal_value=0 0.502725 -0.253709 0.352046 -0.315508 -0.213266 0.426654 0.297411 -0.649129 1.10885 0.910062
internal_count=16000 4700 11300 3878 10439 7801 861 3773 2638 822 610
shrinkage=0.05


Tree=10
num_leaves=12
num_cat=0
split_feature=63 63 20 3 6 63 63 2 13 61 36
split_gain=340.433 95.0008 93.9972 69.3621 66.725 58.7592 33.0898 27.9834 26.5941 23.9771 19.7462
threshold=1229.5000000000002 793.50000000000011 2859.4332173850003 4.8776388788834497 13.386223121368408 1634.5000000000002 284.50000000000006 28.450001500000003 170.50000000000003 0.11533454775454481 0.4880805408583187
decision_type=2 2 2 2 2 2 2 2 2 2 2
left_child=1 4 9 -2 6 10 -1 -4 -7 -3 -5
right_child=3 2 7 5 -6 8 -8 -9 -10 -11 -12
leaf_value=-0.038522263770942741 0.070397507577870028 0.023504348045457105 -0.0063607562891636943 0.01818521347283255 -0.05140639515081305 0.034133670812015175 -0.011994351493191635 0.02960535836022072 0.079546698869934873 0.079245915767946484 -0.0034154374835736038
leaf_count=868 352 216 4210 1761 984 936 5283 321 165 192 712
internal_value=0 -0.216921 0.0277812 0.534747 -0.40129 0.4382 -0.310649 -0.0749015 0.834369 1.03554 0.240033
internal_count=16000 12074 4939 3926 7135 3574 6151 4531 1101 408 2473
shrinkage=0.05


Tree=11
num_leaves=12
num_cat=0
split_feature=63 63 3 6 45 63 46 63 20 44 49
split_gain=307.016 99.2584 97.5528 63.7561 57.0394 48.6328 33.6262 31.141 22.553 16.7679 16.6359
threshold=1289.5000000000002 793.50000000000011 3.5434183552179186 13.386223121368408 0.23849997112831614 1986.0000000000002 0.16181494412101868 284.50000000000006 8918.5242782629011 0.94588713914641398 0.0013030378959474553
decision_type=2 2 2 2 2 2 2 2 2 2 2
left_child=1 3 9 7 5 10 -4 -1 -6 -3 -2
right_child=4 2 6 -5 8 -7 -8 -9 -10 -11 -12
leaf_value=-0.037486051508280237 0.029016797291637364 0.031622458612407457 -0.0054449797760375502 -0.050480318519736347 0.09829644189680653 0.061538047574642277 0.024586275168561655 -0.011472620440538525 0.034091167726575319 0.085912702511792671 0.011644547443821353
leaf_count=868 1092 151 4590 984 156 303 555 5283 120 147 1751
internal_value=0 -0.189873 0.0405985 -0.386002 0.553089 0.465841 -0.0408461 -0.29788 1.4604 1.2194 0.369389
internal_count=16000 12578 5443 7135 3422 3146 5145 6151 276 298 2843
shrinkage=0.05


Tree=12
num_leaves=12
num_cat=0
split_feature=63 6 63 25 20 63 63 2 4 32 3
split_gain=278.681 72.9262 67.119 62.9611 51.2616 42.2506 37.2051 23.4443 21.0946 20.6043 17.0962
threshold=1153.5000000000002 6.1454058750000007 1634.5000000000002 1.31397798767748 4432.1570486950013 667.50000000000011 786.50000000000011 28.581840553283694 11.519984161273726 89.500000000000014 4.8776388788834497
decision_type=2 2 2 2 2 2 2 2 2 2 2
left_child=1 3 4 6 -2 -3 -1 -6 -7 10 -4
right_child=2 5 9 -5 7 8 -8 -9 -10 -11 -12
leaf_value=-0.011186258120644282 0.060352224314438929 -0.036216709740012447 0.077243917093436601 0.071829810175667502 0.0056686415979789245 -0.014932496042261521 0.0087351312616924803 0.035391372064813569 0.04319235437805255 0.072616530419321132 0.030517906202871276
leaf_count=4118 227 2220 96 117 2878 2866 1892 371 87 195 933
internal_value=0 -0.223867 0.426566 -0.0508762 0.260913 -0.444638 -0.0908771 0.183171 -0.260984 0.837665 0.707599
internal_count=16000 11300 4700 6127 3476 5173 6010 3249 2953 1224 1029
shrinkage=0.05


Tree=13
num_leaves=12
num_cat=0
split_feature=63 61 63 6 45 20 3 63 20 3 5
split_gain=251.95 83.8797 63.1461 51.1235 49.2522 46.5954 41.9579 40.3923 19.722 15.9728 13.5673
threshold=1289.5000000000002 0.24442330426371586 786.50000000000011 13.386223121368408 0.23849997112831614 3891.2715029625001 3.5434183552179186 1986.0000000000002 8918.5242782629011 9.2163537028291156 -0.017375505530805982
decision_type=2 2 2 2 2 2 2 2 2 2 2
left_child=1 2 3 -1 7 -4 -3 9 -6 -2 -8
right_child=4 6 5 -5 8 -7 10 -9 -10 -11 -12
leaf_value=-0.015898062895111122 0.025961653039309369 0.064751923859814639 0.024773770218857131 -0.04970622431267957 0.090759035206526353 -0.0068590053114134233 -0.032254660403641389 0.055693338408181692 0.030803723116781669 0.0093085908134243143 0.015072967854410932
leaf_count=5687 1196 209 703 930 156 4270 95 303 120 1647 684
internal_value=0 -0.17452 -0.235871 -0.400898 0.49699 -0.0405067 0.459611 0.416474 1.33864 0.329326 0.18475
internal_count=16000 12578 11590 6617 3422 4973 988 3146 276 2843 779
shrinkage=0.05


Tree=14
num_leaves=12
num_cat=0
split_feature=63 6 40 63 25 63 63 21 6 0 32
split_gain=229.786 65.1887 57.4463 53.7506 51.8172 44.8924 31.3641 23.8032 21.2768 20.0765 17.9341
threshold=1153.5000000000002 4.6923623500000007 1.8048396984376829 1634.5000000000002 1.31397798767748 659.50000000000011 359.50000000000006 489.50000000000006 12.489159750000002 321.50000000000006 89.500000000000014
decision_type=2 2 2 2 2 2 2 2 2 2 2
left_child=1 4 3 7 6 8 -1 -2 -3 -7 -5
right_child=2 5 -4 10 -6 9 -8 -9 -10 -11 -12
leaf_value=-0.025741032709630338 0.022675854899941152 -0.024182791575943441 0.081916085683233344 0.02956830716460614 0.070976630718053907 0.0078251237715199918 0.0020236354012486482 0.0028433599349784711 -0.050419379578753643 -0.014392017491330698 0.065375909470861221
leaf_count=767 1108 2011 147 989 104 714 3838 2273 841 3025 183
internal_value=0 -0.206088 0.384538 0.337539 0.00257582 -0.36992 -0.0402347 0.187992 -0.62414 -0.200994 0.712917
internal_count=16000 11300 4700 4553 4709 6591 4605 3381 2852 3739 1172
shrinkage=0.05


Tree=15
num_leaves=12
num_cat=0
split_feature=63 45 63 6 63 20 57 37 13 3 4
split_gain=211.652 84.1306 63.6424 58.5425 36.4325 41.8175 36.055 29.9157 21.3284 13.5563 12.0727
threshold=929.50000000000011 0.22818989054774028 1573.5000000000002 12.489159750000002 373.50000000000006 2029.7259273663537 0.24279864421355318 0.20995458209630172 169.50000000000003 15.233563211062693 10.31369230165639
decision_type=2 2 2 2 2 2 2 2 2 2 2
left_child=3 2 7 4 -1 -6 -3 -2 -4 -8 -5
right_child=1 6 8 10 5 -7 9 -9 -10 -11 -12
leaf_value=-0.028470557376217315 0.015228135021062631 0.011366199055704271 0.02390541532830015 -0.0428357167333729 0.013900285738800731 -0.010559136492747949 0.078132501896599982 -0.0029167008119627968 0.062726400646494679 -0 -0.0029185614442621415
leaf_count=1397 1796 171 1230 1271 1230 4953 334 3265 175 23 155
internal_value=0 0.274444 0.200418 -0.266351 -0.185623 -0.109538 1.08636 0.0719314 0.584207 1.4602 -0.766388
internal_count=16000 6994 6466 9006 7580 6183 528 5061 1405 357 1426
shrinkage=0.05


Tree=16
num_leaves=12
num_cat=0
split_feature=63 3 63 6 2 63 52 32 28 4 46
split_gain=191.851 94.8291 83.1517 53.2688 39.8446 27.0632 34.2508 22.5702 6.25848 5.78482 7.53195
threshold=793.50000000000011 2.7137060920623055 1439.5000000000002 13.386223121368408 28.729017271118167 284.50000000000006 95.500000000000014 89.500000000000014 7.6763211690565276 10.901454028372124 0.11934011027213431
decision_type=2 2 2 2 2 2 2 2 2 2 2
left_child=3 8 4 5 -3 -1 -7 -4 -2 -5 -11
right_child=1 2 7 9 -6 6 -8 -9 -10 10 -12
leaf_value=-0.034174607008344161 0.081305335751941155 -0.0015927281540202857 0.021697503335579411 -0.049725540013921196 0.034073787938462136 0.024789072061555215 -0.011953455994163569 0.060317862224463309 0.027327115713133461 -0.040811461234714214 0.057083149250893618
leaf_count=868 205 5955 2048 926 437 411 4872 177 43 38 20
internal_value=0 0.2053 0.16183 -0.323209 0.0174295 -0.244479 -0.180831 0.502158 1.46607 -0.937548 -0
internal_count=16000 8865 8617 7135 6392 6151 5283 2225 248 984 58
shrinkage=0.05


Tree=17
num_leaves=12
num_cat=0
split_feature=63 40 63 6 63 20 6 20 29 4 62
split_gain=175.015 73.0995 55.9066 52.9595 33.6465 37.9294 32.9964 18.8613 14.9275 12.9512 15.6886
threshold=929.50000000000011 1.1940636335196089 1634.5000000000002 13.386223121368408 373.50000000000006 2029.7259273663537 16.664515514373782 6179.3250000000016 157.50000000000003 10.31369230165639 81.186312344417104
decision_type=2 2 2 2 2 2 2 2 2 2 2
left_child=3 2 6 4 -1 -6 -2 -3 -4 -5 -11
right_child=1 7 8 9 5 -7 -8 -9 -10 10 -12
leaf_value=-0.027373404116766843 0.0076287051354547615 0.077802021729544785 0.024267376000015092 -0.04373436097139486 0.013240948942935505 -0.0099502552613357064 -0.019720241068827766 0.024210124896798756 0.056907635733511389 -0.036688049761695811 0.052406774240186166
leaf_count=1426 4865 218 946 1130 1232 5085 639 137 189 85 48
internal_value=0 0.247765 0.191686 -0.245477 -0.174943 -0.103076 0.088762 1.17868 0.599954 -0.772414 -0
internal_count=16000 6994 6639 9006 7743 6317 5504 355 1135 1263 133
shrinkage=0.05


Tree=18
num_leaves=12
num_cat=0
split_feature=63 3 63 6 46 63 0 50 28 4 61
split_gain=161.564 82.3187 68.7652 48.5313 36.722 23.9646 30.9797 20.1358 5.58227 5.57225 6.47638
threshold=793.50000000000011 2.7137060920623055 1439.5000000000002 13.386223121368408 0.16181494412101868 284.50000000000006 119.50000000000001 162.50000000000003 7.6763211690565276 10.901454028372124 0.11955422557964021
decision_type=2 2 2 2 2 2 2 2 2 2 2
left_child=3 8 4 5 -3 -1 -7 -4 -2 -5 -11
right_child=1 2 7 9 -6 6 -8 -9 -10 10 -12
leaf_value=-0.032446720978380354 0.076476514312687358 -0.0024167531686895712 0.019921227362969939 -0.048301460926710116 0.024562656844675984 0.020466063531359779 -0.011465445417895615 0.060529326146925647 0.025230032299899726 -0.039172810140183201 0.05129605832162102
leaf_count=868 205 5672 2082 926 720 495 4788 143 43 38 20
internal_value=0 0.187073 0.146981 -0.300542 0.0153007 -0.226451 -0.166994 0.455159 1.37364 -0.907036 -0
internal_count=16000 8865 8617 7135 6392 6151 5283 2225 248 984 58
shrinkage=0.05


Tree=19
num_leaves=12
num_cat=0
split_feature=63 3 63 6 2 61 45 63 3 63 37
split_gain=146.836 75.9767 65.2931 46.2607 41.414 23.9481 22.8452 21.9874 20.0218 17.7242 10.1983
threshold=793.50000000000011 4.0988406046240771 1468.5000000000002 13.386223121368408 28.729017271118167 0.11533454775454481 0.14434095575132724 2167.5000000000005 4.9426341708299697 284.50000000000006 0.16673447247084353
decision_type=2 2 2 2 2 2 2 2 2 2 2
left_child=3 6 4 5 -3 8 10 -4 -1 -7 -2
right_child=1 2 7 -5 -6 9 -8 -9 -10 -11 -12
leaf_value=-0.0053987902686893499 0.048647160309582049 -0.0032690019737210705 0.01799051108427004 -0.044563304699235542 0.032329020161194877 -0.030311113706103072 0.0690447444126321 0.05633299144579651 -0.024860897628858781 0.0022941205088203398 0.011115891200238821
leaf_count=1346 150 5752 1838 984 451 342 253 180 2296 2167 241
internal_value=0 0.177663 0.115782 -0.288511 -0.0102442 -0.216714 0.882815 0.432856 -0.347843 -0.0274464 0.529322
internal_count=16000 8865 8221 7135 6203 6151 644 2018 3642 2509 391
shrinkage=0.05


Tree=20
num_leaves=12
num_cat=0
split_feature=63 61 6 3 63 29 25 28 64 49 6
split_gain=133.692 56.0847 42.7478 37.2742 36.2857 27.8601 25.0496 24.5303 17.0848 16.1238 11.2523
threshold=1243.5000000000002 0.24442330426371586 14.439106000000001 4.8776388788834497 518.50000000000011 157.50000000000003 1.3842183707712195 4.9555927214942503 936302870558.00012 0.010369863421573916 2.3376142805786135
decision_type=2 2 2 2 2 2 2 2 2 2 2
left_child=1 2 4 -2 -1 8 10 -4 -5 -8 -3
right_child=3 6 7 5 -6 -7 9 -9 -10 -11 -12
leaf_value=-0.020054054647144451 0.049191879202528328 0.035008100225910471 0.020225233499920406 0.0039543714244606237 -0.0026160219388458947 0.052582790183052674 0.079723346715167245 -0.036856369818717392 0.019524661759800058 -0.0015818467823043075 0.0021417509723530748
leaf_count=2764 347 180 127 1925 6930 181 105 1360 1424 29 628
internal_value=0 -0.143365 -0.196191 0.32831 -0.14007 0.260028 0.39227 -0.624159 0.212908 1.21727 0.210635
internal_count=16000 12123 11181 3877 9694 3530 942 1487 3349 134 808
shrinkage=0.05


Tree=21
num_leaves=12
num_cat=0
split_feature=63 2 63 6 0 61 36 3 63 4 61
split_gain=124.535 67.5479 53.4921 42.8602 33.4856 21.5308 20.1219 18.9051 15.9788 5.74539 5.88854
threshold=793.50000000000011 11.860176129638676 1407.5000000000002 13.386223121368408 270.50000000000006 0.11533454775454481 0.42949702537787438 4.9426341708299697 284.50000000000006 10.901454028372124 0.11955422557964021
decision_type=2 2 2 2 2 2 2 2 2 2 2
left_child=3 -2 4 5 -3 7 -4 -1 -7 -5 -11
right_child=1 2 6 9 -6 8 -8 -9 -10 10 -12
leaf_value=-0.0046210729800372653 0.072648475639609494 0.028066515194371769 0.032032830948141626 -0.046453627297548206 -0.0022464605380619761 -0.028987480671455131 0.012025775869529104 -0.023667067945730761 0.0023980798144292385 -0.036539946068979694 0.051555087078772426
leaf_count=1346 183 506 861 926 5654 342 1661 2296 2167 38 20
internal_value=0 0.162837 0.132448 -0.268692 0.00683926 -0.20036 0.381248 -0.326164 -0.0207354 -0.865709 -0
internal_count=16000 8865 8682 7135 6160 6151 2522 3642 2509 984 58
shrinkage=0.05


Tree=22
num_leaves=12
num_cat=0
split_feature=63 40 63 6 58 44 7 64 64 2 46
split_gain=113.158 63.6731 43.8902 40.7729 35.6491 20.7961 19.2414 17.0517 16.2072 9.44724 8.55228
threshold=793.50000000000011 1.1940636335196089 1574.5000000000002 13.386223121368408 0.14299805447470817 0.47884026167238763 -0.17311012499999998 1013612281937.5001 34359738415.500008 11.518390250000001 0.202299227375032
decision_type=2 2 2 2 2 2 2 2 2 2 2
left_child=3 2 4 5 -2 9 10 -4 -7 -1 -3
right_child=1 6 7 -5 -6 8 -8 -9 -10 -11 -12
leaf_value=0.0071461639479661028 0.0065237757988080049 0.017401277043991192 0.012327321213962121 -0.042521306894501953 -0.011637326369131663 0.043098921975137844 0.0063235012181758685 0.03610947973823158 -0.0079238316173673214 -0.036343844936556617 0.070974891391334172
leaf_count=81 5026 58 864 984 2005 99 108 550 5340 631 254
internal_value=0 0.154627 0.110019 -0.257798 0.0285832 -0.191682 0.977201 0.435056 -0.138787 -0.615323 1.24775
internal_count=16000 8865 8445 7135 7031 6151 420 1414 5439 712 312
shrinkage=0.05


Tree=23
num_leaves=12
num_cat=0
split_feature=63 45 6 64 64 2 57 63 3 4 3
split_gain=103.582 52.4756 40.1532 33.2291 58.8047 29.8278 27.9011 23.1405 21.6669 15.6547 10.6111
threshold=929.50000000000011 0.22818989054774028 9.2496652603149432 1030792151154.5001 1065151889432.0001 27.680455152587893 0.24279864421355318 2167.5000000000005 3.3554622250214607 7.0106893490533304 15.233563211062693
decision_type=2 2 2 2 2 2 2 2 2 2 2
left_child=2 3 5 7 -5 8 -3 -2 -1 -4 -8
right_child=1 6 9 4 -6 -7 10 -9 -10 -11 -12
leaf_value=0.012569038000900732 -0.00085336673090004767 0.005017364889058012 -0.044456107605614734 0.11277376920212862 0.013756458870244501 0.075779573292107535 0.064480863424074289 0.047760075993629747 -0.0088344401118135504 -0.018318109738525348 -0.0027016798660479493
leaf_count=769 4046 171 755 73 2238 66 334 109 5914 1502 23
internal_value=0 0.188062 -0.194974 0.131101 0.342665 -0.105729 0.843336 0.0107811 -0.123269 -0.523249 1.19079
internal_count=16000 6994 9006 6466 2311 6749 528 4155 6683 2257 357
shrinkage=0.05


Tree=24
num_leaves=12
num_cat=0
split_feature=63 3 63 6 42 63 52 63 4 46 2
split_gain=95.3826 58.0152 41.679 37.4398 32.0593 20.683 28.0393 17.8717 5.83626 10.5813 4.35613
threshold=793.50000000000011 2.5967486090215246 1407.5000000000002 13.386223121368408 263.50000000000006 284.50000000000006 95.500000000000014 2039.5000000000002 10.31369230165639 0.11561323322435187 12.602674000000002
decision_type=2 2 2 2 2 2 2 2 2 2 2
left_child=3 -2 4 5 -3 10 -7 -4 -5 -10 -1
right_child=1 2 7 8 -6 6 -8 -9 9 -11 -12
leaf_value=-0.010634858519273096 0.062037597541339751 0.012583038661775245 0.013319113434763167 -0.0453083898677425 -0.0055689953428645763 0.024502495166784318 -0.0088324754818587762 0.042420912634304288 -0.042068713021821531 0.062954314433272859 -0.035665333849397927
leaf_count=225 222 1876 2246 901 4257 411 4872 264 58 25 643
internal_value=0 0.141307 0.110716 -0.239099 0 -0.176594 -0.121553 0.33004 -0.824036 -0.00251833 -0.58497
internal_count=16000 8865 8643 7135 6133 6151 5283 2510 984 83 868
shrinkage=0.05


Tree=25
num_leaves=12
num_cat=0
split_feature=63 3 61 40 63 28 48 63 49 63 10
split_gain=87.7529 43.2863 34.3178 31.7033 26.8189 25.2603 24.3927 24.3487 20.4472 9.87624 7.66418
threshold=1153.5000000000002 5.0368941652792376 0.053674529422821173 1.8048396984376829 524.50000000000011 7.0705047088625017 0.1386485217107235 1828.5000000000002 0.0010114103573175383 583.50000000000011 707.50000000000011
decision_type=2 2 2 2 2 2 2 2 2 2 2
left_child=1 5 -3 7 -4 6 -1 8 -2 -7 -9
right_child=3 2 4 -5 -6 9 -8 10 -10 -11 -12
leaf_value=0.011517446559911769 0.017794252003407441 -0.046619766946817111 -0.024057617270470216 0.062809077085699314 -0.0057296428029820464 -0.012777214891883881 0.063462562225750974 0.024351021865610781 0.0013065698930776097 0.0048960150004530648 0.061576500703990622
leaf_count=1139 1303 538 2038 147 5619 1046 129 483 2681 791 86
internal_value=0 -0.134522 -0.237124 0.232747 -0.196213 0.100972 0.354669 0.201062 0.137168 -0.0817266 0.596226
internal_count=16000 11300 8195 4700 7657 3105 1268 4553 3984 1837 569
shrinkage=0.05


Tree=26
num_leaves=12
num_cat=0
split_feature=63 2 64 6 11 15 61 3 63 4 46
split_gain=80.2378 52.3086 37.0403 34.9675 25.8674 20.1706 19.1709 15.9647 13.7022 5.69263 9.53983
threshold=793.50000000000011 11.860176129638676 944892805169.50012 13.386223121368408 77.500000000000014 0.69283651921701417 0.11533454775454481 4.9426341708299697 284.50000000000006 10.31369230165639 0.11561323322435187
decision_type=2 2 2 2 2 2 2 2 2 2 2
left_child=3 -2 5 6 -4 -3 7 -1 -8 -5 -11
right_child=1 2 4 9 -6 -7 8 -9 -10 10 -12
leaf_value=-0.003370607493692745 0.065923732863766848 -0.01696602931307304 0.010951541991022516 -0.044303263474828859 0.046818933515467585 0.0020917081040297703 -0.026333243263874064 -0.021126692610708035 0.0035768846489922014 -0.041021711461718041 0.058544128175564127
leaf_count=1346 183 854 3388 901 238 4202 342 2296 2167 58 25
internal_value=0 0.129083 0.103471 -0.221488 0.275256 -0.0204529 -0.161703 -0.282906 0.00389609 -0.801598 -0
internal_count=16000 8865 8682 7135 3626 5056 6151 3642 2509 984 83
shrinkage=0.05


Tree=27
num_leaves=12
num_cat=0
split_feature=63 46 63 6 6 50 3 17 9 46 40
split_gain=75.3894 41.3772 31.3758 27.2497 26.3768 20.7788 19.9085 14.9043 12.2949 12.0849 15.83
threshold=1289.5000000000002 0.16181494412101868 373.50000000000006 14.439106000000001 3.5251505374908452 162.50000000000003 3.9604940987514889 0.12446431300626624 89.500000000000014 0.099643559832218884 0.62663648461789723
decision_type=2 2 2 2 2 2 2 2 2 2 2
left_child=1 2 -1 -4 9 7 -3 -6 -8 10 -2
right_child=4 6 3 -5 5 -7 8 -9 -10 -11 -12
leaf_value=-0.027581052568156052 0.03131469112051502 0.041585106582964056 -0.0031118846519768268 -0.023621121506549433 0.012222938040929903 0.051042961313553736 -0 -0.0047931480135316659 0.02951941115937376 0.053408983281614121 -0.039236245182506679
leaf_count=1526 177 265 8323 1310 2040 132 930 776 224 257 40
internal_value=0 -0.101957 -0.156195 -0.110481 0.26569 0.189757 0.275938 0.149968 0.126755 0.73292 0.350967
internal_count=16000 12578 11159 9633 3422 2948 1419 2816 1154 474 217
shrinkage=0.05


Tree=28
num_leaves=12
num_cat=0
split_feature=63 4 6 64 2 58 15 46 4 4 3
split_gain=68.9192 41.33 33.654 31.8256 23.6541 20.3595 19.2248 17.8946 10.7839 9.36098 6.94031
threshold=893.50000000000011 3.6649685417582796 9.2496652603149432 944892805169.50012 27.680455152587893 0.14299805447470817 0.61706698147555639 0.080041181017414156 7.0106893490533304 7.1117787727721113 9.3158071932608291
decision_type=2 2 2 2 2 2 2 2 2 2 2
left_child=2 -2 4 6 7 -5 -3 -1 -4 -10 -6
right_child=1 3 8 5 10 -7 -8 -9 9 -11 -12
leaf_value=-0.016922317842871782 0.056183298639066237 -0.045122082799866625 -0.041744651919631642 0.019885360730182267 0.016440031637751172 -0 0.00069870279659561591 -0.001445601885606691 0.054425524462705148 -0.019903407554643298 0.11557472499082318
leaf_count=1618 216 123 732 2175 29 870 4154 4710 32 1312 29
internal_value=0 0.142094 -0.173897 0.113702 -0.0918494 0.285495 -0.00988556 -0.108012 -0.505531 -0.358094 1.43475
internal_count=16000 7538 8462 7322 6386 3045 4277 6328 2076 1344 58
shrinkage=0.05


Tree=29
num_leaves=12
num_cat=0
split_feature=63 44 25 2 6 28 2 63 3 63 24
split_gain=65.3557 41.7328 37.7224 28.0055 19.5462 17.0011 16.7949 16.0577 14.9994 13.8344 10.395
threshold=1407.5000000000002 0.48649577687830364 1.4989626595557106 28.330466500000004 9.1715335000000024 5.4159007835361264 30.895486000000005 2039.5000000000002 4.6566553347470645 553.50000000000011 10.010559808284329
decision_type=2 2 2 2 2 2 2 2 2 2 2
left_child=1 8 3 -3 10 -4 7 -6 9 -1 -2
right_child=4 2 5 -5 6 -7 -8 -9 -10 -11 -12
leaf_value=-0.02465786208965131 0.020019113796853422 -0.0042435049254382178 0.056687721587276245 0.021755661766692705 -0.00040434862266376556 -0.043024699198024846 0.052814999443220802 0.040713928496760581 -0.032468867544640602 0.026745794767211468 0.048346351516628597
leaf_count=203 1007 11022 191 617 1188 20 79 114 1244 120 195
internal_value=0 -0.0803113 -0.0342147 -0.054954 0.294334 0.907288 0.120326 0.0597545 -0.498948 -0.0148234 0.490284
internal_count=16000 13417 11850 11639 2583 211 1381 1302 1567 323 1202
shrinkage=0.05


Tree=30
num_leaves=12
num_cat=0
split_feature=63 2 63 2 6 63 18 39 64 44 50
split_gain=60.1783 51.1904 32.6935 35.8066 32.2111 14.5197 14.04 10.6371 7.55667 4.98142 3.42434
threshold=659.50000000000011 11.860176129638676 1439.5000000000002 28.729017271118167 9.5074075000000029 2198.5000000000005 0.025861073111415112 0.040674288162283828 910533066817.00012 5.0617326623018597 24.500000000000004
decision_type=2 2 2 2 2 2 2 2 2 2 2
left_child=4 10 3 -3 6 -4 8 -8 -1 -6 -2
right_child=1 2 5 -5 9 -7 7 -9 -10 -11 -12
leaf_value=-0.023054864158626353 0.008818696019126309 -0.0026032364227726694 0.011625450681142083 0.028931543488777772 -0.038085743038463148 0.045245450265770509 0.023214463132937398 -0.003962666331718709 -0.0059253433286373218 0.013027693914260544 0.066839709789161081
leaf_count=1135 22 7629 2079 503 1187 169 256 1934 870 27 189
internal_value=0 0.0883913 0.0654948 -0.0101229 -0.244265 0.28065 -0.151266 -0.0110579 -0.315559 -0.723588 1.2162
internal_count=16000 10591 10380 8132 5409 2248 4195 2190 2005 1214 211
shrinkage=0.05


Tree=31
num_leaves=12
num_cat=0
split_feature=63 2 63 0 61 36 20 63 17 38 61
split_gain=55.7985 51.5122 33.3361 32.6039 19.3978 14.9713 12.4439 12.8031 6.8701 5.51021 4.73679
threshold=565.50000000000011 11.860176129638676 1407.5000000000002 276.50000000000006 0.087867910467747321 0.42949702537787438 2439.2795920450003 284.50000000000006 0.13028742487498282 0.096866819371727766 0.076231601281672737
decision_type=2 2 2 2 2 2 2 2 2 2 2
left_child=4 -2 3 -3 9 -4 7 -6 -8 10 -1
right_child=1 2 5 -5 6 -7 8 -9 -10 -11 -12
leaf_value=-0.027441608463974546 0.056324598989451163 0.011969767551958775 0.023676748388476679 -0.0051649620987542621 -0.020359470274871935 0.0065377299545286678 -0.027626436895529086 0.0042824492561570216 0 -0.037375349553678848 0.008180403377902502
leaf_count=177 243 2038 861 7173 607 1661 786 1208 236 906 104
internal_value=0 0.0680319 0.0458455 -0.0274352 -0.294409 0.251355 -0.177292 -0.0474035 -0.433204 -0.623757 -0.234563
internal_count=16000 11976 11733 9211 4024 2522 2837 1815 1022 1187 281
shrinkage=0.05


Tree=32
num_leaves=12
num_cat=0
split_feature=63 3 6 2 63 48 63 52 18 2 4
split_gain=51.6787 40.8823 30.5797 29.4926 31.6497 21.5069 16.5942 26.0467 13.9606 10.2439 5.211
threshold=793.50000000000011 4.8427173331719429 15.6582135 28.729017271118167 1468.5000000000002 0.13229634606772525 284.50000000000006 95.500000000000014 0.067659924719547959 12.104301500000002 10.901454028372124
decision_type=2 2 2 2 2 2 2 2 2 2 2
left_child=2 5 6 4 -3 9 -1 -8 -5 -2 -4
right_child=1 3 10 8 -6 -7 7 -9 -10 -11 -12
leaf_value=-0.025849480545480037 0.062367395167183294 -0.0049439863119136382 -0.048006223597543488 0.028537525036439845 0.011622515894006582 0.058218811295113165 0.025111030128987508 -0.0070859485727294905 -0.027656721297937309 0.013823756328502496 0
leaf_count=907 55 5323 673 615 1750 230 414 5104 56 836 37
internal_value=0 0.102666 -0.18184 0.0430585 -0.000715195 0.497647 -0.136437 -0.088447 0.476014 0.346298 -0.876513
internal_count=16000 8865 7135 7744 7073 1121 6425 5518 671 891 710
shrinkage=0.05


Tree=33
num_leaves=12
num_cat=0
split_feature=61 63 57 2 6 28 6 18 5 61 17
split_gain=47.7771 42.5242 35.2009 29.2151 32.5111 24.7361 17.865 16.1707 12.9243 9.48637 9.18568
threshold=0.30577546110439696 565.50000000000011 0.29607566254215661 28.729017271118167 16.493149500000005 8.0152613392416701 12.126526000000002 0.067659924719547959 -0.017669895307625468 0.087867910467747321 0.11555177947701313
decision_type=2 2 2 2 2 2 2 2 2 2 2
left_child=1 6 10 4 -3 8 9 -5 -4 -1 -2
right_child=2 3 5 7 -6 -7 -8 -9 -10 -11 -12
leaf_value=-0.025371108342801853 0.0158616232120611 0.0013900788258230901 -0.021823355713033173 0.027879873765563525 -0.023042076025781139 -0.046216635289607962 -0.044368538315142307 -0.028228772522393565 0.05820336306932699 -0.0075743818286213328 -0.011652530215115125
leaf_count=807 390 9437 25 659 868 34 645 76 435 2376 248
internal_value=0 -0.0389886 0.45067 0.0233001 -0.00946832 0.924176 -0.306186 0.450544 1.06936 -0.238437 0.0968232
internal_count=16000 14868 1132 11040 10305 494 3828 735 460 3183 638
shrinkage=0.05


Tree=34
num_leaves=12
num_cat=0
split_feature=63 20 6 63 6 63 20 45 26 63 20
split_gain=44.2197 34.8038 26.5568 26.0465 20.45 16.1172 23.6502 15.9253 12.8918 12.0986 8.56271
threshold=929.50000000000011 4432.1570486950013 12.489159750000002 1676.5000000000002 17.030187250000004 373.50000000000006 2260.3649982404713 0.211037249541672 -0.00068600018146689065 2198.5000000000005 1324.9333485207192
decision_type=2 2 2 2 2 2 2 2 2 2 2
left_child=2 7 5 4 -3 10 -7 8 -2 -5 -1
right_child=1 3 -4 9 -6 6 -8 -9 -10 -11 -12
leaf_value=-0.0070090699907067837 -0.014869512082824419 0.0025713671005171425 -0.026785509351490457 0.013641668901511425 -0.019328718248897991 0.010998973346372584 -0.0063011345932447093 0.05965977798498865 0.027896684254966622 0.047801169883494483 -0.030483770795069962
leaf_count=714 97 4663 1426 834 621 1553 4630 210 414 155 683
internal_value=0 0.12121 -0.132638 0.0684415 0.000458392 -0.0815403 -0.0323184 0.591346 0.386483 0.370274 -0.367525
internal_count=16000 6994 9006 6273 5284 7580 6183 721 511 989 1397
shrinkage=0.05


Tree=35
num_leaves=12
num_cat=0
split_feature=63 2 2 3 61 6 19 62 47 25 24
split_gain=41.6305 40.5681 27.3199 33.9237 18.1176 11.7778 10.5943 8.15951 6.55787 5.67505 5.65299
threshold=539.50000000000011 11.860176129638676 31.356521500000003 16.649237807569275 0.087867910467747321 6.3247859500000017 3.0453497848939972 160.24280024717663 -0.0001170914263163287 0.34967784931989376 10.159178891786867
decision_type=2 2 2 2 2 2 2 2 2 2 2
left_child=4 9 3 -3 10 6 -6 -7 -4 -2 -1
right_child=1 2 8 -5 5 7 -8 -9 -10 -11 -12
leaf_value=-0.032652676622004655 0.00098465328651018607 0.0022810463927667181 -0.0020303696627326528 -0.031364696517937378 0.027225224640826245 -0.025592145229345178 -0.0056037995366984231 0.059440973588882617 0.053203872839024426 0.057744256497633484 0.029421431230113423
leaf_count=1087 32 11317 22 482 185 875 1577 20 150 222 31
internal_value=0 0.0554263 0.0360105 0.0213487 -0.271472 -0.154104 -0.0386621 -0.455759 0.900876 0.998594 -0.613873
internal_count=16000 12225 11971 11799 3775 2657 1762 895 172 254 1118
shrinkage=0.05


Tree=36
num_leaves=12
num_cat=0
split_feature=40 63 44 64 36 63 3 28 64 27 45
split_gain=39.8801 35.4073 30.3651 24.1925 13.0337 14.2606 12.9342 9.97351 8.2538 3.87468 1.05367
threshold=1.8048396984376829 1407.5000000000002 0.48649577687830364 1194000908341.5002 0.42949702537787438 2198.5000000000005 4.6566553347470645 4.8401585943572796 910533066817.00012 9.7119221792481074 0.83987060560429361
decision_type=2 2 2 2 2 2 2 2 2 2 2
left_child=1 2 6 -4 8 -6 -1 9 -3 -2 -11
right_child=7 4 3 -5 5 -7 -8 -9 -10 10 -12
leaf_value=-0 0 0.010712053129939995 -0.005293797285650278 0.0073039186001300329 0.0021290090779890079 0.046875483410545253 -0.029648762191567396 -0.011366888854839287 0.032131612061737973 0.065461987199846902 0.013629539372386571
leaf_count=323 20 474 8534 3147 1554 93 1244 24 381 183 23
internal_value=0 -0.0158864 -0.0760997 -0.0366535 0.20308 0.0902354 -0.445444 0.951327 0.410755 1.12853 1.22931
internal_count=16000 15750 13248 11681 2502 1647 1567 250 855 226 206
shrinkage=0.05


Tree=37
num_leaves=12
num_cat=0
split_feature=61 63 57 2 3 28 6 18 5 17 19
split_gain=38.1148 33.0166 29.8102 26.1673 26.5166 21.7496 16.3574 13.7276 11.6834 8.20125 8.05612
threshold=0.30577546110439696 565.50000000000011 0.29607566254215661 28.729017271118167 16.649237807569275 8.0152613392416701 12.126526000000002 0.067659924719547959 -0.017669895307625468 0.11555177947701313 3.0453497848939972
decision_type=2 2 2 2 2 2 2 2 2 2 2
left_child=1 6 9 4 -3 8 10 -5 -4 -2 -1
right_child=2 3 5 7 -6 -7 -8 -9 -10 -11 -12
leaf_value=0.011871370739619516 0.014517271921685183 0.0003339723184622991 -0.022129533477811741 0.026009480379521728 -0.037490732491424206 -0.044758489976530091 -0.042914145585363148 -0.026225306514473207 0.054306152517649024 -0.011532728135623933 -0.012649269203666574
leaf_count=250 390 9991 25 659 314 34 645 76 435 248 2933
internal_value=0 -0.0348294 0.405745 0.0194263 -0.0116758 0.852706 -0.274482 0.423144 0.992833 0.0826525 -0.210706
internal_count=16000 14868 1132 11040 10305 494 3828 735 460 638 3183
shrinkage=0.05


Tree=38
num_leaves=12
num_cat=0
split_feature=25 63 6 7 2 2 29 20 15 37 60
split_gain=34.9907 30.4888 29.6068 21.547 21.3093 16.35 15.1223 16.3327 7.49444 5.98053 5.26213
threshold=1.31397798767748 1243.5000000000002 14.439106000000001 -0.23496556499999996 27.089613838195806 30.569117500000001 157.50000000000003 11876.505000000001 0.69283651921701417 0.25833656581329206 0.042861018525695689
decision_type=2 2 2 2 2 2 2 2 2 2 2
left_child=1 2 4 9 -1 -4 7 -3 -8 -2 -5
right_child=3 6 5 10 -6 -7 8 -9 -10 -11 -12
leaf_value=-0.0037910981297119319 0.057679824935597583 0.013558651104509975 -0.028833630711895465 -0.036099514111574908 0.022773811347808533 0.025188847346195361 -0.0014314504835295251 -0.00084978914110163297 0.048404002691337031 0.00079151118715698138 0.012107134858181027
leaf_count=9915 276 1522 1424 53 452 91 36 1969 152 38 72
internal_value=0 -0.0195464 -0.0920484 0.674418 -0.0498127 -0.482953 0.139193 0.107679 0.752331 1.01938 -0.126586
internal_count=16000 15561 11882 439 10367 1515 3679 3491 188 314 125
shrinkage=0.05


Tree=39
num_leaves=12
num_cat=0
split_feature=61 2 36 6 18 6 63 24 64 39 4
split_gain=33.5812 29.5808 27.4971 25.9311 23.4165 17.4763 15.7761 12.3866 10.4969 11.6615 10.2368
threshold=0.21242556780471358 28.091274500000001 0.4890552850125362 3.6939326500000003 0.0044550518232042641 18.450419000000004 1676.5000000000002 9.9013846109063994 1194000908466.0002 0.052886571321274341 11.519984161273726
decision_type=2 2 2 2 2 2 2 2 2 2 2
left_child=1 2 4 -2 -1 7 -4 -3 -5 -10 -7
right_child=3 5 6 8 -6 10 -8 -9 9 -11 -12
leaf_value=-0.0077682242034106761 0.033236209050634229 0.013387904384913508 -0.017403634778635959 -0.004400852015827187 0.0040480837960887662 -0.015490753792521482 0.011713082106488602 0.044978213272677842 -0 0.045887339295694829 0.043612671154067556
leaf_count=4202 684 434 2965 673 5933 308 213 270 144 135 39
internal_value=0 -0.0399361 -0.0735446 0.312255 -0.0143546 0.327302 -0.285376 0.516874 0.0641204 0.433266 -0.122669
internal_count=16000 14364 13313 1636 10135 1051 3178 704 952 279 347
shrinkage=0.05


Tree=40
num_leaves=12
num_cat=0
split_feature=63 2 64 20 64 63 52 58 4 64 2
split_gain=32.6713 30.987 25.7153 24.8723 21.6027 18.0248 23.1908 14.9106 5.94877 8.63442 4.9831
threshold=659.50000000000011 11.860176129638676 936302870558.00012 4553.5200000000013 1408749273182.5002 284.50000000000006 95.500000000000014 0.19130982023148277 10.193645211586437 1125281431619.0002 12.602674000000002
decision_type=2 2 2 2 2 2 2 2 2 2 2
left_child=3 -2 7 5 -4 10 -7 -3 -5 -10 -1
right_child=1 2 4 8 -6 6 -8 -9 9 -11 -12
leaf_value=-0.0042589915037209046 0.051130550833675695 -0.00017384446503011455 0.01528273441495169 -0.038731355280878538 -0.001051744956761331 0.026890330928359497 -0.0057131823689706733 -0.016987920087563797 -0.024232528495208794 0.083269197876457202 -0.03144576651162645
leaf_count=225 211 5158 2695 847 1672 390 3063 855 63 20 801
internal_value=0 0.0643646 0.0477555 -0.185885 0.180206 -0.112615 -0.0336004 -0.0497348 -0.68366 0 -0.494098
internal_count=16000 10591 10380 5409 4367 4479 3453 6013 930 83 1026
shrinkage=0.05


Tree=41
num_leaves=12
num_cat=0
split_feature=63 61 6 24 28 48 36 2 28 3 23
split_gain=30.2445 26.0585 20.5333 16.1485 14.9222 14.6855 14.258 14.135 11.3504 6.97879 4.22495
threshold=1153.5000000000002 0.053674529422821173 3.1203451500000003 10.239812676660213 7.0705047088625017 0.014833516584080388 0.52785123640068365 31.356521500000003 7.380833369164093 4.7727827686124735 11.793955684170166
decision_type=2 2 2 2 2 2 2 2 2 2 2
left_child=1 9 4 5 -3 -2 -4 -7 -5 10 -1
right_child=3 2 6 8 -6 7 -8 -9 -10 -11 -12
leaf_value=-0.019566556091169775 0.06735304441230959 0.016212408029578681 -0.0044324362147785843 0.056091649566712587 -0.0018308554104318224 0.0038953616689502216 -0.022784412491811058 0.041509014597845319 -0.020199287423587304 -0.04202524716449875 0.047241829443119526
leaf_count=48 42 1156 7028 158 1519 4365 983 113 22 546 20
internal_value=0 -0.0822727 -0.0566778 0.135764 0.122345 0.112221 -0.126974 0.0989706 0.850341 -0.699724 0
internal_count=16000 11300 10686 4700 2675 4520 8011 4478 180 614 68
shrinkage=0.05


Tree=42
num_leaves=12
num_cat=0
split_feature=64 64 3 63 35 0 64 64 64 20 62
split_gain=29.249 111.998 23.8773 24.814 22.3993 20.442 19.9312 19.221 14.9826 10.3318 10.3173
threshold=1194000908341.5002 1305670058079.0002 2.5967486090215246 524.50000000000011 15.500000000000002 221.50000000000003 1606317768812.5002 1228360646840.0002 1279900254220.5002 3042.5050000000006 27.875587580755624
decision_type=2 2 2 2 2 2 2 2 2 2 2
left_child=2 7 10 9 6 -5 -3 -2 -9 -4 -1
right_child=1 4 3 5 -6 -7 -8 8 -10 -11 -12
leaf_value=0 0.028319503723182027 -0.0072806178443850199 -0.012569240510388347 0.015998914319687689 0.040367425172959874 -0.0036073534228818977 0.015206417363020816 0.093527807095630786 0.042420079576548211 -0.036625990421582398 0.042605117820911496
leaf_count=146 315 2788 1786 832 142 7970 721 189 189 683 239
internal_value=0 0.167567 -0.0647277 -0.0851183 -0.00399879 -0.0360912 -0.0497291 1.0311 1.39681 -0.355808 0.543667
internal_count=16000 4344 11656 11271 3651 8802 3509 693 378 2469 385
shrinkage=0.05


Tree=43
num_leaves=12
num_cat=0
split_feature=25 36 2 63 7 18 63 9 37 60 1
split_gain=27.9746 25.0649 22.692 20.1037 18.7298 15.9296 8.24211 6.02873 5.22391 4.87418 6.21796
threshold=1.31397798767748 0.54042402375183751 28.091274500000001 1451.5000000000002 -0.23496556499999996 0.067659924719547959 1784.5000000000002 122.50000000000001 0.25833656581329206 0.042861018525695689 9.5000000000000018
decision_type=2 2 2 2 2 2 2 2 2 2 2
left_child=1 2 3 -1 8 -4 7 -3 -2 -6 -11
right_child=4 6 5 -5 9 -7 -8 -9 -10 10 -12
leaf_value=-0.0031451274765898641 0.054364802806958282 -0.024477071488017574 0.020721491112022424 0.0091657562267520414 -0.035572420558244791 -0.039475723079617719 0.023636448446025117 0.0053827266967394439 0.0002519665354331993 -0.012873637891203951 0.056034353688220309
leaf_count=11547 276 1210 890 1730 53 70 42 72 38 43 29
internal_value=0 -0.0172106 0.00897056 -0.0186268 0.61759 0.339339 -0.375111 -0.428598 0.954325 -0.127609 0.222888
internal_count=16000 15561 14237 13277 439 960 1324 1282 314 125 72
shrinkage=0.05


Tree=44
num_leaves=12
num_cat=0
split_feature=61 2 3 6 18 6 24 46 17 2 63
split_gain=26.5765 23.9319 25.1978 20.5064 20.3131 14.3583 10.8364 9.76039 10.8942 9.51676 9.43989
threshold=0.21242556780471358 28.091274500000001 16.649237807569275 3.6939326500000003 0.0044550518232042641 18.219242000000005 9.9013846109063994 1.009343604835055 0.11591917692319974 31.356521500000003 565.50000000000011
decision_type=2 2 2 2 2 2 2 2 2 2 2
left_child=1 2 4 10 -1 6 -3 8 -5 -7 -2
right_child=3 5 -4 7 -6 9 -8 -9 -10 -11 -12
leaf_value=-0.0080674470302808891 0.00094735094418154546 0.011638938455721202 -0.039057693417340777 0.0074293561360174705 0.0017190579877407065 -0.016573643096800286 0.041243511149105704 0.042839788412012615 -0.021167101724877409 0.031540231064231594 0.03705722616872411
leaf_count=5658 144 428 482 631 7173 289 265 77 244 69 540
internal_value=0 -0.0356329 -0.0662022 0.279039 -0.0496433 0.29365 0.467303 0.0583682 -0.00352996 -0.107025 0.596425
internal_count=16000 14364 13313 1636 12831 1051 693 952 875 358 684
shrinkage=0.05


Tree=45
num_leaves=12
num_cat=0
split_feature=64 64 64 36 4 35 64 64 64 50 38
split_gain=26.2776 98.7253 21.584 20.5527 19.8878 19.6863 17.8246 16.2636 12.3693 7.2106 6.86486
threshold=1194000908341.5002 1305670058079.0002 1168231104564.5002 0.54042402375183751 3.7925854528910206 15.500000000000002 1606317768812.5002 1228360646840.0002 1279900254220.5002 93.500000000000014 0.10667046967104014
decision_type=2 2 2 2 2 2 2 2 2 2 2
left_child=2 7 3 4 -1 6 -3 9 -9 -2 -7
right_child=1 5 -4 -5 -6 10 -8 8 -10 -11 -12
leaf_value=0.020767053811389997 0.037300600608942767 -0.0069122434029031858 -0.038349355722953317 -0.021030798816953095 -0.0021203447235708466 0.064466783585211671 0.01433222600125187 0.085984897107226677 0.03961630883193297 -0 0.013044655197677203
leaf_count=651 244 2788 252 1009 9744 65 721 189 189 71 77
internal_value=0 0.158932 -0.0614817 -0.0452059 -0.0159057 -0.00377402 -0.0468325 0.961833 1.29412 0.532019 0.758514
internal_count=16000 4344 11656 11404 10395 3651 3509 693 378 315 142
shrinkage=0.05


Tree=46
num_leaves=12
num_cat=0
split_feature=63 3 6 50 64 24 44 64 43 3 44
split_gain=26.1347 23.9645 21.6868 19.1629 17.3594 13.1143 12.7396 14.7755 9.69762 7.65048 4.87901
threshold=793.50000000000011 4.8427173331719429 15.6582135 162.50000000000003 936302870558.00012 10.065939675084438 0.47884026167238763 34359738415.500008 4.5000000000000009 2.7137060920623055 9.2415916307141952
decision_type=2 2 2 2 2 2 2 2 2 2 2
left_child=2 5 6 4 -3 9 8 -8 -1 -2 -7
right_child=1 3 -4 -5 -6 10 7 -9 -10 -11 -12
leaf_value=-0.0039463511362044729 0.039989796813181433 -0.0040401407124737356 -0.039724014173531469 0.042943298001441838 0.0068528521755366239 0.058971533417255632 0.045896827960372949 -0.0037963127570440265 -0.038003485059889854 0.0095300811574281219 0
leaf_count=353 127 4426 710 138 3180 180 102 5538 432 782 32
internal_value=0 0.0726742 -0.133038 0.0273357 0.0114864 0.381677 -0.0973727 -0.0563471 -0.452308 0.27776 1.01365
internal_count=16000 8865 7135 7744 7606 1121 6425 5640 785 909 212
shrinkage=0.05


Tree=47
num_leaves=12
num_cat=0
split_feature=63 6 64 64 64 23 15 20 26 63 58
split_gain=24.2748 25.9916 21.2414 26.8001 21.4226 16.9892 12.0243 10.1692 11.819 9.51241 6.54399
threshold=373.50000000000006 1.8200000262260441 936302870558.00012 1408749273182.5002 798863917144.50012 13.39588013482714 0.73138614840639915 1324.9333485207192 -0.0012990890343788015 239.50000000000003 0.16560768388220132
decision_type=2 2 2 2 2 2 2 2 2 2 2
left_child=7 5 4 -4 -3 6 -2 8 9 -1 -7
right_child=1 2 3 -5 -6 10 -8 -9 -10 -11 -12
leaf_value=-0.00097572544220607144 0.037041789147183188 -0.0020217331089963319 0.011700903172348962 -0.0053823108875900669 -0.020682956927316472 0.03249345786239706 -0.0024841526574963225 -0.029837050956271784 -0.017349633127982218 0.05753244983120346 -0.023048907982399253
leaf_count=128 118 6446 3326 2082 1044 650 598 995 505 83 25
internal_value=0 0.0247999 -0.00903404 0.102714 -0.0931938 0.326372 0.0754169 -0.359174 -0.0994216 0.45831 0.600546
internal_count=16000 14289 12898 5408 7490 1391 716 1711 716 211 675
shrinkage=0.05


Tree=48
num_leaves=12
num_cat=0
split_feature=63 37 44 64 63 55 49 48 20 63 4
split_gain=23.3876 21.9244 18.582 17.1835 16.972 17.2798 13.7139 12.476 11.84 13.5231 10.7057
threshold=929.50000000000011 0.20995458209630172 0.47257261398309219 1194000908466.0002 2167.5000000000005 61.500000000000007 0.001130969829287836 0.10589629109831307 3414.6367530895491 565.50000000000011 7.5403314250454168
decision_type=2 2 2 2 2 2 2 2 2 2 2
left_child=2 3 -1 7 5 -3 -5 -2 9 -4 -10
right_child=1 4 8 6 -6 -7 -8 -9 10 -11 -12
leaf_value=-0.023849083913631164 0.0026668986397239457 0.033735079779018032 -0.0047195541490986847 0.045303500814870695 0.040645454949843819 -0.0028696866000526349 0.013008491013475031 0.028686145537838461 -0.014632736800748267 0.01013621675727458 -0.00019035299125396362
leaf_count=1118 1493 180 2603 301 128 4183 399 310 2091 1497 1697
internal_value=0 0.0880978 -0.0986427 0.253676 -0.004424 -0.0284557 0.54788 0.134802 -0.0590056 0.0339152 -0.167918
internal_count=16000 6994 9006 2503 4491 4363 700 1803 7888 4100 3788
shrinkage=0.05


Tree=49
num_leaves=12
num_cat=0
split_feature=44 58 25 61 2 36 64 63 44 63 2
split_gain=22.2675 19.4275 16.9732 16.3666 19.4544 15.0401 14.0483 11.3847 10.9627 10.8292 8.39065
threshold=0.81753240125280635 0.1406072845804989 1.31397798767748 0.046954331460041833 27.304792000000003 0.43190185041407875 34359738415.500008 1737.5000000000002 0.86013591452127736 1468.5000000000002 21.903312731201176
decision_type=2 2 2 2 2 2 2 2 2 2 2
left_child=3 2 8 -1 9 -6 -3 -8 -2 -5 -4
right_child=1 6 10 4 5 -7 7 -9 -10 -11 -12
leaf_value=-0.030756994362206354 0.026457623355367294 0.067090227595236501 0.051417510338031637 -0.0070456863040017186 0.051663340459003483 0.0065795808352660749 -0.0095031213603429948 0.021951956452424013 0.0053652550308806073 0.0064861689615043601 -0
leaf_count=502 396 36 239 6943 118 602 1907 134 4358 718 47
internal_value=0 0.0959193 0.173277 -0.0864806 -0.0637352 0.302029 -0.101439 -0.131322 0.141663 -0.1032 0.793154
internal_count=16000 7117 5040 8883 8381 720 2077 2041 4754 7661 286
shrinkage=0.05


Tree=50
num_leaves=12
num_cat=0
split_feature=64 64 64 36 64 64 64 19 64 64 50
split_gain=21.2291 84.0991 20.6691 17.8519 16.8866 39.7595 25.4485 16.6431 13.9374 10.8789 6.64961
threshold=1194000908341.5002 1305670058079.0002 1168231104564.5002 0.54042402375183751 1606317768812.5002 1649267441677.5002 1408749273182.5002 3.0453497848939972 1228360646840.0002 1254130450458.5002 93.500000000000014
decision_type=2 2 2 2 2 2 2 2 2 2 2
left_child=2 8 3 7 6 -6 -3 -1 10 -10 -2
right_child=1 4 -4 -5 5 -7 -8 -9 9 -11 -12
leaf_value=0.028144984429121601 0.034080486343086323 0.0097956137559760455 -0.037606759792236544 -0.019719671424067869 0.061603129151793425 -0.00047989562406371492 -0.013741273243067488 -0.001471046669696049 0.10375178168704242 0.048026451041558942 -0.0016627498110422076
leaf_count=345 244 1071 252 1009 189 564 1827 10050 63 315 71
internal_value=0 0.142853 -0.0555958 -0.0396639 -0.00906496 0.306943 -0.0965927 -0.012464 0.875959 1.17982 0.477942
internal_count=16000 4344 11656 11404 3651 753 2898 10395 693 378 315
shrinkage=0.05


Tree=51
num_leaves=12
num_cat=0
split_feature=63 6 2 3 23 15 20 26 63 39 42
split_gain=20.8427 21.6319 18.5939 23.9142 14.2766 10.6361 9.53458 10.5734 8.20959 6.13047 6.02281
threshold=373.50000000000006 1.8200000262260441 30.895486000000005 16.649237807569275 13.39588013482714 0.73138614840639915 1324.9333485207192 -0.0012990890343788015 239.50000000000003 0.064358813402954143 62.500000000000007
decision_type=2 2 2 2 2 2 2 2 2 2 2
left_child=6 4 3 -3 5 -2 7 8 -1 -6 -8
right_child=1 2 -4 -5 9 -7 10 -9 -10 -11 -12
leaf_value=-0.00046327763538127109 0.034486831440046002 -0.00011321509261670972 0.030355623326085504 -0.029330929583948836 0.031423193169370103 -0.0025054978373545852 0.0054699306178670843 -0.0162551836698363 0.053201982095312156 -0.0021748753684736229 -0.033234530779845221
leaf_count=128 118 12094 231 573 605 598 122 505 83 70 873
internal_value=0 0.0227799 -0.0081102 -0.0219525 0.298256 0.0679299 -0.337117 -0.0851421 0.436725 0.550801 -0.572473
internal_count=16000 14289 12898 12667 1391 716 1711 716 211 675 995
shrinkage=0.05


Tree=52
num_leaves=12
num_cat=0
split_feature=63 61 58 25 64 14 27 32 48 3 60
split_gain=20.657 21.8157 19.3952 21.1761 14.0237 7.04443 7.09891 15.1718 6.63144 6.12974 3.32277
threshold=1737.5000000000002 0.046954331460041833 0.14260245589057816 1.31397798767748 34359738415.500008 21.500000000000004 9.9175689879757787 74.500000000000014 0.11803477379485601 5.0742941405417623 0.046958923852990636
decision_type=2 2 2 2 2 2 2 2 2 2 2
left_child=1 9 3 -3 -4 6 8 -8 -2 10 -1
right_child=5 2 4 -5 -6 -7 7 -9 -10 -11 -12
leaf_value=0.03488439167724694 0.0026310881083662458 0.0014726480351358448 0.041119833231906239 0.039355669946377847 -0.0085010670611228769 0.055229045655566959 0.067381015196284075 -0 0.032257544552876535 -0.041119566864019179 -0.029862693964139084
leaf_count=29 498 9747 88 248 4612 70 75 62 117 432 22
internal_value=0 -0.0241448 -0.0102777 0.0466462 -0.148951 0.324049 0.264897 0.709613 0.160151 -0.674654 0.0409345
internal_count=16000 15178 14695 9995 4700 822 752 137 615 483 51
shrinkage=0.05


Tree=53
num_leaves=12
num_cat=0
split_feature=63 61 64 64 3 21 63 20 49 5 45
split_gain=19.5334 19.6778 14.0962 67.5212 14.3844 12.3129 17.5676 9.43309 12.7013 9.24942 8.22058
threshold=1289.5000000000002 0.053674529422821173 1194000908466.0002 1305670058079.0002 3.3554622250214607 563.50000000000011 2198.5000000000005 11287.837475690001 0.0017856166665505613 0.01049441163668424 0.093733757134174894
decision_type=2 2 2 2 2 2 2 2 2 2 2
left_child=1 -1 4 -4 -3 7 9 8 -2 -7 -9
right_child=5 2 3 -5 -6 6 -8 10 -10 -11 -12
leaf_value=-0.029127787008270831 0.034227870720199498 0.012905240897025903 0.046553390224387876 -0.0025997869685254753 -0.0059859839478272649 0.0017726012539952874 0.040868940883359017 0.020470402187372477 0.0063505932049115442 -0.023253900647626807 -0.0093126332919783606
leaf_count=664 461 629 461 2716 8108 1828 154 170 371 177 261
internal_value=0 -0.054084 -0.0340238 0.106611 -0.0883747 0.135504 0.0377712 0.306182 0.443321 -0.00641923 0.0408196
internal_count=16000 12578 11914 3177 8737 3422 2159 1263 832 2005 431
shrinkage=0.05


Tree=54
num_leaves=12
num_cat=0
split_feature=63 2 2 6 39 63 47 20 27 26 64
split_gain=19.1059 22.7315 18.255 21.844 10.1766 6.95599 6.17235 4.81162 6.13823 9.34925 4.02069
threshold=284.50000000000006 11.518390250000001 31.356521500000003 16.664515514373782 0.028422554933218443 685.50000000000011 -0.0001170914263163287 1848.9120340050004 9.9280982474687978 -0.0016360698035689837 85899345924.500015
decision_type=2 2 2 2 2 2 2 2 2 2 2
left_child=7 4 3 -3 -2 -6 -4 8 10 -10 -1
right_child=1 2 6 -5 5 -7 -8 -9 9 -11 -12
leaf_value=0.021148033670549751 0.11667438417951255 0.00093000091508963888 -0.011029419528706267 -0.016560162436380962 0.0064721956734930634 0.04594638843830999 0.04259693403916285 -0.045815314254430306 0.072474064349199105 -0.013584109153032101 -0.025268195064006571
leaf_count=36 23 13026 24 1365 164 185 156 311 44 74 592
internal_value=0 0.0161361 0.00182925 -0.00828489 0.651454 0.509743 0.691833 -0.437222 -0.30602 0.29108 -0.435282
internal_count=16000 14943 14571 14391 372 349 180 1057 746 118 628
shrinkage=0.05


Tree=55
num_leaves=12
num_cat=0
split_feature=44 58 2 36 25 64 6 64 59 18 17
split_gain=18.3124 15.253 14.3424 13.2029 12.9428 11.4895 11.1731 10.3085 10.2126 8.74561 8.15525
threshold=0.81753240125280635 0.1406072845804989 27.39999980926514 0.43190185041407875 1.31397798767748 34359738415.500008 13.850618190734865 919123001379.50012 0.068074497999430189 0.0042508018249988715 0.15249684251433016
decision_type=2 2 2 2 2 2 2 2 2 2 2
left_child=2 4 6 -4 8 -3 9 -7 -2 -1 -8
right_child=1 5 3 -5 -6 7 10 -9 -10 -11 -12
leaf_value=-0.0096052744059987386 0.0019423463109018665 0.059649278017991671 0.045052484018889338 0.0036056879296237059 0.035800936308612849 -0.013704518672090764 -0.027077007060932037 0.0035415113936788272 0.013139692674946935 -0.00049266752875083079 4.4172084722050803e-05
leaf_count=2778 2836 36 120 639 286 1148 834 893 1918 4261 251
internal_value=0 0.0872266 -0.0787404 0.231057 0.155589 -0.0887921 -0.111959 -0.116852 0.128627 -0.0792724 -0.39212
internal_count=16000 7117 8883 759 5040 2077 8124 2041 4754 7039 1085
shrinkage=0.05


Tree=56
num_leaves=12
num_cat=0
split_feature=63 6 55 63 37 46 5 56 22 47 61
split_gain=18.1062 17.9477 17.6664 17.0423 14.5947 10.8833 14.7622 12.579 8.60422 7.52771 6.81026
threshold=793.50000000000011 15.6582135 61.500000000000007 2198.5000000000005 0.20439649926620615 0.081623542397410084 0.027536460444296921 7.5000000000000009 9.5000000000000018 3.6417927706839321e-05 0.13803691745572766
decision_type=2 2 2 2 2 2 2 2 2 2 2
left_child=1 5 8 4 -4 7 -7 -1 9 -2 -10
right_child=2 -3 3 -5 -6 6 -8 -9 10 -11 -12
leaf_value=-0.015408963020101259 0.031112881805774342 -0.037536955943652958 0.0079951295856293802 0.039608205368753792 -0.0025633619234558531 -0.0027247576810702063 0.027554605111369253 0.056586708933944768 -0.03245527509663599 0.0052882490134246504 0.040576503028284812
leaf_count=1769 511 710 2356 170 5479 4280 337 39 68 261 20
internal_value=0 -0.112007 0.0606008 0.027587 0.0126902 -0.080643 -0.0137608 -0.26707 0.377589 0.459265 -0.264891
internal_count=16000 7135 8865 8005 7835 6425 4617 1808 860 772 88
shrinkage=0.05


Tree=57
num_leaves=12
num_cat=0
split_feature=64 64 64 35 63 0 64 64 64 20 48
split_gain=17.5295 67.1615 19.1791 15.553 14.6987 17.7982 14.488 11.759 9.77301 8.49686 6.33378
threshold=1194000908341.5002 1305670058079.0002 1168231104564.5002 15.500000000000002 479.50000000000006 221.50000000000003 1606317768812.5002 1228360646840.0002 1279900254220.5002 3042.5050000000006 0.024658284292231412
decision_type=2 2 2 2 2 2 2 2 2 2 2
left_child=2 7 4 6 9 -6 -3 10 -9 -1 -2
right_child=1 3 -4 -5 5 -7 -8 8 -10 -11 -12
leaf_value=-0.0090377205371241498 0.078853301869164838 -0.0065014773614405601 -0.036502090631941646 0.03393152076106741 0.013973101975518083 -0.0020196318050019228 0.012658600390135289 0.07093769760321432 0.030655497240942711 -0.03610480500601259 0.014530849554889645
leaf_count=1667 24 2788 252 142 1162 8064 721 189 189 511 291
internal_value=0 0.129971 -0.0507485 -0.00782404 -0.0354215 -0.00117513 -0.0462552 0.776169 1.05096 -0.268513 0.411388
internal_count=16000 4344 11656 3651 11404 9226 3509 693 378 2178 315
shrinkage=0.05


Tree=58
num_leaves=12
num_cat=0
split_feature=63 44 6 2 38 21 63 49 12 3 23
split_gain=17.0851 17.2986 13.2409 15.1791 12.9901 10.6047 13.8162 9.59843 10.4399 8.86538 10.4338
threshold=1407.5000000000002 0.48649577687830364 1.7591888000000002 28.330466500000004 0.10262154968823801 563.50000000000011 2251.0000000000005 0.0018136987956006315 164.50000000000003 4.6566553347470645 12.275816814378686
decision_type=2 2 2 2 2 2 2 2 2 2 2
left_child=1 9 4 -4 -3 7 -7 -2 -9 10 -1
right_child=5 2 3 -5 -6 6 -8 8 -10 -11 -12
leaf_value=-0.018655337301988199 0.029776874649735986 0.02026458153509697 -0.0035476732204648125 0.015333178256135822 -0.0041359630358290623 0.00097434462933999844 0.041856171670647882 -0.011224055687259088 0.026576890196257363 -0.023855376843195962 0.027714108379690738
leaf_count=198 401 771 9969 618 492 1712 133 193 144 1244 125
internal_value=0 -0.0424218 -0.0138737 -0.044812 0.214177 0.151722 0.064878 0.371105 0.0866083 -0.339771 0.00132297
internal_count=16000 13417 11850 10587 1263 2583 1845 738 337 1567 323
shrinkage=0.05


Tree=59
num_leaves=12
num_cat=0
split_feature=46 2 58 9 6 3 9 28 25 4 38
split_gain=16.4372 18.8493 16.1376 13.1263 13.0057 11.7636 10.9014 10.2938 13.4407 7.66891 6.62243
threshold=0.16181494412101868 27.39999980926514 0.19712643678160921 156.50000000000003 18.450419000000004 14.168727815665267 110.50000000000001 8.5814563789369736 1.4989626595557106 11.519984161273726 0.1216128806685081
decision_type=2 2 2 2 2 2 2 2 2 2 2
left_child=1 2 3 -1 10 7 -4 8 -2 -6 -3
right_child=5 4 6 -5 9 -7 -8 -9 -10 -11 -12
leaf_value=-0.0023316726502367962 0.010500823434707965 0.022914193558135957 -0.020347422495860971 0.020504565455987757 -0.014817220107826219 -0.024182870653358734 0.0076188023038537313 -0.055516389625088473 0.045545298321785846 0.034572204787002778 0.00044520821027194596
leaf_count=10677 1476 734 1543 294 393 132 184 26 252 40 249
internal_value=0 -0.0297693 -0.062221 -0.0298549 0.222247 0.208399 -0.309038 0.260664 0.286813 -0.15161 0.353091
internal_count=16000 14114 12698 10971 1416 1886 1727 1754 1728 433 983
shrinkage=0.05


Tree=60
num_leaves=12
num_cat=0
split_feature=63 2 64 64 64 39 23 20 27 26 49
split_gain=15.9365 19.3684 15.1935 61.4463 12.5962 8.73775 5.96467 4.56892 5.65853 8.21886 4.06269
threshold=284.50000000000006 11.518390250000001 1194000908466.0002 1314259992625.0002 1159641170011.5002 0.028422554933218443 16.189462645576011 1848.9120340050004 9.9280982474687978 -0.0016360698035689837 0.0013313908529442599
decision_type=2 2 2 2 2 2 2 2 2 2 2
left_child=7 5 4 -4 -3 -2 -7 8 10 -10 -1
right_child=1 2 3 -5 -6 6 -8 -9 9 -11 -12
leaf_value=0 0.10809680987605484 -0.0015160644744776923 0.038032132980425057 -0.0005326785400359582 -0.025223006806048429 0.010859152023875711 0.052016710458820815 -0.044806145356137854 0.06737655000651778 -0.012368106946307121 -0.027575762562192949
leaf_count=146 23 10332 637 3257 345 198 151 311 44 74 482
internal_value=0 0.0147211 0.00157493 0.12805 -0.046123 0.608709 0.471292 -0.40707 -0.279968 0.291802 -0.408166
internal_count=16000 14943 14571 3894 10677 372 349 1057 746 118 628
shrinkage=0.05


Tree=61
num_leaves=12
num_cat=0
split_feature=37 25 2 28 3 60 39 6 9 4 60
split_gain=15.4723 16.9012 17.6612 13.2986 12.7419 11.3476 7.5668 7.31339 8.05443 5.75032 5.6765
threshold=0.26813204508856686 1.3842183707712195 26.489999885559083 5.4950618320560549 11.026067726485875 0.043811978399607272 0.061548125241592588 4.4350184500000012 103.50000000000001 5.2826209834050983 0.043617362466392813
decision_type=2 2 2 2 2 2 2 2 2 2 2
left_child=1 2 4 -3 -1 -4 7 -2 -9 -8 -11
right_child=6 3 5 -5 -6 -7 9 8 -10 10 -12
leaf_value=-4.6065037913813882e-06 0.0043008197791362659 0.041727885188732314 0.00095482098816302395 -0.044597552742514625 -0.012205952918772432 0.01841150358884058 -0.036832160004962998 -0.031815766657441333 0 -0 0.075254188215343007
leaf_count=10842 144 302 982 26 1666 1073 24 766 104 29 42
internal_value=0 0.018267 0.00691701 0.635333 -0.0292113 0.203555 -0.318582 -0.390125 -0.499265 0.415757 0.833712
internal_count=16000 14891 14563 328 12508 2055 1109 1014 870 95 71
shrinkage=0.05


Tree=62
num_leaves=12
num_cat=0
split_feature=61 2 3 48 63 19 30 3 63 60 24
split_gain=14.9947 14.0783 16.9177 13.5758 8.68521 6.30919 6.43663 5.07415 6.00286 3.22354 2.23138
threshold=0.046954331460041833 30.895486000000005 16.649237807569275 0.20821117836651318 1649.5000000000002 8.094760703391449 83.500000000000014 4.8125969508567383 1544.5000000000002 0.046958923852990636 9.7299552162415726
decision_type=2 2 2 2 2 2 2 2 2 2 2
left_child=7 2 3 -2 -4 -3 -7 9 10 -1 -9
right_child=1 5 4 -5 -6 6 -8 8 -10 -11 -12
leaf_value=0.04475177657000106 5.8202245658721897e-06 -0.010095879776530245 -0.033666136435758463 0.021956711694735648 0.013214006029691123 0.065372299613986939 0.018834585113917095 -0.0091279744745308821 0.0013980081980233148 -0.01919103167277968 -0.04862023595938688
leaf_count=24 14212 44 532 471 45 68 124 89 33 22 336
internal_value=0 0.0105021 0 0.0133763 -0.506479 0.540442 0.699242 -0.535723 -0.662189 0.169404 -0.830758
internal_count=16000 15496 15260 14683 577 236 192 504 458 46 425
shrinkage=0.05


Tree=63
num_leaves=12
num_cat=0
split_feature=63 30 63 15 61 58 45 0 63 2 57
split_gain=14.5805 15.6958 13.8334 12.9276 12.207 10.8126 10.4685 10.1034 13.6626 9.0419 8.15363
threshold=929.50000000000011 68.500000000000014 2198.5000000000005 0.66677595628415309 0.074604305987865605 0.14605350984536658 0.14875518524507411 278.50000000000006 565.50000000000011 29.421453538146977 0.58866586377626129
decision_type=2 2 2 2 2 2 2 2 2 2 2
left_child=4 5 3 -3 10 -2 -7 8 -6 -9 -1
right_child=1 2 -4 -5 7 6 -8 9 -10 -11 -12
leaf_value=-0.010975755290415548 0.021974219847118046 -0.016035345851727476 0.036657451668477996 0.0020656200921230499 -0.0045556915907788119 -0.020124977440599622 0.029526525328358311 -0.010026432655998341 0.0094724102139395264 0.032213444983484052 -0.041298438407678661
leaf_count=1167 899 567 168 5086 3179 190 84 2476 1777 78 329
internal_value=0 0.0700081 0.023754 0.00638332 -0.078725 0.317815 -0.0784937 -0.0397175 0.030504 -0.170314 -0.337658
internal_count=16000 6994 5821 5653 9006 1173 274 7510 4956 2554 1496
shrinkage=0.05


Tree=64
num_leaves=12
num_cat=0
split_feature=64 64 64 52 64 36 4 64 64 64 38
split_gain=14.4091 54.201 16.7122 13.5883 12.8228 12.5168 12.1072 10.7225 33.1752 14.3483 8.22533
threshold=1194000908341.5002 1305670058079.0002 1168231104564.5002 537.50000000000011 1606317768812.5002 0.54042402375183751 3.7925854528910206 1254130450565.0002 1279900254220.5002 1254130450458.5002 0.11574513317871953
decision_type=2 2 2 2 2 2 2 2 2 2 2
left_child=2 7 5 4 -3 6 -1 9 -9 -2 -5
right_child=1 3 -4 10 -6 -7 -8 8 -10 -11 -12
leaf_value=0.016697098294691109 0.031667652015515989 -0.0061700142005516982 -0.034577825661391441 0.049706703939599133 0.011896978772841807 -0.016935966167324863 -0.0015145595267732305 0.12192635672053545 0.026865225431182388 -0.024367529076581067 -0
leaf_count=651 378 2785 252 98 719 1009 9744 63 189 63 49
internal_value=0 0.118015 -0.0462508 -0.00715405 -0.0438627 -0.0320249 -0.00947443 0.693567 1.08156 0.456994 0.626825
internal_count=16000 4344 11656 3651 3504 11404 10395 693 252 441 147
shrinkage=0.05


Tree=65
num_leaves=12
num_cat=0
split_feature=63 2 64 64 64 39 23 61 28 49 6
split_gain=13.9612 16.4079 13.312 20.8826 17.7846 7.42878 5.46719 4.44943 7.89076 10.2119 5.824
threshold=284.50000000000006 11.518390250000001 927712936021.50012 1408749273182.5002 893353197694.50012 0.028422554933218443 16.189462645576011 0.076231601281672737 7.9793341410773166 0.0010663661150939771 1.4882277000000002
decision_type=2 2 2 2 2 2 2 2 2 2 2
left_child=7 5 4 -4 -3 -2 -7 -1 9 -9 -10
right_child=1 2 3 -5 -6 6 -8 8 10 -11 -12
leaf_value=-0.04476597777504486 0.099421823581061025 -0.0020361010704613783 0.0096913570942248218 -0.0046290067890777083 -0.034182409331831108 0.0097837396987160014 0.050300028400855096 0.029141886781843929 -0.032594571267408425 -0.035060984218614984 0.021447171151411561
leaf_count=252 23 8155 3796 2340 280 198 151 61 51 474 219
internal_value=0 0.0136102 0.00152956 0.0856961 -0.0616946 0.564654 0.432795 -0.386199 -0.263876 -0.510154 0.145101
internal_count=16000 14943 14571 6136 8435 372 349 1057 805 535 270
shrinkage=0.05


Tree=66
num_leaves=12
num_cat=0
split_feature=63 61 24 2 6 21 63 49 12 5 20
split_gain=13.3627 13.9405 11.7082 13.9736 13.5822 9.57153 11.4862 8.53572 9.41716 8.47358 8.23713
threshold=1407.5000000000002 0.040266513511684039 9.9526638909499408 29.992820500000004 14.439106000000001 563.50000000000011 2251.0000000000005 0.0018136987956006315 164.50000000000003 -0.012038803375621963 12426.379623173674
decision_type=2 2 2 2 2 2 2 2 2 2 2
left_child=1 -1 4 -4 -3 7 9 10 -9 -7 -2
right_child=5 2 3 -5 -6 6 -8 8 -10 -11 -12
leaf_value=-0.040283331138442138 0.036770229682323879 -0.0018852103634426878 0.003901204769840517 0.050869734903480505 -0.017703883964191699 0.030324662111785028 0.038990795993013437 -0.011167546019998335 0.024849170076830952 -0.0011115145540546568 0
leaf_count=301 305 9002 2752 84 1278 98 133 193 144 1614 96
internal_value=0 -0.0377237 -0.0283925 0.11667 -0.0681424 0.134518 0.0517522 0.343513 0.0735922 0.0112485 0.555776
internal_count=16000 13417 13116 2836 10280 2583 1845 738 337 1712 401
shrinkage=0.05


Tree=67
num_leaves=12
num_cat=0
split_feature=2 3 44 25 24 63 47 19 60 15 6
split_gain=12.8498 18.1943 13.315 11.4612 8.234 7.6211 5.43773 6.17242 5.17247 5.03706 3.17176
threshold=31.356521500000003 16.649237807569275 0.81753240125280635 1.3842183707712195 10.061112048753824 1649.5000000000002 -0.0001170914263163287 7.4365744428562559 0.046671381423856677 0.72411517013770355 23.039297730926517
decision_type=2 2 2 2 2 2 2 2 2 2 2
left_child=1 2 4 -4 -1 8 -2 -8 -3 -7 -9
right_child=6 5 3 -5 -6 9 7 10 -10 -11 -12
leaf_value=-0.0042337020397827654 -0.013941953959581269 -0.039988112265357388 0.0031347883522576678 0.030123903676200117 0.011633716706750476 0.04102060834013254 -0.015039872764871393 0.050968040386273318 -0.0032024364372684917 -0.023630045648613714 0
leaf_count=7767 25 506 6447 320 536 28 23 114 193 20 21
internal_value=0 -0.00856904 0.00543905 0.0821398 -0.0632816 -0.495232 0.57388 0.725536 -0.632754 0.204026 0.886493
internal_count=16000 15817 15070 6767 8303 747 183 158 699 48 135
shrinkage=0.05


Tree=68
num_leaves=12
num_cat=0
split_feature=64 64 64 64 64 35 64 64 64 64 64
split_gain=12.7274 51.3334 12.4521 43.6981 47.854 12.4407 11.9848 22.3532 14.9042 11.6314 11.3651
threshold=1194000908466.0002 1297080123495.0002 1082331758642.5001 1030792151154.5001 1065151889432.0001 15.500000000000002 1254130450565.0002 1279900254220.5002 1254130450458.5002 25769803883.500004 1606317768812.5002
decision_type=2 2 2 2 2 2 2 2 2 2 2
left_child=2 6 3 9 -5 10 8 -8 -2 -1 -3
right_child=1 5 -4 4 -6 -7 7 -9 -10 -11 -12
leaf_value=0.023214462848763901 0.034275315849731501 -0.0053442213676460912 -0.014553034846927727 0.095664034513404772 0.00086194613708912439 0.03090969120535883 0.1127064076073588 0.028374334675944298 -0.023713610232873984 -0.0030082678754156222 0.011604740738161558
leaf_count=253 315 2849 1134 126 189 144 63 126 63 10017 721
internal_value=0 0.112138 -0.0431594 -0.0161127 0.850016 -0 0.735215 1.21372 0.478817 -0.0459897 -0.033189
internal_count=16000 4281 11719 10585 315 3714 567 189 378 10270 3570
shrinkage=0.05


Tree=69
num_leaves=12
num_cat=0
split_feature=63 2 37 2 39 39 63 42 63 16 5
split_gain=12.4564 14.7764 11.6244 13.9156 8.30367 6.40817 5.22302 4.48248 8.10355 11.348 4.51347
threshold=284.50000000000006 11.518390250000001 0.26813204508856686 26.489999885559083 0.061760285135552789 0.028422554933218443 685.50000000000011 71.500000000000014 194.50000000000003 0.405933259992666 0.017532589405816978
decision_type=2 2 2 2 2 2 2 2 2 2 2
left_child=7 5 3 -3 -4 -2 -7 8 -1 -10 -9
right_child=1 2 4 -5 -6 6 -8 10 9 -11 -12
leaf_value=-0.022044775963102309 0.093036178634641184 -0.00080305581488784817 -0.018383703035128995 0.0095053507704335218 0.028890430916950424 0.0046023372846592204 0.040325666569814816 -0.039905498307172757 -0.0014623131799181167 0.087940445323123492 0
leaf_count=374 23 11567 871 2068 65 164 185 395 122 51 115
internal_value=0 0.0128111 0.00135952 0.0176753 -0.291468 0.538883 0.412213 -0.368696 -0.133934 0.412218 -0.620999
internal_count=16000 14943 14571 13635 936 372 349 1057 547 173 510
shrinkage=0.05


Tree=70
num_leaves=12
num_cat=0
split_feature=61 24 64 63 48 64 58 63 3 60 58
split_gain=12.0828 12.0722 13.6045 12.3249 14.1223 12.9084 10.555 6.40085 4.6603 5.82702 9.15008
threshold=0.046954331460041833 9.9339087988392247 163208757389.50003 1136.5000000000002 0.015985430494106116 68719476865.500015 0.28420252759558479 1714.5000000000002 4.8125969508567383 0.040012507817385877 0.094051646543964765
decision_type=2 2 2 2 2 2 2 2 2 2 2
left_child=8 3 7 5 -5 -2 -4 -3 -1 -10 -11
right_child=1 2 6 4 -6 -7 -8 -9 9 10 -12
leaf_value=0.0090612919843243173 0.018189466773632694 -0.018529508063286439 0.0099478092347084247 0.069328519535585831 0.0026770466870186613 -0.0059631534836129541 -0.031609216022583451 0.038041450124473665 -0.049513465903213962 0.033824922275620069 -0.03522503746858039
leaf_count=46 378 424 3515 36 3412 7601 106 24 214 58 186
internal_value=0 0.00925979 0.125453 -0.0306827 0.0694906 -0.0948231 0.176129 -0.280206 -0.495124 -0.623665 -0.168076
internal_count=16000 15496 4069 11427 3448 7979 3621 448 504 458 244
shrinkage=0.05


Tree=71
num_leaves=12
num_cat=0
split_feature=58 48 5 2 47 18 39 2 28 61 6
split_gain=11.6906 13.6788 15.7445 14.4705 13.3023 11.3985 8.02415 10.3199 12.041 8.75179 6.83523
threshold=0.19712643678160921 0.11703147842556343 -0.016192028651064058 28.729017271118167 -0.00070219989684089639 0.0044550518232042641 0.050294127824492205 26.224233000000002 7.5604559378634972 0.096886055296722298 2.6545951500000005
decision_type=2 2 2 2 2 2 2 2 2 2 2
left_child=1 3 -3 5 -4 -1 10 8 -8 -9 -2
right_child=6 2 4 -5 -6 -7 7 9 -10 -11 -12
leaf_value=-0.0059567523094386171 0.028016025945032476 -0.023438276867117955 0.056877716055767927 0.01786552807095387 0.012413872283239417 0.0018915714632197177 -0.017003714987099766 -0.012978633425722662 0.021086909490700186 0.025254739605359712 -0.024331117748641488
leaf_count=4596 38 179 127 535 1286 7000 882 143 213 255 746
internal_value=0 0.0247218 0.239843 -0.00233218 0.325294 -0.0224369 -0.179985 -0.0664655 -0.214176 0.25619 -0.416229
internal_count=16000 13723 1592 12131 1413 11596 2277 1493 1095 398 784
shrinkage=0.05


Tree=72
num_leaves=12
num_cat=0
split_feature=64 64 64 64 64 64 63 36 15 61 57
split_gain=11.4922 42.5048 15.3155 11.9126 33.7574 20.034 10.6082 11.1687 8.9311 7.83693 8.17358
threshold=1194000908341.5002 1314259992625.0002 1168231104564.5002 1606317768812.5002 1649267441677.5002 1408749273182.5002 1737.5000000000002 0.54042402375183751 0.70150384441429237 0.12245302498736933 0.3520594835395488
decision_type=2 2 2 2 2 2 2 2 2 2 2
left_child=2 9 6 5 -5 -3 7 -1 -8 10 -2
right_child=1 3 -4 4 -6 -7 8 -9 -10 -11 -12
leaf_value=-0.0013368851209166414 0.062026664004444891 0.0091355074876316011 -0.033325498933981186 0.054920876447593969 -0.0020723627083149023 -0.012392740704293947 -0.011133603276711937 -0.017675982507105802 0.019988981261802721 0.04677263160151645 0.014380300330369484
leaf_count=9854 53 1008 252 189 564 1827 133 974 443 249 454
internal_value=0 0.105618 -0.0414387 -0.0116301 0.25171 -0.0888201 -0.0278514 -0.048744 0.252322 0.588847 0.4069
internal_count=16000 4344 11656 3588 753 2835 11404 10828 576 756 507
shrinkage=0.05


Tree=73
num_leaves=12
num_cat=0
split_feature=63 2 50 37 39 0 28 2 5 60 60
split_gain=11.1272 13.2881 10.7477 10.4684 5.56539 5.18031 4.80221 4.38521 6.85455 6.16743 12.2176
threshold=284.50000000000006 11.518390250000001 162.50000000000003 0.26813204508856686 0.028422554933218443 979.50000000000011 7.6050565627358786 12.602674000000002 0.052319019863938575 0.055121917787355888 0.062202840673623937
decision_type=2 2 2 2 2 2 2 2 2 2 2
left_child=7 4 3 -3 -2 -4 -6 9 -9 -1 -11
right_child=1 2 5 -5 6 -7 -8 8 -10 10 -12
leaf_value=-0.021942060720526887 0.087224389687947157 0.00047975344849343952 0.0015671740429007736 -0.014409584704033959 0.033653450005017176 0.05286829640676477 0 -0.030464867223795836 0.022071591592707645 0.095119713568796393 -0.0070237814897405387
leaf_count=127 23 13498 56 925 230 92 119 755 77 38 60
internal_value=0 0.0120459 0.00118756 -0.00503798 0.513335 0.654171 0.391526 -0.351975 -0.494428 0 0.559302
internal_count=16000 14943 14571 14423 372 148 349 1057 832 225 98
shrinkage=0.05


Tree=74
num_leaves=12
num_cat=0
split_feature=61 24 64 64 63 58 63 43 63 3 60
split_gain=10.9179 10.4338 12.2888 11.7039 11.8023 9.42742 5.77102 5.72023 3.76892 4.22749 4.53703
threshold=0.045413266538283516 9.9339087988392247 163208757389.50003 1700807049333.5002 1136.5000000000002 0.28420252759558479 1714.5000000000002 5.5000000000000009 1544.5000000000002 4.8125969508567383 0.046159309440559453
decision_type=2 2 2 2 2 2 2 2 2 2 2
left_child=8 3 6 4 -2 -4 -3 -5 9 -1 -11
right_child=1 2 5 7 -6 -7 -8 -9 -10 10 -12
leaf_value=0 -0.0048774164465329884 -0.017887829428977486 0.0092592014153954124 0.10632810907817072 0.0031706282165398069 -0.030457017470251032 0.035986067940855591 0.0017695481030277776 0.0024515451131904308 -0.053293334454826063 -0
leaf_count=41 7980 426 3529 21 3452 106 24 21 28 256 116
internal_value=0 0.00802516 0.115937 -0.029121 -0.0344891 0.163851 -0.2713 1.22596 -0.52289 -0.663027 -0.826589
internal_count=16000 15559 4085 11474 11432 3635 450 42 441 413 372
shrinkage=0.05


Tree=75
num_leaves=12
num_cat=0
split_feature=63 0 2 3 48 20 39 62 64 48 9
split_gain=10.4019 17.5633 12.6524 18.6055 13.4543 10.3916 9.19853 11.0892 8.68735 8.46976 12.9246
threshold=539.50000000000011 221.50000000000003 22.258551500000006 9.2163537028291156 0.17929733176600121 2439.2795920450003 0.053336536921351922 45.853555184984003 1408749273182.5002 0.10521552083905229 51.500000000000007
decision_type=2 2 2 2 2 2 2 2 2 2 2
left_child=5 6 4 -4 -3 -1 8 -8 -2 -7 -11
right_child=1 2 3 -5 -6 9 7 -9 -10 10 -12
leaf_value=-0.0017367280368875996 0.034276910459684194 -0.0057839801934296501 0.013898939983147297 -0.00050167359151491312 0.025816575055248848 -0.026742732920560813 -0.0070262511577837408 0.023217767075795485 -0.0053157318336702567 -0.0098166829387708703 0.079079529924414152
leaf_count=2297 416 4799 1586 4396 264 1083 384 300 80 361 34
internal_value=0 0.0274344 -0.00109926 0.0701417 -0.0900844 -0.145116 0.302029 0.111346 0.547547 -0.380952 0.0181049
internal_count=16000 12225 11045 5982 5063 3775 1180 684 496 1478 395
shrinkage=0.05


Tree=76
num_leaves=12
num_cat=0
split_feature=64 64 64 64 64 64 52 24 64 64 38
split_gain=10.4028 41.9627 11.1125 38.615 41.6319 11.587 10.6174 10.9124 10.1942 7.83422 7.52103
threshold=1194000908466.0002 1305670058079.0002 1082331758642.5001 1030792151154.5001 1065151889432.0001 1099511627826.0002 537.50000000000011 10.074046544344808 25769803883.500004 1159641170011.5002 0.11574513317871953
decision_type=2 2 2 2 2 2 2 2 2 2 2
left_child=2 -2 3 8 -5 -4 7 -3 -1 -7 -8
right_child=1 6 5 4 -6 9 10 -9 -10 -11 -12
leaf_value=0.021705026757890662 0.031423208053196719 -0.0038703513193830232 -0.049724027730336351 0.088803629158355685 0.00064939022086773536 -0 0.046007572435871183 0.023715916099526016 -0.0027700249562564189 -0.023360572545100652 -0.0015827569749647644
leaf_count=253 630 3257 126 126 189 630 98 247 10017 378 49
internal_value=0 0.1016 -0.0391305 -0.0135596 0.798085 -0.275207 -0.00623928 -0.0388564 -0.0419565 -0.176941 0.560464
internal_count=16000 4281 11719 10585 315 1134 3651 3504 10270 1008 147
shrinkage=0.05


Tree=77
num_leaves=12
num_cat=0
split_feature=2 3 2 18 60 63 17 8 61 4 16
split_gain=10.224 14.6321 10.0815 11.8993 7.09364 6.84023 4.68164 6.09686 4.49465 4.21466 3.36129
threshold=32.10172273132325 16.649237807569275 27.245710138549807 0.0031339880140714349 0.042810837417787274 1649.5000000000002 0.065519931142073287 84.500000000000014 0.10845297448869991 6.8828179459358969 0.39211880404335653
decision_type=2 2 2 2 2 2 2 2 2 2 2
left_child=1 2 3 -1 -4 9 -2 -8 -7 -3 -9
right_child=6 5 4 -5 -6 8 7 10 -10 -11 -12
leaf_value=-0.0052432271800776017 0.06200916140594448 -0.046989961945074508 -0 0.0021725337772045103 0.017086798990318529 0.041501920767023512 0.063243568735612585 -0.02900153502876758 -0.017561884187792708 -0.016892156463235327 0.020922182082226681
leaf_count=5640 40 398 515 8227 728 28 26 31 22 320 25
internal_value=0 -0.00628229 0.00636531 -0.0141476 0.198387 -0.44004 0.623556 0.237978 0.212318 -0.571269 -0.0384903
internal_count=16000 15878 15110 13867 1243 768 122 82 50 718 56
shrinkage=0.05


Tree=78
num_leaves=12
num_cat=0
split_feature=58 48 5 2 47 6 39 2 28 61 6
split_gain=9.86514 11.4202 13.9934 12.0513 11.8124 9.9985 7.18009 8.95463 11.4333 7.62926 6.24779
threshold=0.19712643678160921 0.11703147842556343 -0.016192028651064058 28.729017271118167 -0.00070219989684089639 16.305969257324222 0.050294127824492205 26.224233000000002 7.5604559378634972 0.096886055296722298 2.6545951500000005
decision_type=2 2 2 2 2 2 2 2 2 2 2
left_child=1 3 -3 5 -4 -1 10 8 -8 -9 -2
right_child=6 2 4 -5 -6 -7 7 9 -10 -11 -12
leaf_value=-0.00020316440615776485 0.026802458712080281 -0.022672811450923269 0.053330524532606866 0.016283073345444939 0.011349536653652875 -0.01724479674085598 -0.016146881682923653 -0.012220910296783724 0.021059728724814597 0.02354889360410907 -0.02312474030776477
leaf_count=10902 38 179 127 535 1286 694 882 143 213 255 746
internal_value=0 0.0226602 0.21956 -0.00207831 0.299954 -0.02057 -0.166578 -0.0589326 -0.198369 0.240615 -0.393195
internal_count=16000 13723 1592 12131 1413 11596 2277 1493 1095 398 784
shrinkage=0.05


Tree=79
num_leaves=12
num_cat=0
split_feature=63 52 6 63 5 5 16 48 61 28 49
split_gain=9.74523 12.5974 13.7684 15.5339 12.1174 9.39721 22.9498 6.97798 4.33655 7.1016 9.64486
threshold=284.50000000000006 95.500000000000014 0.79633100000000012 659.50000000000011 -7.8949391777304586e-17 0.032263718591306272 0.33969051607242567 0.057139054184337283 0.076231601281672737 7.9793341410773166 0.0010663661150939771
decision_type=2 2 2 2 2 2 2 2 2 2 2
left_child=8 5 4 -4 -3 7 -7 -2 -1 10 -10
right_child=1 2 3 -5 -6 6 -8 -9 9 -11 -12
leaf_value=-0.043186278815116941 -0.0053128681628576216 0.035633269594664042 -0.0092471485833768366 0.0010419844534608213 0.0028485431863680237 -0.0071098498405127806 0.12845785222771972 0.025524257380680079 0.030243049843650956 0.0088257335710170467 -0.032963561554931582
leaf_count=252 171 278 3666 10064 437 30 40 257 61 270 474
internal_value=0 0.0111749 -0.00130772 -0.0190931 0.322268 0.398053 1.27296 0.244491 -0.333252 -0.212669 -0.459651
internal_count=16000 14943 14445 13730 715 498 70 428 1057 805 535
shrinkage=0.05


end of trees

feature importances:
seconds_copy__maximum=173
bookingID=94
Speed__median=64
Speed__maximum=57
Speed__mean=55
gyro_abs__standard_deviation=36
Speed__sum_values=31
Speed__mean_abs_change=22
acceleration_abs__minimum=20
acceleration_abs__mean_abs_change=18
acceleration_abs__ratio_beyond_r_sigma__r_0.5=16
gyro_abs__ratio_beyond_r_sigma__r_1=15
gyro_abs__maximum=14
acceleration_abs__ratio_beyond_r_sigma__r_2=13
gyro_abs__mean=13
gyro_abs__median=13
Speed__mean_change=12
acceleration_abs__mean=12
acceleration_abs__standard_deviation=12
gyro_abs__mean_abs_change=12
gyro_abs__ratio_beyond_r_sigma__r_2=12
gyro_abs__minimum=11
Speed__ratio_beyond_r_sigma__r_2=10
acceleration_abs__ratio_beyond_r_sigma__r_1=10
Speed__count_above_mean=9
Speed__ratio_beyond_r_sigma__r_0.5=8
acceleration_abs__maximum=8
gyro_abs__number_cwt_peaks__n_1=8
Speed__ratio_beyond_r_sigma__r_1.5=7
gyro_abs__number_peaks__n_1=7
Speed__number_cwt_peaks__n_5=6
acceleration_abs__ratio_beyond_r_sigma__r_1.5=6
gyro_abs__mean_change=6
gyro_abs__ratio_beyond_r_sigma__r_0.5=6
gyro_abs__sum_values=6
Speed__standard_deviation=5
acceleration_abs__mean_change=5
acceleration_abs__number_peaks__n_10=5
acceleration_abs__count_above_mean=4
acceleration_abs__median=4
acceleration_abs__number_peaks__n_50=4
gyro_abs__count_above_mean=4
Speed__minimum=3
Speed__ratio_beyond_r_sigma__r_1=3
acceleration_abs__number_cwt_peaks__n_1=3
Speed__number_peaks__n_3=2
Speed__number_peaks__n_5=2
acceleration_abs__number_cwt_peaks__n_5=2
gyro_abs__longest_strike_above_mean=2
gyro_abs__number_peaks__n_5=2
Speed__longest_strike_above_mean=1
Speed__number_cwt_peaks__n_1=1
Speed__number_peaks__n_1=1
Speed__number_peaks__n_10=1
Speed__number_peaks__n_50=1
acceleration_abs__longest_strike_above_mean=1
gyro_abs__number_peaks__n_50=1
gyro_abs__ratio_beyond_r_sigma__r_1.5=1

parameters:
[boosting: gbdt]
[objective: binary]
[metric: auc]
[tree_learner: serial]
[device_type: cpu]
[data: ]
[valid: ]
[num_iterations: 100]
[learning_rate: 0.05]
[num_leaves: 12]
[num_threads: 0]
[max_depth: 4]
[min_data_in_leaf: 20]
[min_sum_hessian_in_leaf: 1]
[bagging_fraction: 0.5]
[bagging_freq: 0]
[bagging_seed: 3]
[feature_fraction: 1]
[feature_fraction_seed: 2]
[early_stopping_round: 0]
[max_delta_step: 0]
[lambda_l1: 1]
[lambda_l2: 0.1]
[min_gain_to_split: 0]
[drop_rate: 0.1]
[max_drop: 50]
[skip_drop: 0.5]
[xgboost_dart_mode: 0]
[uniform_drop: 0]
[drop_seed: 4]
[top_rate: 0.2]
[other_rate: 0.1]
[min_data_per_group: 100]
[max_cat_threshold: 32]
[cat_l2: 10]
[cat_smooth: 10]
[max_cat_to_onehot: 4]
[top_k: 20]
[monotone_constraints: ]
[feature_contri: ]
[forcedsplits_filename: ]
[refit_decay_rate: 0.9]
[verbosity: 1]
[max_bin: 255]
[min_data_in_bin: 3]
[bin_construct_sample_cnt: 200000]
[histogram_pool_size: -1]
[data_random_seed: 1]
[output_model: LightGBM_model.txt]
[snapshot_freq: -1]
[input_model: ]
[output_result: LightGBM_predict_result.txt]
[initscore_filename: ]
[valid_data_initscores: ]
[pre_partition: 0]
[enable_bundle: 1]
[max_conflict_rate: 0]
[is_enable_sparse: 1]
[sparse_threshold: 0.8]
[use_missing: 1]
[zero_as_missing: 0]
[two_round: 0]
[save_binary: 0]
[enable_load_from_binary_file: 1]
[header: 0]
[label_column: ]
[weight_column: ]
[group_column: ]
[ignore_column: ]
[categorical_feature: ]
[predict_raw_score: 0]
[predict_leaf_index: 0]
[predict_contrib: 0]
[num_iteration_predict: -1]
[pred_early_stop: 0]
[pred_early_stop_freq: 10]
[pred_early_stop_margin: 10]
[convert_model_language: ]
[convert_model: gbdt_prediction.cpp]
[num_class: 1]
[is_unbalance: 0]
[scale_pos_weight: 1]
[sigmoid: 1]
[boost_from_average: 1]
[reg_sqrt: 0]
[alpha: 0.9]
[fair_c: 1]
[poisson_max_delta_step: 0.7]
[tweedie_variance_power: 1.5]
[max_position: 20]
[label_gain: ]
[metric_freq: 1]
[is_provide_training_metric: 0]
[eval_at: ]
[num_machines: 1]
[local_listen_port: 12400]
[time_out: 120]
[machine_list_filename: ]
[machines: ]
[gpu_platform_id: -1]
[gpu_device_id: -1]
[gpu_use_dp: 0]

end of parameters

pandas_categorical:[]
